{
"model": "chemkin_elte2016_ethanol",
"species": {
    "num_elements": 8,
    "num_species": 49,
    "index_of_water": 8,
    "invalid_index": 65535,
    "element_names": [  "N",  "Ar",   "H",   "O",   "C",  "He",  "Kr",  "Ne"],
                           // [           0,            1,            2,            3,            4,            5,            6,            7,            8,            9,           10,           11,           12,           13,           14,           15,           16,           17,           18,           19,           20,           21,           22,           23,           24,           25,           26,           27,           28,           29,           30,           31,           32,           33,           34,           35,           36,           37,           38,           39,           40,           41,           42,           43,           44,           45,           46,           47,           48]
    "species_names":          [        "N2",         "AR",         "HE",          "H",         "O2",         "OH",          "O",         "H2",        "H2O",        "HO2",       "H2O2",         "CO",        "CO2",        "HCO",       "CH2O",        "CH4",        "CH3",      "T-CH2",      "S-CH2",       "C2H4",       "CH3O",       "C2H5",       "C2H6",         "CH",       "C2H2",       "C2H3",     "CH2CHO",      "C2H4O",      "CH2CO",       "HCCO",        "C2H",      "CH2OH",      "CH3OH",     "C2H5OH",     "CH3CHO",    "CH3CHOH",   "CH2CH2OH",      "CH3CO",    "CH3CH2O",       "C3H4",       "C3H3",       "C3H5",       "C3H6",       "C3H8",     "I-C3H7",     "N-C3H7",       "OHEX",         "KR",         "NE"],
    "molar_weights":          [    0.028014,      0.03995,    0.0040026,     0.001008,     0.031998,     0.017007,     0.015999,     0.002016,     0.018015,     0.033006,     0.034014,      0.02801,     0.044009,     0.029018,     0.030026,     0.016043,     0.015035,     0.014027,     0.014027,     0.028054,     0.031034,     0.029062,      0.03007,     0.013019,     0.026038,     0.027046,     0.043045,     0.044053,     0.042037,     0.041029,      0.02503,     0.031034,     0.032042,     0.046069,     0.044053,     0.045061,     0.045061,     0.043045,     0.045061,     0.040065,     0.039057,     0.041073,     0.042081,     0.044097,     0.043089,     0.043089,     0.017007,     0.083798,    0.0201797],    // [kg/mol]
    "thermal_conductivities": [  0.02668827,   0.01821854,    0.1555205,    0.2965966,     0.026729,   0.05971015,   0.05110778,    0.1888985,   0.02670269,   0.02969721,   0.03661478,   0.02574357,   0.01773319,   0.01465853,   0.01544012,    0.0363207,   0.03647672,   0.03435068,    0.0330195,   0.02952311,   0.01838617,   0.02180054,   0.02183509,   0.06658795,   0.02688478,   0.02464131,   0.01729666,   0.01506152,   0.01667279,   0.06615212,   0.02614931,   0.02039086,   0.01782731,   0.01519539,   0.01729483,   0.01639364,   0.01795728,   0.01617689,   0.01577638,   0.01939715,   0.02159647,   0.02085043,   0.02291117,   0.01924876,   0.01747528,   0.01828986,   0.05977778,   0.00944514,   0.04861659],    // [W/m/K] (at 303.15 K)
    "van_der_waals_a":        [   0.1942282,    0.2114328,   0.00731397,   0.05239917,     0.186285,   0.06978856,   0.06978856,   0.03968612,    0.4244481,     0.186285,     0.186285,    0.2000995,    0.5453789,    0.9665278,    0.9665278,    0.3117798,    0.3314434,    0.3314434,    0.3314434,    0.4272957,    0.8788573,    0.8545665,    0.8545665,   0.06978856,    0.5733562,    0.5733562,     1.144352,     1.144352,     1.144352,   0.09831517,    0.5733562,    0.8788573,    0.9635096,     1.693047,     1.144352,     1.413915,     1.413915,     1.144352,     1.693047,      1.07569,      1.07569,     0.996169,    0.9161561,     1.416301,     1.416301,     1.416301,   0.06978856,    0.3679261,   0.03085476],    // [m^6*Pa/mol^2]
    "van_der_waals_b":        [5.988183e-05, 4.657386e-05, 2.155992e-05, 1.086603e-05, 5.215362e-05, 2.623056e-05, 2.623056e-05, 3.140206e-05, 2.229629e-05, 5.215362e-05, 5.215362e-05, 6.133214e-05, 6.720664e-05, 5.835699e-05, 5.835699e-05, 6.629989e-05, 6.920864e-05, 6.920864e-05, 6.920864e-05, 5.389194e-05, 6.337072e-05, 0.0001038191, 0.0001038191, 2.623056e-05, 6.498132e-05, 6.498132e-05,  7.89189e-05,  7.89189e-05,  7.89189e-05, 1.970741e-05, 6.498132e-05, 6.337072e-05, 6.013024e-05, 0.0001081746,  7.89189e-05, 0.0001172476, 0.0001172476,  7.89189e-05, 0.0001081746, 9.958213e-05, 9.958213e-05, 9.478658e-05, 8.949742e-05, 0.0001403604, 0.0001403604, 0.0001403604, 2.623056e-05, 6.183762e-05, 2.828504e-05],    // [m^3/mol]
    "LJ_well_depths":         [  1.3465e-21,   1.8846e-21,   1.4083e-22,   2.0019e-21,   1.4828e-21,   1.1045e-21,   1.1045e-21,   5.2465e-22,   7.9028e-21,   1.4828e-21,   1.4828e-21,   1.3544e-21,   3.3688e-21,   6.8756e-21,   6.8756e-21,   1.9522e-21,   1.9881e-21,   1.9881e-21,   1.9881e-21,   3.2915e-21,   5.7573e-21,   3.4171e-21,   3.4171e-21,   1.1045e-21,   3.6629e-21,   3.6629e-21,   6.0196e-21,   6.0196e-21,   6.0196e-21,    2.071e-21,   3.6629e-21,   5.7573e-21,    6.652e-21,   6.4973e-21,   6.0196e-21,   5.0062e-21,   5.0062e-21,   6.0196e-21,   6.4973e-21,   4.4843e-21,   4.4843e-21,   4.3629e-21,   4.2496e-21,   4.1889e-21,   4.1889e-21,   4.1889e-21,   1.1045e-21,     2.47e-21,   4.5285e-22],    // [J]
    "LJ_collision_diameters": [   3.621e-10,     3.33e-10,    2.576e-10,     2.05e-10,    3.458e-10,     2.75e-10,     2.75e-10,     2.92e-10,    2.605e-10,    3.458e-10,    3.458e-10,     3.65e-10,    3.763e-10,     3.59e-10,     3.59e-10,    3.746e-10,      3.8e-10,      3.8e-10,      3.8e-10,    3.496e-10,     3.69e-10,     4.35e-10,     4.35e-10,     2.75e-10,    3.721e-10,    3.721e-10,     3.97e-10,     3.97e-10,     3.97e-10,      2.5e-10,    3.721e-10,     3.69e-10,    3.626e-10,     4.41e-10,     3.97e-10,     4.53e-10,     4.53e-10,     3.97e-10,     4.41e-10,     4.29e-10,     4.29e-10,     4.22e-10,     4.14e-10,     4.81e-10,     4.81e-10,     4.81e-10,     2.75e-10,     3.66e-10,     2.82e-10],    // [m]
    "dipole_moments":         [         0.0,          0.0,          0.0,          0.0,          0.0,          0.0,          0.0,          0.0,   6.1509e-30,          0.0,          0.0,          0.0,          0.0,          0.0,          0.0,          0.0,          0.0,          0.0,          0.0,          0.0,   5.6706e-30,          0.0,          0.0,          0.0,          0.0,          0.0,          0.0,          0.0,          0.0,          0.0,          0.0,   5.6706e-30,          0.0,          0.0,          0.0,          0.0,          0.0,          0.0,          0.0,          0.0,          0.0,          0.0,          0.0,          0.0,          0.0,          0.0,          0.0,          0.0,          0.0],    // [C*m]
    "polarizabilities":       [    1.76e-30,          0.0,          0.0,          0.0,      1.6e-30,          0.0,          0.0,      7.9e-31,          0.0,          0.0,          0.0,     1.95e-30,     2.65e-30,          0.0,          0.0,      2.6e-30,          0.0,          0.0,          0.0,          0.0,          0.0,          0.0,          0.0,          0.0,          0.0,          0.0,          0.0,          0.0,          0.0,          0.0,          0.0,          0.0,          0.0,          0.0,          0.0,          0.0,          0.0,          0.0,          0.0,          0.0,          0.0,          0.0,          0.0,          0.0,          0.0,          0.0,          0.0,          0.0,          0.0],    // [m^3]
    "rotational_relaxations": [         4.0,          0.0,          0.0,          0.0,          3.8,          0.0,          0.0,        280.0,          4.0,          1.0,          3.8,          1.8,          2.1,          0.0,          2.0,         13.0,          0.0,          0.0,          0.0,          1.5,          2.0,          1.5,          1.5,          0.0,          2.5,          1.0,          2.0,          2.0,          2.0,          1.0,          2.5,          2.0,          1.0,          1.5,          2.0,          1.5,          1.5,          2.0,          1.5,          1.0,          1.0,          1.0,          1.0,          1.0,          1.0,          1.0,          0.0,          0.0,          0.0]     // [-]
    
},
"thermodynamics": {
    "temp_ranges": [
        //     T_low       T_mid      T_high
        //       [K]         [K]         [K]
        [     200.0,     1000.0,     6000.0],    //   0. N2
        [     200.0,     6000.0,     6000.0],    //   1. AR
        [     200.0,     6000.0,     6000.0],    //   2. HE
        [     200.0,     6000.0,     6000.0],    //   3. H
        [     200.0,     1000.0,     6000.0],    //   4. O2
        [     200.0,     1000.0,     6000.0],    //   5. OH
        [     200.0,     1000.0,     6000.0],    //   6. O
        [     200.0,     1000.0,     6000.0],    //   7. H2
        [     200.0,     1000.0,     6000.0],    //   8. H2O
        [     200.0,     1000.0,     5000.0],    //   9. HO2
        [     200.0,     1000.0,     6000.0],    //  10. H2O2
        [     200.0,     1000.0,     6000.0],    //  11. CO
        [     200.0,     1000.0,     6000.0],    //  12. CO2
        [     200.0,     1000.0,     6000.0],    //  13. HCO
        [     200.0,     1000.0,     6000.0],    //  14. CH2O
        [     200.0,     1000.0,     6000.0],    //  15. CH4
        [     200.0,     1000.0,     6000.0],    //  16. CH3
        [     200.0,     1000.0,     6000.0],    //  17. T-CH2
        [     200.0,     1000.0,     6000.0],    //  18. S-CH2
        [     300.0,     1392.0,     5000.0],    //  19. C2H4
        [     200.0,     1000.0,     6000.0],    //  20. CH3O
        [     300.0,     1390.0,     5000.0],    //  21. C2H5
        [     300.0,     1385.0,     5000.0],    //  22. C2H6
        [     200.0,     1000.0,     6000.0],    //  23. CH
        [     200.0,     1000.0,     6000.0],    //  24. C2H2
        [     300.0,     1400.0,     5000.0],    //  25. C2H3
        [     200.0,     1000.0,     6000.0],    //  26. CH2CHO
        [     200.0,     1000.0,     6000.0],    //  27. C2H4O
        [     200.0,     1000.0,     6000.0],    //  28. CH2CO
        [     200.0,     1000.0,     6000.0],    //  29. HCCO
        [     200.0,     1000.0,     6000.0],    //  30. C2H
        [     200.0,     1000.0,     6000.0],    //  31. CH2OH
        [     200.0,     1000.0,     6000.0],    //  32. CH3OH
        [     300.0,     1402.0,     5000.0],    //  33. C2H5OH
        [     300.0,     1374.0,     5000.0],    //  34. CH3CHO
        [     300.0,     1385.0,     5000.0],    //  35. CH3CHOH
        [     300.0,     1395.0,     5000.0],    //  36. CH2CH2OH
        [     200.0,     1000.0,     6000.0],    //  37. CH3CO
        [     300.0,     1467.0,     5000.0],    //  38. CH3CH2O
        [     200.0,     1000.0,     6000.0],    //  39. C3H4
        [     200.0,     1000.0,     6000.0],    //  40. C3H3
        [     300.0,     1373.0,     5000.0],    //  41. C3H5
        [     300.0,     1387.0,     5000.0],    //  42. C3H6
        [     300.0,     1390.0,     5000.0],    //  43. C3H8
        [     300.0,     1434.0,     5000.0],    //  44. I-C3H7
        [     300.0,     1391.0,     5000.0],    //  45. N-C3H7
        [     300.0,     1000.0,     5000.0],    //  46. OHEX
        [     200.0,     1000.0,     6000.0],    //  47. KR
        [     200.0,     6000.0,     6000.0]     //  48. NE
    ],
    "a_low": [
        //             a_0               a_1               a_2               a_3               a_4               a_5               a_6
        [      3.53100528,  -0.000123660988,  -5.02999433e-07,   2.43530612e-09,  -1.40881235e-12,      -1046.97628,       2.96747038],    //   0. N2
        [             2.5,              0.0,              0.0,              0.0,              0.0,         -745.375,       4.37967491],    //   1. AR
        [             2.5,              0.0,              0.0,              0.0,              0.0,         -745.375,      0.928723974],    //   2. HE
        [             2.5,              0.0,              0.0,              0.0,              0.0,         25473.66,      -0.44668285],    //   3. H
        [      3.78245636,   -0.00299673416,   9.84730201e-06,  -9.68129509e-09,   3.24372837e-12,      -1063.94356,       3.65767573],    //   4. O2
        [      3.99198424,   -0.00240106655,   4.61664033e-06,  -3.87916306e-09,   1.36319502e-12,       3368.89836,     -0.103998477],    //   5. OH
        [       3.1682671,   -0.00327931884,   6.64306396e-06,  -6.12806624e-09,   2.11265971e-12,       29122.2592,       2.05193346],    //   6. O
        [      2.34433112,    0.00798052075,   -1.9478151e-05,   2.01572094e-08,  -7.37611761e-12,      -917.935173,      0.683010238],    //   7. H2
        [       4.1986352,    -0.0020364017,    6.5203416e-06,   -5.4879269e-09,     1.771968e-12,       -30293.726,      -0.84900901],    //   8. H2O
        [      4.30179807,   -0.00474912097,   2.11582905e-05,  -2.42763914e-08,   9.29225225e-12,       264.018485,        3.7166622],    //   9. HO2
        [      4.31515149,  -0.000847390622,   1.76404323e-05,  -2.26762944e-08,   9.08950158e-12,      -17706.7437,       3.27373319],    //  10. H2O2
        [       3.5795335,   -0.00061035369,    1.0168143e-06,    9.0700586e-10,   -9.0442449e-13,       -14344.086,        3.5084093],    //  11. CO
        [        2.356813,     0.0089841299,   -7.1220632e-06,    2.4573008e-09,   -1.4288548e-13,       -48371.971,        9.9009035],    //  12. CO2
        [       4.2375461,   -0.00332075257,   1.40030264e-05,  -1.34239995e-08,   4.37416208e-12,       3872.41185,       3.30834869],    //  13. HCO
        [      4.79372312,   -0.00990833322,    3.7321999e-05,  -3.79285237e-08,   1.31772641e-11,      -14379.1953,      0.602798058],    //  14. CH2O
        [      5.14911468,    -0.0136622009,   4.91453921e-05,  -4.84246767e-08,   1.66603441e-11,      -10246.5983,      -4.63848842],    //  15. CH4
        [       3.6571797,     0.0021265979,    5.4583883e-06,   -6.6181003e-09,    2.4657074e-12,        16422.716,        1.6735354],    //  16. CH3
        [      3.71757846,     0.0012739126,   2.17347251e-06,    -3.488585e-09,   1.65208866e-12,       45872.3866,       1.75297945],    //  17. T-CH2
        [      4.19331325,   -0.00233105184,   8.15676451e-06,  -6.62985981e-09,   1.93233199e-12,       50366.2246,      -0.74673431],    //  18. S-CH2
        [     0.481118223,      0.018377806,  -9.99633565e-06,   2.73211039e-09,  -3.01837289e-13,       5443.86648,       18.5867157],    //  19. C2H4
        [      3.71180502,   -0.00280463306,   3.76550971e-05,  -4.73072089e-08,    1.8658842e-11,        1295.6976,       6.57240864],    //  20. CH3O
        [        1.363592,     0.0180378905,  -7.33939659e-06,   6.99952365e-10,   1.79673684e-13,       13273.8146,       17.0114325],    //  21. C2H5
        [     0.532634792,     0.0211903699,   -7.0980375e-06,  -4.38599776e-10,   5.13743294e-13,      -11112.8059,       18.5650937],    //  22. C2H6
        [       3.4897583,     0.0003243216,   -1.6899751e-06,     3.162842e-09,   -1.4061803e-12,        70612.646,        2.0842841],    //  23. CH
        [     0.808679682,     0.0233615762,  -3.55172234e-05,   2.80152958e-08,  -8.50075165e-12,       26428.9808,       13.9396761],    //  24. C2H2
        [      1.25545094,     0.0157481597,  -1.12218328e-05,   4.50915682e-09,  -7.74861577e-13,       34743.5574,       16.9664043],    //  25. C2H3
        [        2.795026,     0.0101099472,   1.61750645e-05,  -3.10303145e-08,   1.39436139e-11,       162.944975,       12.3646657],    //  26. CH2CHO
        [       3.7590532,     -0.009441218,    8.0309721e-05,   -1.0080788e-07,    4.0039921e-11,       -7560.8143,        7.8497475],    //  27. C2H4O
        [      2.13241136,     0.0181319455,  -1.74093315e-05,    9.3533604e-09,  -2.01724844e-12,       -7148.0852,       13.3807969],    //  28. CH2CO
        [      1.87607969,     0.0221205418,  -3.58869325e-05,   3.05402541e-08,  -1.01281069e-11,        20163.384,        13.696829],    //  29. HCCO
        [      2.89867676,     0.0132988489,  -2.80733327e-05,   2.89484755e-08,  -1.07502351e-11,        67061.605,       6.18547632],    //  30. C2H
        [      4.47834367,    -0.0013507031,    2.7848498e-05,   -3.6486906e-08,    1.4790745e-11,       -3500.7289,         3.309135],    //  31. CH2OH
        [      5.65851051,    -0.0162983419,   6.91938156e-05,  -7.58372926e-08,    2.8042755e-11,      -25611.9736,     -0.897330508],    //  32. CH3OH
        [     0.215805861,     0.0295228396,  -1.68271048e-05,   4.49484797e-09,  -4.02451543e-13,      -29485.1823,       24.5725052],    //  33. C2H5OH
        [      1.76689729,     0.0181636914,  -6.62529556e-06,   -1.6946466e-10,   4.21572973e-13,       -21230.155,       16.5538831],    //  34. CH3CHO
        [      1.46281093,     0.0239193995,  -1.30667185e-05,   3.10615465e-09,  -1.85896007e-13,      -8007.90323,       19.2547092],    //  35. CH3CHOH
        [      2.59479867,     0.0227100669,  -1.39473846e-05,   4.70095591e-09,  -6.90044236e-13,      -4914.86975,       14.3240718],    //  36. CH2CH2OH
        [       4.0358705,    0.00087729487,     3.071001e-05,   -3.9247565e-08,    1.5296869e-11,       -2682.0738,        7.8617682],    //  37. CH3CO
        [      2.90353584,     0.0177256708,  -2.69624757e-06,  -3.45830533e-09,   1.25224784e-12,       -3289.3029,       11.3545591],    //  38. CH3CH2O
        [       2.6130445,      0.012122575,     1.853988e-05,   -3.4525149e-08,    1.5335079e-11,        21541.567,        10.226139],    //  39. C3H4
        [      1.35110873,     0.0327411291,  -4.73827407e-05,    3.7631022e-08,  -1.18541128e-11,       40767.9941,       15.2058598],    //  40. C3H3
        [     0.449521576,     0.0275404048,  -1.51792914e-05,   3.50842115e-09,  -1.79934287e-13,       19262.3564,        21.356316],    //  41. C3H5
        [     0.764219985,     0.0274294063,  -1.34507688e-05,   2.72030922e-09,   -9.7200085e-14,       1142.59854,       20.0145307],    //  42. C3H6
        [      0.24087847,     0.0339548599,  -1.60930874e-05,   2.83480628e-09,   2.78195172e-14,      -14036.2853,         21.65008],    //  43. C3H8
        [      1.94523452,     0.0211930026,   -1.9446525e-07,  -6.37322722e-09,   2.00284148e-12,       9034.96678,       17.2590353],    //  44. I-C3H7
        [     0.722274894,     0.0300295127,  -1.44192466e-05,   2.72384646e-09,  -4.05590405e-14,       10665.5746,       22.3646804],    //  45. N-C3H7
        [      3.63716112,   0.000184822409,  -1.63151323e-06,   2.26813062e-09,  -7.74674757e-13,       50017.2412,       1.35992232],    //  46. OHEX
        [             2.5,              0.0,              0.0,              0.0,              0.0,         -745.375,       5.49095651],    //  47. KR
        [             2.5,              0.0,              0.0,              0.0,              0.0,         -745.375,       3.35532272]     //  48. NE
    ],
    "a_high": [
        //             a_0               a_1               a_2               a_3               a_4               a_5               a_6
        [      2.95257637,     0.0013969004,  -4.92631603e-07,   7.86010195e-11,  -4.60755204e-15,      -923.948688,       5.87188762],    //   0. N2
        [             2.5,              0.0,              0.0,              0.0,              0.0,         -745.375,       4.37967491],    //   1. AR
        [             2.5,              0.0,              0.0,              0.0,              0.0,         -745.375,      0.928723974],    //   2. HE
        [             2.5,              0.0,              0.0,              0.0,              0.0,         25473.66,      -0.44668285],    //   3. H
        [      3.66096065,   0.000656365811,  -1.41149627e-07,   2.05797935e-11,  -1.29913436e-15,      -1215.97718,       3.41536279],    //   4. O2
        [      2.83853033,    0.00110741289,  -2.94000209e-07,   4.20698729e-11,   -2.4228989e-15,       3697.80808,       5.84494652],    //   5. OH
        [      2.54363697,  -2.73162486e-05,   -4.1902952e-09,   4.95481845e-12,  -4.79553694e-16,        29226.012,       4.92229457],    //   6. O
        [      2.93286575,   0.000826608026,  -1.46402364e-07,   1.54100414e-11,    -6.888048e-16,      -813.065581,      -1.02432865],    //   7. H2
        [       2.6770389,     0.0029731816,   -7.7376889e-07,    9.4433514e-11,   -4.2689991e-15,       -29885.894,          6.88255],    //   8. H2O
        [      4.17228741,    0.00188117627,  -3.46277286e-07,   1.94657549e-11,   1.76256905e-16,       31.0206839,       2.95767672],    //   9. HO2
        [      4.57977305,    0.00405326003,   -1.2984473e-06,     1.982114e-10,  -1.13968792e-14,      -18007.1775,      0.664970694],    //  10. H2O2
        [       3.0484859,     0.0013517281,   -4.8579405e-07,    7.8853644e-11,   -4.6980746e-15,       -14266.117,        6.0170977],    //  11. CO
        [       4.6365111,     0.0027414569,   -9.9589759e-07,    1.6038666e-10,   -9.1619857e-15,       -49024.904,       -1.9348955],    //  12. CO2
        [      3.92001542,    0.00252279324,  -6.71004164e-07,   1.05615948e-10,  -7.43798261e-15,       3653.42928,       3.58077056],    //  13. HCO
        [      3.16952665,     0.0061932056,  -2.25056366e-06,    3.6597566e-10,  -2.20149458e-14,      -14548.6831,       6.04207898],    //  14. CH2O
        [      1.65326226,     0.0100263099,  -3.31661238e-06,   5.36483138e-10,  -3.14696758e-14,      -10009.5936,       9.90506283],    //  15. CH4
        [       2.9781206,      0.005797852,     -1.97558e-06,     3.072979e-10,   -1.7917416e-14,        16509.513,        4.7224799],    //  16. CH3
        [      3.14631886,    0.00303671259,  -9.96474439e-07,    1.5048358e-10,  -8.57335515e-15,       46041.2605,       4.72341711],    //  17. T-CH2
        [      3.13501686,    0.00289593926,   -8.1666809e-07,   1.13572697e-10,  -6.36262835e-15,       50504.0504,       4.06030621],    //  18. S-CH2
        [      5.07061289,    0.00911140768,  -3.10506692e-06,   4.80733851e-10,  -2.78321396e-14,       3663.91217,      -6.64501414],    //  19. C2H4
        [      4.75779238,    0.00744142474,  -2.69705176e-06,   4.38090504e-10,  -2.63537098e-14,        378.11194,      -1.96680028],    //  20. CH3O
        [      5.75737458,     0.0104373815,  -3.51611327e-06,   5.40147415e-10,  -3.11019455e-14,       11454.1776,       -7.5756414],    //  21. C2H5
        [      5.84722957,     0.0129079675,  -4.36843112e-06,   6.73225427e-10,  -3.88530621e-14,      -13406.5832,      -11.5009421],    //  22. C2H6
        [       2.5209369,     0.0017653639,    -4.614766e-07,    5.9289675e-11,   -3.3474501e-15,        70946.769,        7.4051829],    //  23. CH
        [      4.65878489,    0.00488396667,  -1.60828888e-06,   2.46974544e-10,  -1.38605959e-14,       25759.4042,      -3.99838194],    //  24. C2H2
        [      4.99675415,    0.00655838271,  -2.20921909e-06,   3.39300272e-10,  -1.95316926e-14,       33460.4382,      -3.01451097],    //  25. C2H3
        [      6.53928338,    0.00780238629,  -2.76413612e-06,   4.42098906e-10,   -2.6295429e-14,      -1188.58659,      -8.72091393],    //  26. CH2CHO
        [       5.4887641,       0.01204619,   -4.3336931e-06,    7.0028311e-10,   -4.1949088e-14,       -9180.4251,       -7.0799605],    //  27. C2H4O
        [      5.75871449,    0.00635124053,  -2.25955361e-06,   3.62321512e-10,  -2.15855515e-14,      -8085.33464,      -4.96490444],    //  28. CH2CO
        [      5.91479333,     0.0037140873,   -1.3013701e-06,   2.06473345e-10,  -1.21476759e-14,       19359.6301,      -5.50567269],    //  29. HCCO
        [      3.66270248,    0.00382492252,    -1.366325e-06,    2.1345504e-10,  -1.23216848e-14,        67168.379,       3.92205792],    //  30. C2H
        [       5.0931437,     0.0059476126,   -2.0649746e-06,   3.23008173e-10,  -1.88125902e-14,       -4034.0964,      -1.84691493],    //  31. CH2OH
        [      3.52726795,     0.0103178783,  -3.62892944e-06,   5.77448016e-10,  -3.42182632e-14,      -26002.8834,       5.16758693],    //  32. CH3OH
        [      8.14483865,     0.0128314052,  -4.29052743e-06,   6.55971721e-10,  -3.76506611e-14,      -32400.5526,      -18.6241126],    //  33. C2H5OH
        [       6.9658545,    0.00975415306,  -3.35733534e-06,   5.23451733e-10,   -3.0459629e-14,      -23435.7494,      -12.7374908],    //  34. CH3CHO
        [      8.15007136,     0.0102549305,  -3.40137764e-06,   5.17509965e-10,  -2.96128942e-14,      -10501.4386,      -17.3134615],    //  35. CH3CHOH
        [       8.0675015,     0.0106143554,   -3.5799936e-06,    5.5036376e-10,  -3.17051769e-14,      -6927.47939,      -15.3833428],    //  36. CH2CH2OH
        [       5.3137165,     0.0091737793,   -3.3220386e-06,    5.3947456e-10,   -3.2452368e-14,       -3645.0414,       -1.6757558],    //  37. CH3CO
        [      8.19120635,     0.0110391986,  -3.75270536e-06,   5.80275784e-10,  -3.35735146e-14,      -5668.47208,      -19.0131344],    //  38. CH3CH2O
        [       6.3168722,      0.011133728,   -3.9629378e-06,    6.3564238e-10,    -3.787554e-14,        20117.495,       -10.995766],    //  39. C3H4
        [      7.14221719,    0.00761902211,   -2.6746003e-06,   4.24914904e-10,  -2.51475443e-14,       39570.9594,       -12.584869],    //  40. C3H3
        [      8.76859148,     0.0108337121,  -3.65937325e-06,    5.6401126e-10,  -3.25773494e-14,       16120.5737,      -24.2574843],    //  41. C3H5
        [      7.96904658,     0.0137811801,  -4.69782604e-06,   7.27579148e-10,   -4.2136892e-14,      -1720.35522,      -19.8794546],    //  42. C3H6
        [       9.1554131,     0.0172574139,  -5.85614868e-06,   9.04190155e-10,  -5.22523772e-14,      -17576.2439,       -27.741851],    //  43. C3H8
        [      7.76214315,      0.015698689,  -5.27800863e-06,   8.09923177e-10,  -4.66065477e-14,       6231.28731,      -16.8079394],    //  44. I-C3H7
        [       8.5172697,     0.0153591153,  -5.22415895e-06,   8.07838904e-10,  -4.67326294e-14,       7565.89418,      -20.8182357],    //  45. N-C3H7
        [      2.86008075,    0.00104841848,  -2.54786367e-07,   3.22101509e-11,  -1.99685197e-15,       50308.0592,       5.72798116],    //  46. OHEX
        [      2.50001436,  -2.78190281e-08,   1.74071629e-11,  -4.31400304e-15,   3.66743374e-19,      -745.380247,       5.49087778],    //  47. KR
        [             2.5,              0.0,              0.0,              0.0,              0.0,         -745.375,       3.35532272]     //  48. NE
    ]
},
"arrhenius_parameters": {
    "num_reactions": 251,
    "num_max_species_per_reaction": 5,
    "arrhenius_params_with_orders": [
        //                 ln(A)                       b                     E/R               order (n)
        //[m^(3n-3)/mol^(n-1)/s]                     [-]                     [K]                     [-]
        [[    22.346843312934229,               -0.48596,     8116.1000000000004],                      2],    //   0. H+O2<=>O+OH
        [[   0.22745424690129454,     2.2703899999999999,     3501.1999999999998],                      2],    //   1. H2+O<=>H+OH
        [[    2.5796863859016397,     1.8780300000000001,     1585.8000000000002],                      2],    //   2. H2+OH<=>H+H2O
        [[   -2.4651157872669076,     2.2641900000000001,    -898.23000000000002],                      2],    //   3. 2OH<=>H2O+O
        [[    15.421060923671183,    -1.2127300000000001,     308.01999999999998],                      3],    //   4. 2H+M<=>H2+M
        [[    8.7266434155984456,                   -0.5,                    0.0],                      3],    //   5. 2O+M<=>O2+M
        [[    15.366047362478213,                   -1.0,                    0.0],                      3],    //   6. H+O+M<=>OH+M
        [[    28.024278680928969,    -2.5379200000000002,     60.788000000000004],                      3],    //   7. H+OH+M<=>H2O+M
        [[    15.352377777563539,                   0.44,                    0.0],                      2],    //   8. H+O2(+M)<=>HO2(+M)
        [[   0.75287728476771187,     2.1133000000000002,    -817.67999999999995],                      2],    //   9. H+HO2<=>H2+O2
        [[     17.87135681270194,                    0.0,     86.069999999999993],                      2],    //  10. H+HO2<=>2OH
        [[    17.296750647299966,                    0.0,                    0.0],                      2],    //  11. HO2+O<=>O2+OH
        [[    13.773020506343322,    0.42008000000000001,    -477.39999999999998],                      2],    //  12. HO2+OH<=>H2O+O2
        [[     11.77528972943772,                    0.0,    -820.33000000000004],                      2],    //  13. 2HO2<=>H2O2+O2 (duplicate)
        [[    21.196264975171946,                    0.0,     7825.6000000000013],                      2],    //  14. 2HO2<=>H2O2+O2 (duplicate)
        [[   -1.5380479163474272,     2.3218999999999999,    -1712.3099999999999],                      2],    //  15. 2OH(+M)<=>H2O2(+M)
        [[    16.997722398460883,                    0.0,     1997.9900000000002],                      2],    //  16. H+H2O2<=>H2O+OH
        [[    32.211314422350149,    -1.9249499999999999,     4743.3999999999996],                      2],    //  17. H+H2O2<=>H2+HO2
        [[     2.256541154492639,                    2.0,     1997.9900000000002],                      2],    //  18. H2O2+O<=>HO2+OH
        [[    14.369395671190713,                    0.0,     160.03999999999999],                      2],    //  19. H2O2+OH<=>H2O+HO2 (duplicate)
        [[     18.14492724236586,                    0.0,     3658.2800000000002],                      2],    //  20. H2O2+OH<=>H2O+HO2 (duplicate)
        [[    9.5192945797035033,                    0.0,                 1199.8],                      2],    //  21. CO+O(+M)<=>CO2(+M)
        [[    14.875555253483126,                    0.0,                24005.0],                      2],    //  22. CO+O2<=>CO2+O
        [[   -4.0985935765115151,     2.2217099999999999,    -694.74000000000001],                      2],    //  23. CO+OH<=>CO2+H
        [[    2.7176044139070217,                1.67957,     9138.7000000000007],                      2],    //  24. CO+HO2<=>CO2+OH
        [[    38.436700475959327,   -0.93000000000000005,                 9927.0],                      1],    //  25. HCO(+M)<=>CO+H(+M)
        [[    15.841023757618554,                    0.0,                 206.34],                      2],    //  26. HCO+O2<=>CO+HO2
        [[    17.976360455875525,                    0.0,                    0.0],                      2],    //  27. H+HCO<=>CO+H2
        [[    17.223352482345099,                    0.0,                    0.0],                      2],    //  28. HCO+O<=>CO+OH
        [[    17.216707939626431,                    0.0,                    0.0],                      2],    //  29. HCO+O<=>CO2+H
        [[    18.440483371248547,                    0.0,                    0.0],                      2],    //  30. HCO+OH<=>CO+H2O
        [[    17.216707939626431,                    0.0,                    0.0],                      2],    //  31. HCO+HO2=>CO2+H+OH
        [[    14.914122846632385,                    0.0,                    0.0],                      2],    //  32. 2HCO=>2CO+H2
        [[    2.7080502011022105,                    0.0,     3007.0500000000002],                      3],    //  33. H+O+M<=>OHEX+M
        [[    15.595534770973908,                    0.5,                -432.81],                      2],    //  34. H2O+OHEX<=>H2O+OH
        [[    14.897315728316002,                    0.5,    -223.44999999999999],                      2],    //  35. H2+OHEX<=>H2+OH
        [[    11.589886506106357,                    0.5,    -625.05999999999995],                      2],    //  36. N2+OHEX<=>N2+OH
        [[    15.608935306511391,                    0.5,                 -384.5],                      2],    //  37. OH+OHEX<=>2OH
        [[    14.085537695177335,                    0.5,    -84.050000000000011],                      2],    //  38. H+OHEX<=>H+OH
        [[    14.340239086899256,                    0.0,     2081.0300000000002],                      2],    //  39. AR+OHEX<=>AR+OH
        [[    14.187074114396758,                    0.0,                    0.0],                      1],    //  40. OHEX=>OH
        [[    14.557447902693651,                    0.5,    -240.56000000000003],                      2],    //  41. O2+OHEX<=>O2+OH
        [[    14.827111469642754,                    0.5,    -487.17000000000007],                      2],    //  42. CO2+OHEX<=>CO2+OH
        [[    14.987992695198839,                    0.5,    -396.07000000000005],                      2],    //  43. CO+OHEX<=>CO+OH
        [[    15.027451531939388,                    0.5,    -319.56999999999999],                      2],    //  44. CH4+OHEX<=>CH4+OH
        [[     17.72753356339242,                    0.0,                    0.0],                      2],    //  45. CH3+HCO<=>CH4+CO
        [[    13.901688254205327,    0.47999999999999998,    -130.84999999999999],                      2],    //  46. H+HCO(+M)<=>CH2O(+M)
        [[    4.0500443033255209,     1.8999999999999999,                1383.29],                      2],    //  47. CH2O+H<=>H2+HCO
        [[    17.370858619453688,                    0.0,     1768.1800000000003],                      2],    //  48. CH2O+O<=>HCO+OH
        [[    10.571316925111784,    0.89000000000000001,     204.47999999999999],                      2],    //  49. CH2O+OH<=>H2O+HCO
        [[    17.909855120186375,                    0.0,     20470.060000000005],                      2],    //  50. CH2O+O2<=>HCO+HO2
        [[   -3.1917471574799481,                    2.5,     5138.5500000000002],                      2],    //  51. CH2O+HO2<=>H2O2+HCO
        [[   -4.3428059215205996,                    3.0,     4045.1700000000001],                      2],    //  52. CH4+H<=>CH3+H2
        [[    2.7725887222397816,     1.8300000000000001,     1400.1200000000001],                      2],    //  53. CH4+OH<=>CH3+H2O
        [[    7.5496091651545321,     1.4399999999999999,     4366.3400000000001],                      2],    //  54. CH4+O<=>CH3+OH
        [[    17.499377470254668,                    0.0,     28631.370000000003],                      2],    //  55. CH4+O2<=>CH3+HO2
        [[    16.016062925393168,                    0.0,               12401.35],                      2],    //  56. CH4+HO2<=>CH3+H2O2
        [[    19.008467408854486,                    0.0,     7601.9900000000007],                      2],    //  57. CH3+H<=>H2+T-CH2
        [[    18.858935674883522,                    0.0,     6784.0600000000013],                      2],    //  58. CH3+H<=>H2+S-CH2
        [[    24.726883035535554,    -1.2750589999999999,     186.31400000000002],                      2],    //  59. CH3+OH<=>H2O+S-CH2
        [[    18.249892422972085,                    0.0,                    0.0],                      2],    //  60. CH3+O<=>CH2O+H
        [[    17.557930779006242,                    0.0,                    0.0],                      2],    //  61. CH3+T-CH2<=>C2H4+H
        [[   -9.4447723990602483,     3.1462279999999998,    -2511.7809999999999],                      2],    //  62. CH3+HO2<=>CH3O+OH
        [[    12.706847933442663,                    0.0,     4499.8500000000004],                      2],    //  63. CH3+O2<=>CH2O+OH
        [[    16.213405830762646,                    0.0,               14001.01],                      2],    //  64. CH3+O2<=>CH3O+O
        [[    18.420680743952367,                    0.0,     16106.130000000001],                      2],    //  65. 2CH3<=>C2H4+H2
        [[     17.26866767855714,                    0.0,     7397.5100000000011],                      2],    //  66. 2CH3<=>C2H5+H
        [[    23.264867830410957,                  -0.63,                 192.75],                      2],    //  67. CH3+H(+M)<=>CH4(+M)
        [[    16.711422496236054,                    0.0,                    0.0],                      2],    //  68. 2CH3(+M)<=>C2H6(+M)
        [[    17.216707939626431,                    0.0,                    0.0],                      2],    //  69. OH+S-CH2<=>CH2O+H
        [[    17.259128655510381,                    0.0,                    0.0],                      2],    //  70. O2+S-CH2<=>CO+H+OH
        [[    14.914122846632385,                    0.0,                    0.0],                      2],    //  71. CO2+S-CH2<=>CH2O+CO
        [[     15.60727002719233,                    0.0,                    0.0],                      2],    //  72. S-CH2+M<=>T-CH2+M
        [[    15.610597817285004,                    0.0,    -899.73000000000002],                      2],    //  73. H+T-CH2<=>CH+H2
        [[    17.034386382832476,                    0.0,                    0.0],                      2],    //  74. OH+T-CH2<=>CH2O+H
        [[    2.4248027257182949,                    2.0,     1509.5699999999999],                      2],    //  75. OH+T-CH2<=>CH+H2O
        [[    18.197537192638155,                    0.0,                    0.0],                      2],    //  76. O+T-CH2<=>CO+2H
        [[    17.504390012078211,                    0.0,                    0.0],                      2],    //  77. O+T-CH2<=>CO+H2
        [[    14.782494404153947,                    0.0,     750.58000000000004],                      2],    //  78. O2+T-CH2<=>CO2+H2
        [[      15.6995453033015,                    0.0,     750.58000000000004],                      2],    //  79. O2+T-CH2<=>CO+H+OH
        [[    18.420680743952367,                    0.0,                    0.0],                      2],    //  80. 2T-CH2<=>C2H2+2H
        [[    17.504390012078211,                    0.0,                    0.0],                      2],    //  81. CH+O<=>CO+H
        [[    12.083905011555967,    0.76000000000000001,    -240.56999999999999],                      2],    //  82. CH+O2<=>HCO+O
        [[    20.880269585756075,                  -0.75,                    0.0],                      2],    //  83. CH+H2O<=>CH2O+H
        [[   -9.9443095470563829,     3.2200000000000002,    -1623.8499999999999],                      2],    //  84. CH+CO2<=>CO+HCO
        [[    16.811242831518264,                    0.0,                    0.0],                      2],    //  85. CH3O+H<=>CH2O+H2
        [[    16.588099280204055,                    0.0,                    0.0],                      2],    //  86. CH3O+H<=>H2O+S-CH2
        [[    15.424948470398375,                    0.0,                    0.0],                      2],    //  87. CH3O+OH<=>CH2O+H2O
        [[     16.11809565095832,                    0.0,                    0.0],                      2],    //  88. CH3O+O<=>CH2O+OH
        [[    -42.29516375729316,     7.5999999999999996,    -1780.2100000000003],                      2],    //  89. CH3O+O2<=>CH2O+HO2
        [[    18.169651989148619,                    0.0,     6800.8599999999997],                      2],    //  90. CH3O+M<=>CH2O+H+M
        [[   -7.5239414184059541,                    3.5,     2622.2100000000005],                      2],    //  91. C2H6+H<=>C2H5+H2
        [[   -13.479038321343062,     4.2999999999999998,                 1395.3],                      2],    //  92. C2H6+O<=>C2H5+OH
        [[    3.0910424533583161,     1.8999999999999999,     565.34000000000003],                      2],    //  93. C2H6+OH<=>C2H5+H2O
        [[   -14.413347558719895,                    4.0,     4173.8800000000001],                      2],    //  94. C2H6+CH3<=>C2H5+CH4
        [[     48.23211931890075,                  -1.23,     51445.770000000004],                      1],    //  95. C2H6(+M)<=>C2H5+H(+M)
        [[    16.395727387556601,                    0.0,     10301.960000000001],                      2],    //  96. C2H6+HO2<=>C2H5+H2O2
        [[    17.216707939626431,                    0.0,                    0.0],                      2],    //  97. C2H5+H<=>C2H4+H2
        [[    17.236510566922611,                    0.0,                    0.0],                      2],    //  98. C2H5+O<=>C2H4+OH
        [[    17.562658920202185,                    0.0,                    0.0],                      2],    //  99. C2H5+O<=>CH2O+CH3
        [[    14.508657738524219,                    0.0,     2513.9499999999998],                      2],    // 100. C2H5+O2<=>C2H4+HO2
        [[      23.1302109452647,     1.0369999999999999,     18504.599999999999],                      1],    // 101. C2H5(+M)<=>C2H4+H(+M)
        [[    3.8044377947482086,     2.1200000000000001,     6723.9200000000001],                      2],    // 102. C2H4+H<=>C2H3+H2
        [[   -18.674451042558488,     4.5675540000000003,    -287.38900000000007],                      2],    // 103. C2H4+OH<=>C2H3+H2O
        [[   0.81093021621632899,     2.0800000000000001,                    0.0],                      2],    // 104. C2H4+O<=>CH3+HCO
        [[   0.19062035960864987,     2.0800000000000001,                    0.0],                      2],    // 105. C2H4+O<=>CH2CHO+H
        [[    20.032116659049137,                    0.0,     32561.679999999997],                      2],    // 106. 2C2H4<=>C2H3+C2H5
        [[    17.557930779006242,                    0.0,     29000.049999999999],                      2],    // 107. C2H4+O2<=>C2H3+HO2
        [[    14.617512143436302,                    0.0,     8650.8799999999992],                      2],    // 108. C2H4+HO2<=>C2H4O+OH
        [[    15.201804919084164,                    0.0,     8559.4599999999991],                      2],    // 109. C2H4O+HO2<=>CH3+CO+H2O2
        [[    26.283947467961941,                    0.0,     48599.960000000006],                      2],    // 110. C2H4+M<=>C2H3+H+M
        [[    24.278613898435825,                    0.0,     36000.019999999997],                      2],    // 111. C2H4+M<=>C2H2+H2+M
        [[    17.504390012078211,                    0.0,                    0.0],                      2],    // 112. C2H3+H<=>C2H2+H2
        [[    22.576433934303111,                    1.0,     18936.420000000002],                      1],    // 113. C2H3(+M)<=>C2H2+H(+M)
        [[     53.49008538992522,    -5.3120000000000003,     3272.8299999999999],                      2],    // 114. C2H3+O2<=>CH2O+HCO
        [[    16.565406229656379,              -0.033665,     2279.6999999999998],                      2],    // 115. C2H3+O2<=>CH2CHO+O
        [[    22.369999534124208,                  -1.26,     1667.1500000000001],                      2],    // 116. C2H3+O2<=>C2H2+HO2
        [[    19.806975105072258,                    0.0,     5364.6999999999998],                      2],    // 117. C2H2+O<=>H+HCCO
        [[    18.890684373198102,                    0.0,                4979.79],                      2],    // 118. C2H2+O<=>CO+T-CH2
        [[    22.249322140441461,   -0.54000000000000004,     22613.530000000002],                      2],    // 119. C2H2+O2<=>CH2O+CO
        [[    2.9444389791664407,                    1.7,     502.79000000000008],                      2],    // 120. C2H2+OH<=>CH2CO+H
        [[    3.5174978373583161,                    2.0,     7046.2799999999997],                      2],    // 121. C2H2+OH<=>C2H+H2O
        [[    7.3132203870903014,     1.4299999999999999,     1353.2000000000003],                      2],    // 122. CH2CO+H<=>CH3+CO
        [[    16.811242831518264,                    0.0,     1154.7400000000002],                      2],    // 123. CH2CO+O<=>CO2+T-CH2
        [[     16.11809565095832,                    0.0,     1006.7800000000001],                      2],    // 124. CH2CO+O<=>HCCO+OH
        [[    11.407564949312402,                    0.0,                    0.0],                      2],    // 125. CH2CO+CH3<=>C2H5+CO
        [[    18.826145852060531,                    0.0,                    0.0],                      2],    // 126. H+HCCO<=>CO+S-CH2
        [[    14.508657738524219,                    0.0,                    0.0],                      2],    // 127. HCCO+OH<=>CO+H+HCO
        [[    18.384016759580774,                    0.0,                    0.0],                      2],    // 128. HCCO+O<=>2CO+H
        [[    3.3603753871419002,                    1.7,     503.99000000000007],                      2],    // 129. HCCO+O2<=>2CO+OH
        [[    2.6390573296152589,                    1.7,     503.99000000000007],                      2],    // 130. HCCO+O2<=>CO+CO2+H
        [[    16.811242831518264,                    0.0,                    0.0],                      2],    // 131. C2H+OH<=>H+HCCO
        [[      16.1378982782545,                    0.0,                    0.0],                      2],    // 132. C2H+O<=>CH+CO
        [[    13.308012724290958,                    0.0,                    0.0],                      2],    // 133. C2H+O2<=>HCCO+O
        [[    22.227343233722685,                    0.0,     12629.889999999999],                      2],    // 134. C2H+O2<=>CH+CO2
        [[    14.695137305466838,                    0.0,                    0.0],                      2],    // 135. C2H+O2<=>CO+HCO
        [[    17.216707939626431,                    0.0,                    0.0],                      2],    // 136. CH2OH+H<=>CH2O+H2
        [[    26.244726754808656,   -0.93000000000000005,     2580.1700000000001],                      2],    // 137. CH2OH+H<=>CH3+OH
        [[    16.993564388312219,                    0.0,                    0.0],                      2],    // 138. CH2OH+OH<=>CH2O+H2O
        [[    15.424948470398375,                    0.0,                    0.0],                      2],    // 139. CH2OH+O2<=>CH2O+HO2
        [[     17.72753356339242,                    0.0,     12641.920000000002],                      2],    // 140. CH2OH+M<=>CH2O+H+M
        [[    18.420680743952367,                    0.0,     9622.7800000000007],                      2],    // 141. CH3O+M<=>CH2OH+M
        [[      16.1378982782545,                    0.0,                    0.0],                      2],    // 142. CH2CO+OH<=>CH2OH+CO
        [[   0.36464311358790935,                    2.0,    -422.20000000000005],                      2],    // 143. CH3OH+OH<=>CH2OH+H2O
        [[    1.4816045409242156,                    2.0,     757.79999999999995],                      2],    // 144. CH3OH+OH<=>CH3O+H2O
        [[   -6.6046921044920532,     3.2000000000000002,                1756.77],                      2],    // 145. CH3OH+H<=>CH2OH+H2
        [[   -9.5916007913875294,     3.3999999999999999,     3643.6799999999998],                      2],    // 146. CH3OH+H<=>CH3O+H2
        [[     16.11809565095832,                    0.0,     2357.5799999999999],                      2],    // 147. CH3OH+O<=>CH2OH+OH
        [[    15.640059850015319,                    0.0,      9755.090000000002],                      2],    // 148. CH3OH+HO2<=>CH2OH+H2O2
        [[    16.811242831518264,                    0.0,     22613.530000000002],                      2],    // 149. CH3OH+O2<=>CH2OH+HO2
        [[    37.483215374077126,                    0.0,     46165.070000000007],                      1],    // 150. CH3OH(+M)<=>CH3+OH(+M)
        [[     85.24157737266809,    -7.1890000000000001,     22315.220000000001],                      1],    // 151. CH2CHO<=>CH2CO+H
        [[     17.72753356339242,                    0.0,                    0.0],                      2],    // 152. CH2CHO+H<=>CH3+HCO
        [[    16.811242831518264,                    0.0,                    0.0],                      2],    // 153. CH2CHO+H<=>CH2CO+H2
        [[    18.420680743952367,                    0.0,                    0.0],                      2],    // 154. CH2CHO+O<=>CH2O+HCO
        [[    17.216707939626431,                    0.0,                    0.0],                      2],    // 155. CH2CHO+OH<=>CH2CO+H2O
        [[    10.308952660644293,                    0.0,                    0.0],                      2],    // 156. CH2CHO+O2<=>CH2O+CO+OH
        [[    20.009915949068947,                   -0.5,                    0.0],                      2],    // 157. CH2CHO+CH3<=>C2H5+CO+H
        [[    15.761420707019587,                    0.0,                    0.0],                      2],    // 158. CH2CHO+HO2<=>CH2O+HCO+OH
        [[    14.914122846632385,                    0.0,                    0.0],                      2],    // 159. CH2CHO+HO2<=>CH3CHO+O2
        [[    99.168162747553623,    -9.8000000000000007,     22043.279999999999],                      1],    // 160. CH2CHO<=>CH3+CO
        [[    51.552960070425641,                  -1.74,                43455.5],                      1],    // 161. CH3CHO(+M)<=>CH3+HCO(+M)
        [[    49.354918833182865,                  -1.74,                43455.5],                      1],    // 162. CH3CHO(+M)<=>CH4+CO(+M)
        [[    28.729633404596658,                    0.0,      8404.630000000001],                      1],    // 163. CH3CO(+M)<=>CH3+CO(+M)
        [[    15.030423302328545,                    0.0,    -312.02999999999997],                      2],    // 164. CH3CHO+OH<=>CH3CO+H2O
        [[    12.727838209334498,                    0.0,    -312.02999999999997],                      2],    // 165. CH3CHO+OH<=>CH2CHO+H2O
        [[    28.202000662514287,    -1.8999999999999999,     1499.7500000000002],                      2],    // 166. CH3CHO+O<=>CH3CO+OH
        [[    17.431819319243374,   -0.20000000000000001,     1791.6500000000001],                      2],    // 167. CH3CHO+O<=>CH2CHO+OH
        [[    17.657111099095875,   -0.29999999999999999,     1504.7800000000002],                      2],    // 168. CH3CHO+H<=>CH3CO+H2
        [[    14.430696197054507,    0.40000000000000002,     2697.5300000000007],                      2],    // 169. CH3CHO+H<=>CH2CHO+H2
        [[   -28.572629655786994,     5.7999999999999998,     1107.2000000000003],                      2],    // 170. CH3+CH3CHO<=>CH3CO+CH4
        [[   -10.616837440413592,     3.1000000000000001,     2883.7399999999998],                      2],    // 171. CH3+CH3CHO<=>CH2CHO+CH4
        [[     31.21454005438466,    -2.2000000000000002,     7045.8000000000002],                      2],    // 172. CH3CHO+HO2<=>CH3CO+H2O2
        [[    12.354492650648448,    0.40000000000000002,     7498.7400000000007],                      2],    // 173. CH3CHO+HO2<=>CH2CHO+H2O2
        [[    18.420680743952367,                    0.0,     21238.049999999999],                      2],    // 174. CH3CHO+O2<=>CH3CO+HO2
        [[     95.28739820277184,    -7.2686929999999998,     48499.101999999999],                      1],    // 175. C2H5OH(+M)<=>CH2OH+CH3(+M)
        [[     22.78558665181783,               1.119232,     32534.237999999998],                      1],    // 176. C2H5OH(+M)<=>C2H4+H2O(+M)
        [[    2.8054188668304838,     1.5024200000000001,               -203.893],                      2],    // 177. C2H5OH+OH<=>CH2CH2OH+H2O
        [[    7.1655707518276248,     1.1349279999999999,    -228.85300000000004],                      2],    // 178. C2H5OH+OH<=>CH3CHOH+H2O
        [[   -8.7172918283128737,     3.1475949999999999,    -286.29400000000004],                      2],    // 179. C2H5OH+OH<=>CH3CH2O+H2O
        [[    2.9444389791664407,                    1.8,     2566.6799999999998],                      2],    // 180. C2H5OH+H<=>CH2CH2OH+H2
        [[    17.970464055605269,   -0.32697999999999999,     2707.8870000000002],                      2],    // 181. C2H5OH+H<=>CH3CHOH+H2
        [[    2.7080502011022101,     1.6000000000000001,     1529.9400000000003],                      2],    // 182. C2H5OH+H<=>CH3CH2O+H2
        [[    4.5443580465913342,                    1.7,     2747.8600000000001],                      2],    // 183. C2H5OH+O<=>CH2CH2OH+OH
        [[    2.9338568698359038,     1.8999999999999999,     915.95000000000005],                      2],    // 184. C2H5OH+O<=>CH3CHOH+OH
        [[    2.7600099400329214,                    2.0,     2239.5599999999999],                      2],    // 185. C2H5OH+O<=>CH3CH2O+OH
        [[   -8.5892801303111384,     3.4495979999999999,     5542.8490000000011],                      2],    // 186. C2H5OH+CH3<=>CH2CH2OH+CH4
        [[   -10.606361888854655,     3.3683649999999998,     3955.7910000000006],                      2],    // 187. C2H5OH+CH3<=>CH3CHOH+CH4
        [[   -16.165973731202783,     4.1593090000000004,                 4119.0],                      2],    // 188. C2H5OH+CH3<=>CH3CH2O+CH4
        [[    29.343791488906231,               -1.80826,     8291.9660000000003],                      2],    // 189. C2H5OH+HO2<=>CH3CHOH+H2O2
        [[    -3.717278928635634,                    2.5,     7951.6899999999996],                      2],    // 190. C2H5OH+HO2<=>CH2CH2OH+H2O2
        [[    15.150511624696614,                    0.0,               12078.51],                      2],    // 191. C2H5OH+HO2<=>CH3CH2O+H2O2
        [[    12.392552212472792,                    0.0,               -1197.79],                      2],    // 192. C2H4+OH<=>CH2CH2OH
        [[    17.504390012078211,                    0.0,                    0.0],                      2],    // 193. C2H5+HO2<=>CH3CH2O+OH
        [[    66.195149201574381,    -5.9000000000000004,               12732.76],                      2],    // 194. CH3CH2O+M<=>CH3CHO+H+M
        [[    98.136561881418942,              -10.22616,                13536.6],                      2],    // 195. CH3CH2O+M<=>CH2O+CH3+M
        [[    10.596634733096074,                    0.0,     553.60000000000014],                      2],    // 196. CH3CH2O+O2<=>CH3CHO+HO2
        [[   -7.6670422620466274,     3.2000000000000002,     2707.5999999999999],                      2],    // 197. CH3CH2O+CO<=>C2H5+CO2
        [[    17.216707939626431,                    0.0,                    0.0],                      2],    // 198. CH3CH2O+H<=>CH2OH+CH3
        [[    17.216707939626431,                    0.0,                    0.0],                      2],    // 199. CH3CH2O+H<=>C2H4+H2O
        [[     16.11809565095832,                    0.0,                    0.0],                      2],    // 200. CH3CH2O+OH<=>CH3CHO+H2O
        [[    17.690869579020831,                    0.0,     2526.4200000000001],                      2],    // 201. CH3CHOH+O2<=>CH3CHO+HO2
        [[    18.420680743952367,                    0.0,                    0.0],                      2],    // 202. CH3CHOH+O<=>CH3CHO+OH
        [[    17.216707939626431,                    0.0,                    0.0],                      2],    // 203. CH3CHOH+H<=>C2H4+H2O
        [[    17.216707939626431,                    0.0,                    0.0],                      2],    // 204. CH3CHOH+H<=>CH2OH+CH3
        [[    17.504390012078211,                    0.0,                    0.0],                      2],    // 205. CH3CHOH+HO2<=>CH3CHO+2OH
        [[    15.424948470398375,                    0.0,                    0.0],                      2],    // 206. CH3CHOH+OH<=>CH3CHO+H2O
        [[    18.420680743952367,                    0.0,     12581.780000000002],                      2],    // 207. CH3CHOH+M<=>CH3CHO+H+M
        [[    2.9957322735539913,                    1.8,     503.27000000000004],                      2],    // 208. C3H4+O<=>C2H4+CO
        [[    7.8477625374736082,     1.1000000000000001,     6866.5699999999997],                      2],    // 209. C2H2+CH3<=>C3H4+H
        [[     15.80338490611862,                    0.0,     1132.3600000000001],                      2],    // 210. C3H4+O<=>CH3+HCCO
        [[    17.216707939626431,                    0.0,                    0.0],                      2],    // 211. C3H3+H(+M)<=>C3H4(+M)
        [[     14.73180128983843,                    0.0,                    0.0],                      2],    // 212. C3H3+HO2<=>C3H4+O2
        [[    1.6677068205580763,                    2.0,     1006.5400000000001],                      2],    // 213. C3H4+OH<=>C3H3+H2O
        [[    10.308952660644293,                    0.0,     1443.4200000000001],                      2],    // 214. C3H3+O2<=>CH2CO+HCO
        [[    17.504390012078211,                    0.0,                    0.0],                      2],    // 215. C3H4+H(+M)<=>C3H5(+M)
        [[    16.705882315860439,                    0.0,                    0.0],                      2],    // 216. C3H5+H<=>C3H4+H2
        [[    22.330701746709838,    -1.3999999999999999,     11287.400000000001],                      2],    // 217. C3H5+O2<=>C3H4+HO2
        [[    14.914122846632385,   -0.32000000000000001,    -65.920000000000002],                      2],    // 218. C3H5+CH3<=>C3H4+CH4
        [[    6.3969296552161463,                    0.0,                    0.0],                      2],    // 219. C2H2+CH3(+M)<=>C3H5(+M)
        [[     15.60727002719233,                    0.0,                    0.0],                      2],    // 220. C3H5+OH<=>C3H4+H2O
        [[    17.034386382832476,                    0.0,                    0.0],                      2],    // 221. C3H3+HCO<=>C3H4+CO
        [[    13.592367006650065,                    0.0,                    0.0],                      2],    // 222. C3H3+HO2<=>C2H3+CO+OH
        [[    19.806975105072258,                    0.0,               21049.82],                      2],    // 223. C3H4+O2<=>CH3+CO+HCO
        [[     3.555348061489414,     1.6499999999999999,    -489.56000000000006],                      2],    // 224. C3H6+O<=>C2H5+HCO
        [[    1.1314021114911008,                    2.0,                -150.12],                      2],    // 225. C3H6+OH<=>C3H5+H2O
        [[    4.7874917427820458,     1.6499999999999999,     164.79000000000002],                      2],    // 226. C3H6+O<=>CH2CO+CH3+H
        [[    -1.771956841931875,                    2.5,     1254.5700000000002],                      2],    // 227. C3H6+H<=>C3H5+H2
        [[    19.113827924512311,                    0.0,                    0.0],                      2],    // 228. C3H5+H(+M)<=>C3H6(+M)
        [[    14.793836680757883,                    0.0,                    0.0],                      2],    // 229. C3H5+HO2<=>C3H6+O2
        [[    14.914122846632385,                    0.0,                    0.0],                      2],    // 230. C3H5+HO2<=>C2H3+CH2O+OH
        [[    17.034386382832476,                    0.0,                    0.0],                      2],    // 231. C2H3+CH3(+M)<=>C3H6(+M)
        [[    37.311365117150466,    -2.3900000000000001,     5629.3299999999999],                      2],    // 232. C3H6+H<=>C2H4+CH3
        [[    41.851996782000988,    -2.8300000000000001,     9370.1800000000021],                      2],    // 233. C2H3+CH3<=>C3H5+H
        [[      39.2392567607031,                    0.0,     42472.540000000001],                      1],    // 234. C3H8(+M)<=>C2H5+CH3(+M)
        [[    17.504390012078211,                    0.0,     23905.389999999999],                      2],    // 235. C3H8+O2<=>HO2+I-C3H7
        [[    17.504390012078211,                    0.0,     25632.669999999998],                      2],    // 236. C3H8+O2<=>HO2+N-C3H7
        [[   0.26236426446749128,     2.3999999999999999,     2250.1700000000001],                      2],    // 237. C3H8+H<=>H2+I-C3H7
        [[   0.28517894223366264,                   2.54,     3402.8500000000004],                      2],    // 238. C3H8+H<=>H2+N-C3H7
        [[   -3.0449225177447623,                   2.71,                1060.55],                      2],    // 239. C3H8+O<=>I-C3H7+OH
        [[   -1.6607312068216507,     2.6800000000000002,     1871.3900000000003],                      2],    // 240. C3H8+O<=>N-C3H7+OH
        [[   -6.5712830423609239,     2.6600000000000001,     265.35000000000002],                      2],    // 241. C3H8+OH<=>H2O+N-C3H7
        [[   -3.6119184129778077,     2.3900000000000001,                 197.87],                      2],    // 242. C3H8+OH<=>H2O+I-C3H7
        [[    -4.641834170359683,     2.6000000000000001,     7004.1800000000012],                      2],    // 243. C3H8+HO2<=>H2O2+I-C3H7
        [[   -3.0449225177447623,     2.5499999999999998,     8299.6500000000015],                      2],    // 244. C3H8+HO2<=>H2O2+N-C3H7
        [[   -18.595034131097144,     4.2000000000000002,     4366.3400000000001],                      2],    // 245. C3H8+I-C3H7<=>C3H8+N-C3H7
        [[    16.403274593191981,                    0.0,     785.46000000000004],                      2],    // 246. C3H6+H(+M)<=>I-C3H7(+M)
        [[     11.77528972943772,                    0.0,                    0.0],                      2],    // 247. I-C3H7+O2<=>C3H6+HO2
        [[     30.14062037830692,   -0.10000000000000001,     15203.990000000002],                      1],    // 248. N-C3H7(+M)<=>C2H4+CH3(+M)
        [[    16.403274593191981,                    0.0,     1640.6800000000001],                      2],    // 249. C3H6+H(+M)<=>N-C3H7(+M)
        [[    11.407564949312402,                    0.0,                    0.0],                      2]     // 250. N-C3H7+O2<=>C3H6+HO2
    ],
    "stochiometric_coeffs": [
        //                          indexes                           nu forward                          nu backward                                   nu
        [[    3,     4,     5,     6, 65535], [    1,     1,     0,     0,     0], [    0,     0,     1,     1,     0], [   -1,    -1,     1,     1,     0]],    //   0. H+O2<=>O+OH
        [[    3,     5,     6,     7, 65535], [    0,     0,     1,     1,     0], [    1,     1,     0,     0,     0], [    1,     1,    -1,    -1,     0]],    //   1. H2+O<=>H+OH
        [[    3,     5,     7,     8, 65535], [    0,     1,     1,     0,     0], [    1,     0,     0,     1,     0], [    1,    -1,    -1,     1,     0]],    //   2. H2+OH<=>H+H2O
        [[    5,     6,     8, 65535, 65535], [    2,     0,     0,     0,     0], [    0,     1,     1,     0,     0], [   -2,     1,     1,     0,     0]],    //   3. 2OH<=>H2O+O
        [[    3,     7, 65535, 65535, 65535], [    2,     0,     0,     0,     0], [    0,     1,     0,     0,     0], [   -2,     1,     0,     0,     0]],    //   4. 2H+M<=>H2+M
        [[    4,     6, 65535, 65535, 65535], [    0,     2,     0,     0,     0], [    1,     0,     0,     0,     0], [    1,    -2,     0,     0,     0]],    //   5. 2O+M<=>O2+M
        [[    3,     5,     6, 65535, 65535], [    1,     0,     1,     0,     0], [    0,     1,     0,     0,     0], [   -1,     1,    -1,     0,     0]],    //   6. H+O+M<=>OH+M
        [[    3,     5,     8, 65535, 65535], [    1,     1,     0,     0,     0], [    0,     0,     1,     0,     0], [   -1,    -1,     1,     0,     0]],    //   7. H+OH+M<=>H2O+M
        [[    3,     4,     9, 65535, 65535], [    1,     1,     0,     0,     0], [    0,     0,     1,     0,     0], [   -1,    -1,     1,     0,     0]],    //   8. H+O2(+M)<=>HO2(+M)
        [[    3,     4,     7,     9, 65535], [    1,     0,     0,     1,     0], [    0,     1,     1,     0,     0], [   -1,     1,     1,    -1,     0]],    //   9. H+HO2<=>H2+O2
        [[    3,     5,     9, 65535, 65535], [    1,     0,     1,     0,     0], [    0,     2,     0,     0,     0], [   -1,     2,    -1,     0,     0]],    //  10. H+HO2<=>2OH
        [[    4,     5,     6,     9, 65535], [    0,     0,     1,     1,     0], [    1,     1,     0,     0,     0], [    1,     1,    -1,    -1,     0]],    //  11. HO2+O<=>O2+OH
        [[    4,     5,     8,     9, 65535], [    0,     1,     0,     1,     0], [    1,     0,     1,     0,     0], [    1,    -1,     1,    -1,     0]],    //  12. HO2+OH<=>H2O+O2
        [[    4,     9,    10, 65535, 65535], [    0,     2,     0,     0,     0], [    1,     0,     1,     0,     0], [    1,    -2,     1,     0,     0]],    //  13. 2HO2<=>H2O2+O2 (duplicate)
        [[    4,     9,    10, 65535, 65535], [    0,     2,     0,     0,     0], [    1,     0,     1,     0,     0], [    1,    -2,     1,     0,     0]],    //  14. 2HO2<=>H2O2+O2 (duplicate)
        [[    5,    10, 65535, 65535, 65535], [    2,     0,     0,     0,     0], [    0,     1,     0,     0,     0], [   -2,     1,     0,     0,     0]],    //  15. 2OH(+M)<=>H2O2(+M)
        [[    3,     5,     8,    10, 65535], [    1,     0,     0,     1,     0], [    0,     1,     1,     0,     0], [   -1,     1,     1,    -1,     0]],    //  16. H+H2O2<=>H2O+OH
        [[    3,     7,     9,    10, 65535], [    1,     0,     0,     1,     0], [    0,     1,     1,     0,     0], [   -1,     1,     1,    -1,     0]],    //  17. H+H2O2<=>H2+HO2
        [[    5,     6,     9,    10, 65535], [    0,     1,     0,     1,     0], [    1,     0,     1,     0,     0], [    1,    -1,     1,    -1,     0]],    //  18. H2O2+O<=>HO2+OH
        [[    5,     8,     9,    10, 65535], [    1,     0,     0,     1,     0], [    0,     1,     1,     0,     0], [   -1,     1,     1,    -1,     0]],    //  19. H2O2+OH<=>H2O+HO2 (duplicate)
        [[    5,     8,     9,    10, 65535], [    1,     0,     0,     1,     0], [    0,     1,     1,     0,     0], [   -1,     1,     1,    -1,     0]],    //  20. H2O2+OH<=>H2O+HO2 (duplicate)
        [[    6,    11,    12, 65535, 65535], [    1,     1,     0,     0,     0], [    0,     0,     1,     0,     0], [   -1,    -1,     1,     0,     0]],    //  21. CO+O(+M)<=>CO2(+M)
        [[    4,     6,    11,    12, 65535], [    1,     0,     1,     0,     0], [    0,     1,     0,     1,     0], [   -1,     1,    -1,     1,     0]],    //  22. CO+O2<=>CO2+O
        [[    3,     5,    11,    12, 65535], [    0,     1,     1,     0,     0], [    1,     0,     0,     1,     0], [    1,    -1,    -1,     1,     0]],    //  23. CO+OH<=>CO2+H
        [[    5,     9,    11,    12, 65535], [    0,     1,     1,     0,     0], [    1,     0,     0,     1,     0], [    1,    -1,    -1,     1,     0]],    //  24. CO+HO2<=>CO2+OH
        [[    3,    11,    13, 65535, 65535], [    0,     0,     1,     0,     0], [    1,     1,     0,     0,     0], [    1,     1,    -1,     0,     0]],    //  25. HCO(+M)<=>CO+H(+M)
        [[    4,     9,    11,    13, 65535], [    1,     0,     0,     1,     0], [    0,     1,     1,     0,     0], [   -1,     1,     1,    -1,     0]],    //  26. HCO+O2<=>CO+HO2
        [[    3,     7,    11,    13, 65535], [    1,     0,     0,     1,     0], [    0,     1,     1,     0,     0], [   -1,     1,     1,    -1,     0]],    //  27. H+HCO<=>CO+H2
        [[    5,     6,    11,    13, 65535], [    0,     1,     0,     1,     0], [    1,     0,     1,     0,     0], [    1,    -1,     1,    -1,     0]],    //  28. HCO+O<=>CO+OH
        [[    3,     6,    12,    13, 65535], [    0,     1,     0,     1,     0], [    1,     0,     1,     0,     0], [    1,    -1,     1,    -1,     0]],    //  29. HCO+O<=>CO2+H
        [[    5,     8,    11,    13, 65535], [    1,     0,     0,     1,     0], [    0,     1,     1,     0,     0], [   -1,     1,     1,    -1,     0]],    //  30. HCO+OH<=>CO+H2O
        [[    3,     5,     9,    12,    13], [    0,     0,     1,     0,     1], [    1,     1,     0,     1,     0], [    1,     1,    -1,     1,    -1]],    //  31. HCO+HO2=>CO2+H+OH
        [[    7,    11,    13, 65535, 65535], [    0,     0,     2,     0,     0], [    1,     2,     0,     0,     0], [    1,     2,    -2,     0,     0]],    //  32. 2HCO=>2CO+H2
        [[    3,     6,    46, 65535, 65535], [    1,     1,     0,     0,     0], [    0,     0,     1,     0,     0], [   -1,    -1,     1,     0,     0]],    //  33. H+O+M<=>OHEX+M
        [[    5,     8,    46, 65535, 65535], [    0,     1,     1,     0,     0], [    1,     1,     0,     0,     0], [    1,     0,    -1,     0,     0]],    //  34. H2O+OHEX<=>H2O+OH
        [[    5,     7,    46, 65535, 65535], [    0,     1,     1,     0,     0], [    1,     1,     0,     0,     0], [    1,     0,    -1,     0,     0]],    //  35. H2+OHEX<=>H2+OH
        [[    0,     5,    46, 65535, 65535], [    1,     0,     1,     0,     0], [    1,     1,     0,     0,     0], [    0,     1,    -1,     0,     0]],    //  36. N2+OHEX<=>N2+OH
        [[    5,    46, 65535, 65535, 65535], [    1,     1,     0,     0,     0], [    2,     0,     0,     0,     0], [    1,    -1,     0,     0,     0]],    //  37. OH+OHEX<=>2OH
        [[    3,     5,    46, 65535, 65535], [    1,     0,     1,     0,     0], [    1,     1,     0,     0,     0], [    0,     1,    -1,     0,     0]],    //  38. H+OHEX<=>H+OH
        [[    1,     5,    46, 65535, 65535], [    1,     0,     1,     0,     0], [    1,     1,     0,     0,     0], [    0,     1,    -1,     0,     0]],    //  39. AR+OHEX<=>AR+OH
        [[    5,    46, 65535, 65535, 65535], [    0,     1,     0,     0,     0], [    1,     0,     0,     0,     0], [    1,    -1,     0,     0,     0]],    //  40. OHEX=>OH
        [[    4,     5,    46, 65535, 65535], [    1,     0,     1,     0,     0], [    1,     1,     0,     0,     0], [    0,     1,    -1,     0,     0]],    //  41. O2+OHEX<=>O2+OH
        [[    5,    12,    46, 65535, 65535], [    0,     1,     1,     0,     0], [    1,     1,     0,     0,     0], [    1,     0,    -1,     0,     0]],    //  42. CO2+OHEX<=>CO2+OH
        [[    5,    11,    46, 65535, 65535], [    0,     1,     1,     0,     0], [    1,     1,     0,     0,     0], [    1,     0,    -1,     0,     0]],    //  43. CO+OHEX<=>CO+OH
        [[    5,    15,    46, 65535, 65535], [    0,     1,     1,     0,     0], [    1,     1,     0,     0,     0], [    1,     0,    -1,     0,     0]],    //  44. CH4+OHEX<=>CH4+OH
        [[   11,    13,    15,    16, 65535], [    0,     1,     0,     1,     0], [    1,     0,     1,     0,     0], [    1,    -1,     1,    -1,     0]],    //  45. CH3+HCO<=>CH4+CO
        [[    3,    13,    14, 65535, 65535], [    1,     1,     0,     0,     0], [    0,     0,     1,     0,     0], [   -1,    -1,     1,     0,     0]],    //  46. H+HCO(+M)<=>CH2O(+M)
        [[    3,     7,    13,    14, 65535], [    1,     0,     0,     1,     0], [    0,     1,     1,     0,     0], [   -1,     1,     1,    -1,     0]],    //  47. CH2O+H<=>H2+HCO
        [[    5,     6,    13,    14, 65535], [    0,     1,     0,     1,     0], [    1,     0,     1,     0,     0], [    1,    -1,     1,    -1,     0]],    //  48. CH2O+O<=>HCO+OH
        [[    5,     8,    13,    14, 65535], [    1,     0,     0,     1,     0], [    0,     1,     1,     0,     0], [   -1,     1,     1,    -1,     0]],    //  49. CH2O+OH<=>H2O+HCO
        [[    4,     9,    13,    14, 65535], [    1,     0,     0,     1,     0], [    0,     1,     1,     0,     0], [   -1,     1,     1,    -1,     0]],    //  50. CH2O+O2<=>HCO+HO2
        [[    9,    10,    13,    14, 65535], [    1,     0,     0,     1,     0], [    0,     1,     1,     0,     0], [   -1,     1,     1,    -1,     0]],    //  51. CH2O+HO2<=>H2O2+HCO
        [[    3,     7,    15,    16, 65535], [    1,     0,     1,     0,     0], [    0,     1,     0,     1,     0], [   -1,     1,    -1,     1,     0]],    //  52. CH4+H<=>CH3+H2
        [[    5,     8,    15,    16, 65535], [    1,     0,     1,     0,     0], [    0,     1,     0,     1,     0], [   -1,     1,    -1,     1,     0]],    //  53. CH4+OH<=>CH3+H2O
        [[    5,     6,    15,    16, 65535], [    0,     1,     1,     0,     0], [    1,     0,     0,     1,     0], [    1,    -1,    -1,     1,     0]],    //  54. CH4+O<=>CH3+OH
        [[    4,     9,    15,    16, 65535], [    1,     0,     1,     0,     0], [    0,     1,     0,     1,     0], [   -1,     1,    -1,     1,     0]],    //  55. CH4+O2<=>CH3+HO2
        [[    9,    10,    15,    16, 65535], [    1,     0,     1,     0,     0], [    0,     1,     0,     1,     0], [   -1,     1,    -1,     1,     0]],    //  56. CH4+HO2<=>CH3+H2O2
        [[    3,     7,    16,    17, 65535], [    1,     0,     1,     0,     0], [    0,     1,     0,     1,     0], [   -1,     1,    -1,     1,     0]],    //  57. CH3+H<=>H2+T-CH2
        [[    3,     7,    16,    18, 65535], [    1,     0,     1,     0,     0], [    0,     1,     0,     1,     0], [   -1,     1,    -1,     1,     0]],    //  58. CH3+H<=>H2+S-CH2
        [[    5,     8,    16,    18, 65535], [    1,     0,     1,     0,     0], [    0,     1,     0,     1,     0], [   -1,     1,    -1,     1,     0]],    //  59. CH3+OH<=>H2O+S-CH2
        [[    3,     6,    14,    16, 65535], [    0,     1,     0,     1,     0], [    1,     0,     1,     0,     0], [    1,    -1,     1,    -1,     0]],    //  60. CH3+O<=>CH2O+H
        [[    3,    16,    17,    19, 65535], [    0,     1,     1,     0,     0], [    1,     0,     0,     1,     0], [    1,    -1,    -1,     1,     0]],    //  61. CH3+T-CH2<=>C2H4+H
        [[    5,     9,    16,    20, 65535], [    0,     1,     1,     0,     0], [    1,     0,     0,     1,     0], [    1,    -1,    -1,     1,     0]],    //  62. CH3+HO2<=>CH3O+OH
        [[    4,     5,    14,    16, 65535], [    1,     0,     0,     1,     0], [    0,     1,     1,     0,     0], [   -1,     1,     1,    -1,     0]],    //  63. CH3+O2<=>CH2O+OH
        [[    4,     6,    16,    20, 65535], [    1,     0,     1,     0,     0], [    0,     1,     0,     1,     0], [   -1,     1,    -1,     1,     0]],    //  64. CH3+O2<=>CH3O+O
        [[    7,    16,    19, 65535, 65535], [    0,     2,     0,     0,     0], [    1,     0,     1,     0,     0], [    1,    -2,     1,     0,     0]],    //  65. 2CH3<=>C2H4+H2
        [[    3,    16,    21, 65535, 65535], [    0,     2,     0,     0,     0], [    1,     0,     1,     0,     0], [    1,    -2,     1,     0,     0]],    //  66. 2CH3<=>C2H5+H
        [[    3,    15,    16, 65535, 65535], [    1,     0,     1,     0,     0], [    0,     1,     0,     0,     0], [   -1,     1,    -1,     0,     0]],    //  67. CH3+H(+M)<=>CH4(+M)
        [[   16,    22, 65535, 65535, 65535], [    2,     0,     0,     0,     0], [    0,     1,     0,     0,     0], [   -2,     1,     0,     0,     0]],    //  68. 2CH3(+M)<=>C2H6(+M)
        [[    3,     5,    14,    18, 65535], [    0,     1,     0,     1,     0], [    1,     0,     1,     0,     0], [    1,    -1,     1,    -1,     0]],    //  69. OH+S-CH2<=>CH2O+H
        [[    3,     4,     5,    11,    18], [    0,     1,     0,     0,     1], [    1,     0,     1,     1,     0], [    1,    -1,     1,     1,    -1]],    //  70. O2+S-CH2<=>CO+H+OH
        [[   11,    12,    14,    18, 65535], [    0,     1,     0,     1,     0], [    1,     0,     1,     0,     0], [    1,    -1,     1,    -1,     0]],    //  71. CO2+S-CH2<=>CH2O+CO
        [[   17,    18, 65535, 65535, 65535], [    0,     1,     0,     0,     0], [    1,     0,     0,     0,     0], [    1,    -1,     0,     0,     0]],    //  72. S-CH2+M<=>T-CH2+M
        [[    3,     7,    17,    23, 65535], [    1,     0,     1,     0,     0], [    0,     1,     0,     1,     0], [   -1,     1,    -1,     1,     0]],    //  73. H+T-CH2<=>CH+H2
        [[    3,     5,    14,    17, 65535], [    0,     1,     0,     1,     0], [    1,     0,     1,     0,     0], [    1,    -1,     1,    -1,     0]],    //  74. OH+T-CH2<=>CH2O+H
        [[    5,     8,    17,    23, 65535], [    1,     0,     1,     0,     0], [    0,     1,     0,     1,     0], [   -1,     1,    -1,     1,     0]],    //  75. OH+T-CH2<=>CH+H2O
        [[    3,     6,    11,    17, 65535], [    0,     1,     0,     1,     0], [    2,     0,     1,     0,     0], [    2,    -1,     1,    -1,     0]],    //  76. O+T-CH2<=>CO+2H
        [[    6,     7,    11,    17, 65535], [    1,     0,     0,     1,     0], [    0,     1,     1,     0,     0], [   -1,     1,     1,    -1,     0]],    //  77. O+T-CH2<=>CO+H2
        [[    4,     7,    12,    17, 65535], [    1,     0,     0,     1,     0], [    0,     1,     1,     0,     0], [   -1,     1,     1,    -1,     0]],    //  78. O2+T-CH2<=>CO2+H2
        [[    3,     4,     5,    11,    17], [    0,     1,     0,     0,     1], [    1,     0,     1,     1,     0], [    1,    -1,     1,     1,    -1]],    //  79. O2+T-CH2<=>CO+H+OH
        [[    3,    17,    24, 65535, 65535], [    0,     2,     0,     0,     0], [    2,     0,     1,     0,     0], [    2,    -2,     1,     0,     0]],    //  80. 2T-CH2<=>C2H2+2H
        [[    3,     6,    11,    23, 65535], [    0,     1,     0,     1,     0], [    1,     0,     1,     0,     0], [    1,    -1,     1,    -1,     0]],    //  81. CH+O<=>CO+H
        [[    4,     6,    13,    23, 65535], [    1,     0,     0,     1,     0], [    0,     1,     1,     0,     0], [   -1,     1,     1,    -1,     0]],    //  82. CH+O2<=>HCO+O
        [[    3,     8,    14,    23, 65535], [    0,     1,     0,     1,     0], [    1,     0,     1,     0,     0], [    1,    -1,     1,    -1,     0]],    //  83. CH+H2O<=>CH2O+H
        [[   11,    12,    13,    23, 65535], [    0,     1,     0,     1,     0], [    1,     0,     1,     0,     0], [    1,    -1,     1,    -1,     0]],    //  84. CH+CO2<=>CO+HCO
        [[    3,     7,    14,    20, 65535], [    1,     0,     0,     1,     0], [    0,     1,     1,     0,     0], [   -1,     1,     1,    -1,     0]],    //  85. CH3O+H<=>CH2O+H2
        [[    3,     8,    18,    20, 65535], [    1,     0,     0,     1,     0], [    0,     1,     1,     0,     0], [   -1,     1,     1,    -1,     0]],    //  86. CH3O+H<=>H2O+S-CH2
        [[    5,     8,    14,    20, 65535], [    1,     0,     0,     1,     0], [    0,     1,     1,     0,     0], [   -1,     1,     1,    -1,     0]],    //  87. CH3O+OH<=>CH2O+H2O
        [[    5,     6,    14,    20, 65535], [    0,     1,     0,     1,     0], [    1,     0,     1,     0,     0], [    1,    -1,     1,    -1,     0]],    //  88. CH3O+O<=>CH2O+OH
        [[    4,     9,    14,    20, 65535], [    1,     0,     0,     1,     0], [    0,     1,     1,     0,     0], [   -1,     1,     1,    -1,     0]],    //  89. CH3O+O2<=>CH2O+HO2
        [[    3,    14,    20, 65535, 65535], [    0,     0,     1,     0,     0], [    1,     1,     0,     0,     0], [    1,     1,    -1,     0,     0]],    //  90. CH3O+M<=>CH2O+H+M
        [[    3,     7,    21,    22, 65535], [    1,     0,     0,     1,     0], [    0,     1,     1,     0,     0], [   -1,     1,     1,    -1,     0]],    //  91. C2H6+H<=>C2H5+H2
        [[    5,     6,    21,    22, 65535], [    0,     1,     0,     1,     0], [    1,     0,     1,     0,     0], [    1,    -1,     1,    -1,     0]],    //  92. C2H6+O<=>C2H5+OH
        [[    5,     8,    21,    22, 65535], [    1,     0,     0,     1,     0], [    0,     1,     1,     0,     0], [   -1,     1,     1,    -1,     0]],    //  93. C2H6+OH<=>C2H5+H2O
        [[   15,    16,    21,    22, 65535], [    0,     1,     0,     1,     0], [    1,     0,     1,     0,     0], [    1,    -1,     1,    -1,     0]],    //  94. C2H6+CH3<=>C2H5+CH4
        [[    3,    21,    22, 65535, 65535], [    0,     0,     1,     0,     0], [    1,     1,     0,     0,     0], [    1,     1,    -1,     0,     0]],    //  95. C2H6(+M)<=>C2H5+H(+M)
        [[    9,    10,    21,    22, 65535], [    1,     0,     0,     1,     0], [    0,     1,     1,     0,     0], [   -1,     1,     1,    -1,     0]],    //  96. C2H6+HO2<=>C2H5+H2O2
        [[    3,     7,    19,    21, 65535], [    1,     0,     0,     1,     0], [    0,     1,     1,     0,     0], [   -1,     1,     1,    -1,     0]],    //  97. C2H5+H<=>C2H4+H2
        [[    5,     6,    19,    21, 65535], [    0,     1,     0,     1,     0], [    1,     0,     1,     0,     0], [    1,    -1,     1,    -1,     0]],    //  98. C2H5+O<=>C2H4+OH
        [[    6,    14,    16,    21, 65535], [    1,     0,     0,     1,     0], [    0,     1,     1,     0,     0], [   -1,     1,     1,    -1,     0]],    //  99. C2H5+O<=>CH2O+CH3
        [[    4,     9,    19,    21, 65535], [    1,     0,     0,     1,     0], [    0,     1,     1,     0,     0], [   -1,     1,     1,    -1,     0]],    // 100. C2H5+O2<=>C2H4+HO2
        [[    3,    19,    21, 65535, 65535], [    0,     0,     1,     0,     0], [    1,     1,     0,     0,     0], [    1,     1,    -1,     0,     0]],    // 101. C2H5(+M)<=>C2H4+H(+M)
        [[    3,     7,    19,    25, 65535], [    1,     0,     1,     0,     0], [    0,     1,     0,     1,     0], [   -1,     1,    -1,     1,     0]],    // 102. C2H4+H<=>C2H3+H2
        [[    5,     8,    19,    25, 65535], [    1,     0,     1,     0,     0], [    0,     1,     0,     1,     0], [   -1,     1,    -1,     1,     0]],    // 103. C2H4+OH<=>C2H3+H2O
        [[    6,    13,    16,    19, 65535], [    1,     0,     0,     1,     0], [    0,     1,     1,     0,     0], [   -1,     1,     1,    -1,     0]],    // 104. C2H4+O<=>CH3+HCO
        [[    3,     6,    19,    26, 65535], [    0,     1,     1,     0,     0], [    1,     0,     0,     1,     0], [    1,    -1,    -1,     1,     0]],    // 105. C2H4+O<=>CH2CHO+H
        [[   19,    21,    25, 65535, 65535], [    2,     0,     0,     0,     0], [    0,     1,     1,     0,     0], [   -2,     1,     1,     0,     0]],    // 106. 2C2H4<=>C2H3+C2H5
        [[    4,     9,    19,    25, 65535], [    1,     0,     1,     0,     0], [    0,     1,     0,     1,     0], [   -1,     1,    -1,     1,     0]],    // 107. C2H4+O2<=>C2H3+HO2
        [[    5,     9,    19,    27, 65535], [    0,     1,     1,     0,     0], [    1,     0,     0,     1,     0], [    1,    -1,    -1,     1,     0]],    // 108. C2H4+HO2<=>C2H4O+OH
        [[    9,    10,    11,    16,    27], [    1,     0,     0,     0,     1], [    0,     1,     1,     1,     0], [   -1,     1,     1,     1,    -1]],    // 109. C2H4O+HO2<=>CH3+CO+H2O2
        [[    3,    19,    25, 65535, 65535], [    0,     1,     0,     0,     0], [    1,     0,     1,     0,     0], [    1,    -1,     1,     0,     0]],    // 110. C2H4+M<=>C2H3+H+M
        [[    7,    19,    24, 65535, 65535], [    0,     1,     0,     0,     0], [    1,     0,     1,     0,     0], [    1,    -1,     1,     0,     0]],    // 111. C2H4+M<=>C2H2+H2+M
        [[    3,     7,    24,    25, 65535], [    1,     0,     0,     1,     0], [    0,     1,     1,     0,     0], [   -1,     1,     1,    -1,     0]],    // 112. C2H3+H<=>C2H2+H2
        [[    3,    24,    25, 65535, 65535], [    0,     0,     1,     0,     0], [    1,     1,     0,     0,     0], [    1,     1,    -1,     0,     0]],    // 113. C2H3(+M)<=>C2H2+H(+M)
        [[    4,    13,    14,    25, 65535], [    1,     0,     0,     1,     0], [    0,     1,     1,     0,     0], [   -1,     1,     1,    -1,     0]],    // 114. C2H3+O2<=>CH2O+HCO
        [[    4,     6,    25,    26, 65535], [    1,     0,     1,     0,     0], [    0,     1,     0,     1,     0], [   -1,     1,    -1,     1,     0]],    // 115. C2H3+O2<=>CH2CHO+O
        [[    4,     9,    24,    25, 65535], [    1,     0,     0,     1,     0], [    0,     1,     1,     0,     0], [   -1,     1,     1,    -1,     0]],    // 116. C2H3+O2<=>C2H2+HO2
        [[    3,     6,    24,    29, 65535], [    0,     1,     1,     0,     0], [    1,     0,     0,     1,     0], [    1,    -1,    -1,     1,     0]],    // 117. C2H2+O<=>H+HCCO
        [[    6,    11,    17,    24, 65535], [    1,     0,     0,     1,     0], [    0,     1,     1,     0,     0], [   -1,     1,     1,    -1,     0]],    // 118. C2H2+O<=>CO+T-CH2
        [[    4,    11,    14,    24, 65535], [    1,     0,     0,     1,     0], [    0,     1,     1,     0,     0], [   -1,     1,     1,    -1,     0]],    // 119. C2H2+O2<=>CH2O+CO
        [[    3,     5,    24,    28, 65535], [    0,     1,     1,     0,     0], [    1,     0,     0,     1,     0], [    1,    -1,    -1,     1,     0]],    // 120. C2H2+OH<=>CH2CO+H
        [[    5,     8,    24,    30, 65535], [    1,     0,     1,     0,     0], [    0,     1,     0,     1,     0], [   -1,     1,    -1,     1,     0]],    // 121. C2H2+OH<=>C2H+H2O
        [[    3,    11,    16,    28, 65535], [    1,     0,     0,     1,     0], [    0,     1,     1,     0,     0], [   -1,     1,     1,    -1,     0]],    // 122. CH2CO+H<=>CH3+CO
        [[    6,    12,    17,    28, 65535], [    1,     0,     0,     1,     0], [    0,     1,     1,     0,     0], [   -1,     1,     1,    -1,     0]],    // 123. CH2CO+O<=>CO2+T-CH2
        [[    5,     6,    28,    29, 65535], [    0,     1,     1,     0,     0], [    1,     0,     0,     1,     0], [    1,    -1,    -1,     1,     0]],    // 124. CH2CO+O<=>HCCO+OH
        [[   11,    16,    21,    28, 65535], [    0,     1,     0,     1,     0], [    1,     0,     1,     0,     0], [    1,    -1,     1,    -1,     0]],    // 125. CH2CO+CH3<=>C2H5+CO
        [[    3,    11,    18,    29, 65535], [    1,     0,     0,     1,     0], [    0,     1,     1,     0,     0], [   -1,     1,     1,    -1,     0]],    // 126. H+HCCO<=>CO+S-CH2
        [[    3,     5,    11,    13,    29], [    0,     1,     0,     0,     1], [    1,     0,     1,     1,     0], [    1,    -1,     1,     1,    -1]],    // 127. HCCO+OH<=>CO+H+HCO
        [[    3,     6,    11,    29, 65535], [    0,     1,     0,     1,     0], [    1,     0,     2,     0,     0], [    1,    -1,     2,    -1,     0]],    // 128. HCCO+O<=>2CO+H
        [[    4,     5,    11,    29, 65535], [    1,     0,     0,     1,     0], [    0,     1,     2,     0,     0], [   -1,     1,     2,    -1,     0]],    // 129. HCCO+O2<=>2CO+OH
        [[    3,     4,    11,    12,    29], [    0,     1,     0,     0,     1], [    1,     0,     1,     1,     0], [    1,    -1,     1,     1,    -1]],    // 130. HCCO+O2<=>CO+CO2+H
        [[    3,     5,    29,    30, 65535], [    0,     1,     0,     1,     0], [    1,     0,     1,     0,     0], [    1,    -1,     1,    -1,     0]],    // 131. C2H+OH<=>H+HCCO
        [[    6,    11,    23,    30, 65535], [    1,     0,     0,     1,     0], [    0,     1,     1,     0,     0], [   -1,     1,     1,    -1,     0]],    // 132. C2H+O<=>CH+CO
        [[    4,     6,    29,    30, 65535], [    1,     0,     0,     1,     0], [    0,     1,     1,     0,     0], [   -1,     1,     1,    -1,     0]],    // 133. C2H+O2<=>HCCO+O
        [[    4,    12,    23,    30, 65535], [    1,     0,     0,     1,     0], [    0,     1,     1,     0,     0], [   -1,     1,     1,    -1,     0]],    // 134. C2H+O2<=>CH+CO2
        [[    4,    11,    13,    30, 65535], [    1,     0,     0,     1,     0], [    0,     1,     1,     0,     0], [   -1,     1,     1,    -1,     0]],    // 135. C2H+O2<=>CO+HCO
        [[    3,     7,    14,    31, 65535], [    1,     0,     0,     1,     0], [    0,     1,     1,     0,     0], [   -1,     1,     1,    -1,     0]],    // 136. CH2OH+H<=>CH2O+H2
        [[    3,     5,    16,    31, 65535], [    1,     0,     0,     1,     0], [    0,     1,     1,     0,     0], [   -1,     1,     1,    -1,     0]],    // 137. CH2OH+H<=>CH3+OH
        [[    5,     8,    14,    31, 65535], [    1,     0,     0,     1,     0], [    0,     1,     1,     0,     0], [   -1,     1,     1,    -1,     0]],    // 138. CH2OH+OH<=>CH2O+H2O
        [[    4,     9,    14,    31, 65535], [    1,     0,     0,     1,     0], [    0,     1,     1,     0,     0], [   -1,     1,     1,    -1,     0]],    // 139. CH2OH+O2<=>CH2O+HO2
        [[    3,    14,    31, 65535, 65535], [    0,     0,     1,     0,     0], [    1,     1,     0,     0,     0], [    1,     1,    -1,     0,     0]],    // 140. CH2OH+M<=>CH2O+H+M
        [[   20,    31, 65535, 65535, 65535], [    1,     0,     0,     0,     0], [    0,     1,     0,     0,     0], [   -1,     1,     0,     0,     0]],    // 141. CH3O+M<=>CH2OH+M
        [[    5,    11,    28,    31, 65535], [    1,     0,     1,     0,     0], [    0,     1,     0,     1,     0], [   -1,     1,    -1,     1,     0]],    // 142. CH2CO+OH<=>CH2OH+CO
        [[    5,     8,    31,    32, 65535], [    1,     0,     0,     1,     0], [    0,     1,     1,     0,     0], [   -1,     1,     1,    -1,     0]],    // 143. CH3OH+OH<=>CH2OH+H2O
        [[    5,     8,    20,    32, 65535], [    1,     0,     0,     1,     0], [    0,     1,     1,     0,     0], [   -1,     1,     1,    -1,     0]],    // 144. CH3OH+OH<=>CH3O+H2O
        [[    3,     7,    31,    32, 65535], [    1,     0,     0,     1,     0], [    0,     1,     1,     0,     0], [   -1,     1,     1,    -1,     0]],    // 145. CH3OH+H<=>CH2OH+H2
        [[    3,     7,    20,    32, 65535], [    1,     0,     0,     1,     0], [    0,     1,     1,     0,     0], [   -1,     1,     1,    -1,     0]],    // 146. CH3OH+H<=>CH3O+H2
        [[    5,     6,    31,    32, 65535], [    0,     1,     0,     1,     0], [    1,     0,     1,     0,     0], [    1,    -1,     1,    -1,     0]],    // 147. CH3OH+O<=>CH2OH+OH
        [[    9,    10,    31,    32, 65535], [    1,     0,     0,     1,     0], [    0,     1,     1,     0,     0], [   -1,     1,     1,    -1,     0]],    // 148. CH3OH+HO2<=>CH2OH+H2O2
        [[    4,     9,    31,    32, 65535], [    1,     0,     0,     1,     0], [    0,     1,     1,     0,     0], [   -1,     1,     1,    -1,     0]],    // 149. CH3OH+O2<=>CH2OH+HO2
        [[    5,    16,    32, 65535, 65535], [    0,     0,     1,     0,     0], [    1,     1,     0,     0,     0], [    1,     1,    -1,     0,     0]],    // 150. CH3OH(+M)<=>CH3+OH(+M)
        [[    3,    26,    28, 65535, 65535], [    0,     1,     0,     0,     0], [    1,     0,     1,     0,     0], [    1,    -1,     1,     0,     0]],    // 151. CH2CHO<=>CH2CO+H
        [[    3,    13,    16,    26, 65535], [    1,     0,     0,     1,     0], [    0,     1,     1,     0,     0], [   -1,     1,     1,    -1,     0]],    // 152. CH2CHO+H<=>CH3+HCO
        [[    3,     7,    26,    28, 65535], [    1,     0,     1,     0,     0], [    0,     1,     0,     1,     0], [   -1,     1,    -1,     1,     0]],    // 153. CH2CHO+H<=>CH2CO+H2
        [[    6,    13,    14,    26, 65535], [    1,     0,     0,     1,     0], [    0,     1,     1,     0,     0], [   -1,     1,     1,    -1,     0]],    // 154. CH2CHO+O<=>CH2O+HCO
        [[    5,     8,    26,    28, 65535], [    1,     0,     1,     0,     0], [    0,     1,     0,     1,     0], [   -1,     1,    -1,     1,     0]],    // 155. CH2CHO+OH<=>CH2CO+H2O
        [[    4,     5,    11,    14,    26], [    1,     0,     0,     0,     1], [    0,     1,     1,     1,     0], [   -1,     1,     1,     1,    -1]],    // 156. CH2CHO+O2<=>CH2O+CO+OH
        [[    3,    11,    16,    21,    26], [    0,     0,     1,     0,     1], [    1,     1,     0,     1,     0], [    1,     1,    -1,     1,    -1]],    // 157. CH2CHO+CH3<=>C2H5+CO+H
        [[    5,     9,    13,    14,    26], [    0,     1,     0,     0,     1], [    1,     0,     1,     1,     0], [    1,    -1,     1,     1,    -1]],    // 158. CH2CHO+HO2<=>CH2O+HCO+OH
        [[    4,     9,    26,    34, 65535], [    0,     1,     1,     0,     0], [    1,     0,     0,     1,     0], [    1,    -1,    -1,     1,     0]],    // 159. CH2CHO+HO2<=>CH3CHO+O2
        [[   11,    16,    26, 65535, 65535], [    0,     0,     1,     0,     0], [    1,     1,     0,     0,     0], [    1,     1,    -1,     0,     0]],    // 160. CH2CHO<=>CH3+CO
        [[   13,    16,    34, 65535, 65535], [    0,     0,     1,     0,     0], [    1,     1,     0,     0,     0], [    1,     1,    -1,     0,     0]],    // 161. CH3CHO(+M)<=>CH3+HCO(+M)
        [[   11,    15,    34, 65535, 65535], [    0,     0,     1,     0,     0], [    1,     1,     0,     0,     0], [    1,     1,    -1,     0,     0]],    // 162. CH3CHO(+M)<=>CH4+CO(+M)
        [[   11,    16,    37, 65535, 65535], [    0,     0,     1,     0,     0], [    1,     1,     0,     0,     0], [    1,     1,    -1,     0,     0]],    // 163. CH3CO(+M)<=>CH3+CO(+M)
        [[    5,     8,    34,    37, 65535], [    1,     0,     1,     0,     0], [    0,     1,     0,     1,     0], [   -1,     1,    -1,     1,     0]],    // 164. CH3CHO+OH<=>CH3CO+H2O
        [[    5,     8,    26,    34, 65535], [    1,     0,     0,     1,     0], [    0,     1,     1,     0,     0], [   -1,     1,     1,    -1,     0]],    // 165. CH3CHO+OH<=>CH2CHO+H2O
        [[    5,     6,    34,    37, 65535], [    0,     1,     1,     0,     0], [    1,     0,     0,     1,     0], [    1,    -1,    -1,     1,     0]],    // 166. CH3CHO+O<=>CH3CO+OH
        [[    5,     6,    26,    34, 65535], [    0,     1,     0,     1,     0], [    1,     0,     1,     0,     0], [    1,    -1,     1,    -1,     0]],    // 167. CH3CHO+O<=>CH2CHO+OH
        [[    3,     7,    34,    37, 65535], [    1,     0,     1,     0,     0], [    0,     1,     0,     1,     0], [   -1,     1,    -1,     1,     0]],    // 168. CH3CHO+H<=>CH3CO+H2
        [[    3,     7,    26,    34, 65535], [    1,     0,     0,     1,     0], [    0,     1,     1,     0,     0], [   -1,     1,     1,    -1,     0]],    // 169. CH3CHO+H<=>CH2CHO+H2
        [[   15,    16,    34,    37, 65535], [    0,     1,     1,     0,     0], [    1,     0,     0,     1,     0], [    1,    -1,    -1,     1,     0]],    // 170. CH3+CH3CHO<=>CH3CO+CH4
        [[   15,    16,    26,    34, 65535], [    0,     1,     0,     1,     0], [    1,     0,     1,     0,     0], [    1,    -1,     1,    -1,     0]],    // 171. CH3+CH3CHO<=>CH2CHO+CH4
        [[    9,    10,    34,    37, 65535], [    1,     0,     1,     0,     0], [    0,     1,     0,     1,     0], [   -1,     1,    -1,     1,     0]],    // 172. CH3CHO+HO2<=>CH3CO+H2O2
        [[    9,    10,    26,    34, 65535], [    1,     0,     0,     1,     0], [    0,     1,     1,     0,     0], [   -1,     1,     1,    -1,     0]],    // 173. CH3CHO+HO2<=>CH2CHO+H2O2
        [[    4,     9,    34,    37, 65535], [    1,     0,     1,     0,     0], [    0,     1,     0,     1,     0], [   -1,     1,    -1,     1,     0]],    // 174. CH3CHO+O2<=>CH3CO+HO2
        [[   16,    31,    33, 65535, 65535], [    0,     0,     1,     0,     0], [    1,     1,     0,     0,     0], [    1,     1,    -1,     0,     0]],    // 175. C2H5OH(+M)<=>CH2OH+CH3(+M)
        [[    8,    19,    33, 65535, 65535], [    0,     0,     1,     0,     0], [    1,     1,     0,     0,     0], [    1,     1,    -1,     0,     0]],    // 176. C2H5OH(+M)<=>C2H4+H2O(+M)
        [[    5,     8,    33,    36, 65535], [    1,     0,     1,     0,     0], [    0,     1,     0,     1,     0], [   -1,     1,    -1,     1,     0]],    // 177. C2H5OH+OH<=>CH2CH2OH+H2O
        [[    5,     8,    33,    35, 65535], [    1,     0,     1,     0,     0], [    0,     1,     0,     1,     0], [   -1,     1,    -1,     1,     0]],    // 178. C2H5OH+OH<=>CH3CHOH+H2O
        [[    5,     8,    33,    38, 65535], [    1,     0,     1,     0,     0], [    0,     1,     0,     1,     0], [   -1,     1,    -1,     1,     0]],    // 179. C2H5OH+OH<=>CH3CH2O+H2O
        [[    3,     7,    33,    36, 65535], [    1,     0,     1,     0,     0], [    0,     1,     0,     1,     0], [   -1,     1,    -1,     1,     0]],    // 180. C2H5OH+H<=>CH2CH2OH+H2
        [[    3,     7,    33,    35, 65535], [    1,     0,     1,     0,     0], [    0,     1,     0,     1,     0], [   -1,     1,    -1,     1,     0]],    // 181. C2H5OH+H<=>CH3CHOH+H2
        [[    3,     7,    33,    38, 65535], [    1,     0,     1,     0,     0], [    0,     1,     0,     1,     0], [   -1,     1,    -1,     1,     0]],    // 182. C2H5OH+H<=>CH3CH2O+H2
        [[    5,     6,    33,    36, 65535], [    0,     1,     1,     0,     0], [    1,     0,     0,     1,     0], [    1,    -1,    -1,     1,     0]],    // 183. C2H5OH+O<=>CH2CH2OH+OH
        [[    5,     6,    33,    35, 65535], [    0,     1,     1,     0,     0], [    1,     0,     0,     1,     0], [    1,    -1,    -1,     1,     0]],    // 184. C2H5OH+O<=>CH3CHOH+OH
        [[    5,     6,    33,    38, 65535], [    0,     1,     1,     0,     0], [    1,     0,     0,     1,     0], [    1,    -1,    -1,     1,     0]],    // 185. C2H5OH+O<=>CH3CH2O+OH
        [[   15,    16,    33,    36, 65535], [    0,     1,     1,     0,     0], [    1,     0,     0,     1,     0], [    1,    -1,    -1,     1,     0]],    // 186. C2H5OH+CH3<=>CH2CH2OH+CH4
        [[   15,    16,    33,    35, 65535], [    0,     1,     1,     0,     0], [    1,     0,     0,     1,     0], [    1,    -1,    -1,     1,     0]],    // 187. C2H5OH+CH3<=>CH3CHOH+CH4
        [[   15,    16,    33,    38, 65535], [    0,     1,     1,     0,     0], [    1,     0,     0,     1,     0], [    1,    -1,    -1,     1,     0]],    // 188. C2H5OH+CH3<=>CH3CH2O+CH4
        [[    9,    10,    33,    35, 65535], [    1,     0,     1,     0,     0], [    0,     1,     0,     1,     0], [   -1,     1,    -1,     1,     0]],    // 189. C2H5OH+HO2<=>CH3CHOH+H2O2
        [[    9,    10,    33,    36, 65535], [    1,     0,     1,     0,     0], [    0,     1,     0,     1,     0], [   -1,     1,    -1,     1,     0]],    // 190. C2H5OH+HO2<=>CH2CH2OH+H2O2
        [[    9,    10,    33,    38, 65535], [    1,     0,     1,     0,     0], [    0,     1,     0,     1,     0], [   -1,     1,    -1,     1,     0]],    // 191. C2H5OH+HO2<=>CH3CH2O+H2O2
        [[    5,    19,    36, 65535, 65535], [    1,     1,     0,     0,     0], [    0,     0,     1,     0,     0], [   -1,    -1,     1,     0,     0]],    // 192. C2H4+OH<=>CH2CH2OH
        [[    5,     9,    21,    38, 65535], [    0,     1,     1,     0,     0], [    1,     0,     0,     1,     0], [    1,    -1,    -1,     1,     0]],    // 193. C2H5+HO2<=>CH3CH2O+OH
        [[    3,    34,    38, 65535, 65535], [    0,     0,     1,     0,     0], [    1,     1,     0,     0,     0], [    1,     1,    -1,     0,     0]],    // 194. CH3CH2O+M<=>CH3CHO+H+M
        [[   14,    16,    38, 65535, 65535], [    0,     0,     1,     0,     0], [    1,     1,     0,     0,     0], [    1,     1,    -1,     0,     0]],    // 195. CH3CH2O+M<=>CH2O+CH3+M
        [[    4,     9,    34,    38, 65535], [    1,     0,     0,     1,     0], [    0,     1,     1,     0,     0], [   -1,     1,     1,    -1,     0]],    // 196. CH3CH2O+O2<=>CH3CHO+HO2
        [[   11,    12,    21,    38, 65535], [    1,     0,     0,     1,     0], [    0,     1,     1,     0,     0], [   -1,     1,     1,    -1,     0]],    // 197. CH3CH2O+CO<=>C2H5+CO2
        [[    3,    16,    31,    38, 65535], [    1,     0,     0,     1,     0], [    0,     1,     1,     0,     0], [   -1,     1,     1,    -1,     0]],    // 198. CH3CH2O+H<=>CH2OH+CH3
        [[    3,     8,    19,    38, 65535], [    1,     0,     0,     1,     0], [    0,     1,     1,     0,     0], [   -1,     1,     1,    -1,     0]],    // 199. CH3CH2O+H<=>C2H4+H2O
        [[    5,     8,    34,    38, 65535], [    1,     0,     0,     1,     0], [    0,     1,     1,     0,     0], [   -1,     1,     1,    -1,     0]],    // 200. CH3CH2O+OH<=>CH3CHO+H2O
        [[    4,     9,    34,    35, 65535], [    1,     0,     0,     1,     0], [    0,     1,     1,     0,     0], [   -1,     1,     1,    -1,     0]],    // 201. CH3CHOH+O2<=>CH3CHO+HO2
