{
"model": "chemkin_kaust2023_ammonia",
"species": {
    "num_elements": 6,
    "num_species": 32,
    "index_of_water": 5,
    "invalid_index": 65535,
    "element_names": [ "Ar",   "C",   "H",  "He",   "N",   "O"],
                           // [           0,            1,            2,            3,            4,            5,            6,            7,            8,            9,           10,           11,           12,           13,           14,           15,           16,           17,           18,           19,           20,           21,           22,           23,           24,           25,           26,           27,           28,           29,           30,           31]
    "species_names":          [        "AR",          "H",         "H2",       "H2NN",       "H2NO",        "H2O",       "H2O2",         "HE",        "HNO",       "HNO2",       "HNOH",        "HO2",        "HON",       "HONO",      "HONO2",          "N",         "N2",       "N2H2",       "N2H3",       "N2H4",        "N2O",         "NH",        "NH2",      "NH2OH",        "NH3",        "NNH",         "NO",        "NO2",        "NO3",          "O",         "O2",         "OH"],
    "molar_weights":          [     0.03995,     0.001008,     0.002016,      0.03003,     0.032022,     0.018015,     0.034014,    0.0040026,     0.031014,     0.047013,     0.032022,     0.033006,     0.031014,     0.047013,     0.063012,     0.014007,     0.028014,      0.03003,     0.031038,     0.032046,     0.044013,     0.015015,     0.016023,      0.03303,     0.017031,     0.029022,     0.030006,     0.046005,     0.062004,     0.015999,     0.031998,     0.017007],    // [kg/mol]
    "thermal_conductivities": [   0.0182188,    0.2965909,    0.1879299,   0.02949504,   0.03228927,   0.02659569,   0.03659074,    0.1555209,   0.02924453,   0.01677073,   0.03186522,   0.02985716,   0.02924969,   0.02015228,   0.02079902,    0.0371691,   0.02661007,   0.02859337,     0.023895,   0.02270027,   0.01798876,   0.07106369,   0.07797529,     0.038039,   0.03072677,   0.02888314,   0.02629514,   0.02116259,   0.01204847,   0.05107995,   0.02685453,   0.05957852],    // [W/m/K] (at 303.15 K)
    "van_der_waals_a":        [   0.2114328,   0.05239917,   0.03968612,    0.1640836,    0.2084455,    0.4244481,     0.186285,   0.00731397,    0.2084455,    0.5468293,    0.2084455,     0.186285,    0.2084455,    0.5468293,    0.5468293,    0.1074366,    0.1942282,    0.1640836,    0.4976544,    0.6508396,    0.5468293,   0.06244875,   0.06244875,    0.2084455,    0.5023379,    0.1640836,    0.1942282,    0.3596981,     1.155118,   0.06978856,     0.186285,   0.06978856],    // [m^6*Pa/mol^2]
    "van_der_waals_b":        [4.657386e-05, 1.086603e-05, 3.140206e-05, 6.909942e-05, 5.370716e-05, 2.229629e-05, 5.215362e-05, 2.155992e-05, 5.370716e-05, 7.074981e-05, 5.370716e-05, 5.215362e-05, 5.370716e-05, 7.074981e-05, 7.074981e-05, 4.524405e-05, 5.988183e-05, 6.909942e-05, 7.481752e-05, 9.546202e-05, 7.074981e-05, 2.347184e-05, 2.347184e-05, 5.370716e-05, 3.140206e-05, 6.909942e-05, 5.988183e-05, 5.407713e-05, 9.178653e-05, 2.623056e-05, 5.215362e-05, 2.623056e-05],    // [m^3/mol]
    "LJ_well_depths":         [  1.8846e-21,   2.0019e-21,   5.2465e-22,   9.8578e-22,   1.6112e-21,   7.9028e-21,   1.4828e-21,   1.4083e-22,   1.6112e-21,   3.2086e-21,   1.6112e-21,   1.4828e-21,   1.6112e-21,   3.2086e-21,   3.2086e-21,   9.8578e-22,   1.3465e-21,   9.8578e-22,   2.7613e-21,   2.8303e-21,   3.2086e-21,   1.1045e-21,   1.1045e-21,   1.6112e-21,   6.6409e-21,   9.8578e-22,   1.3465e-21,   2.7613e-21,   5.2244e-21,   1.1045e-21,   1.4828e-21,   1.1045e-21],    // [J]
    "LJ_collision_diameters": [    3.33e-10,     2.05e-10,     2.92e-10,    3.798e-10,    3.492e-10,    2.605e-10,    3.458e-10,    2.576e-10,    3.492e-10,    3.828e-10,    3.492e-10,    3.458e-10,    3.492e-10,    3.828e-10,    3.828e-10,    3.298e-10,    3.621e-10,    3.798e-10,      3.9e-10,     4.23e-10,    3.828e-10,     2.65e-10,     2.65e-10,    3.492e-10,     2.92e-10,    3.798e-10,    3.621e-10,      3.5e-10,    4.175e-10,     2.75e-10,    3.458e-10,     2.75e-10],    // [m]
    "dipole_moments":         [         0.0,          0.0,          0.0,          0.0,          0.0,   6.1509e-30,          0.0,          0.0,          0.0,          0.0,          0.0,          0.0,          0.0,          0.0,          0.0,          0.0,          0.0,          0.0,          0.0,          0.0,          0.0,          0.0,          0.0,          0.0,   4.9034e-30,          0.0,          0.0,          0.0,          0.0,          0.0,          0.0,          0.0],    // [C*m]
    "polarizabilities":       [         0.0,          0.0,      7.9e-31,          0.0,          0.0,          0.0,          0.0,          0.0,          0.0,          0.0,          0.0,          0.0,          0.0,          0.0,          0.0,          0.0,     1.76e-30,          0.0,          0.0,     4.26e-30,          0.0,          0.0,     2.26e-30,          0.0,          0.0,          0.0,     1.76e-30,          0.0,          0.0,          0.0,      1.6e-30,          0.0],    // [m^3]
    "rotational_relaxations": [         0.0,          0.0,        280.0,          1.0,          1.0,          4.0,          3.8,          0.0,          1.0,          1.0,          1.0,          1.0,          1.0,          1.0,          1.0,          0.0,          4.0,          1.0,          1.0,          1.5,          1.0,          4.0,          4.0,          1.0,         10.0,          1.0,          4.0,          1.0,          1.0,          0.0,          3.8,          0.0]     // [-]
    
},
"thermodynamics": {
    "temp_ranges": [
        //     T_low       T_mid      T_high
        //       [K]         [K]         [K]
        [     300.0,     1000.0,     5000.0],    //   0. AR
        [     200.0,     1000.0,     6000.0],    //   1. H
        [     200.0,     1000.0,     3500.0],    //   2. H2
        [     200.0,     1000.0,     6000.0],    //   3. H2NN
        [     300.0,     1500.0,     4000.0],    //   4. H2NO
        [     200.0,     1000.0,     3500.0],    //   5. H2O
        [     200.0,     1000.0,     3500.0],    //   6. H2O2
        [     200.0,     1000.0,     6000.0],    //   7. HE
        [     300.0,     1000.0,     5000.0],    //   8. HNO
        [     300.0,     1500.0,     4000.0],    //   9. HNO2
        [     200.0,     1000.0,     6000.0],    //  10. HNOH
        [     200.0,     1000.0,     3500.0],    //  11. HO2
        [     300.0,     1671.0,     5000.0],    //  12. HON
        [     300.0,     1000.0,     5000.0],    //  13. HONO
        [     200.0,     1000.0,     6000.0],    //  14. HONO2
        [     300.0,     1000.0,     5000.0],    //  15. N
        [     300.0,     1000.0,     5000.0],    //  16. N2
        [    298.15,     1000.0,     2000.0],    //  17. N2H2
        [     200.0,     1000.0,     6000.0],    //  18. N2H3
        [     200.0,     1000.0,     6000.0],    //  19. N2H4
        [     300.0,     1000.0,     5000.0],    //  20. N2O
        [    298.15,     1000.0,     2000.0],    //  21. NH
        [    298.15,     1000.0,     2000.0],    //  22. NH2
        [     200.0,     1000.0,     6000.0],    //  23. NH2OH
        [     300.0,     1000.0,     5000.0],    //  24. NH3
        [    298.15,     1000.0,     2000.0],    //  25. NNH
        [     300.0,     1000.0,     5000.0],    //  26. NO
        [     300.0,     1000.0,     5000.0],    //  27. NO2
        [     200.0,     1000.0,     6000.0],    //  28. NO3
        [     200.0,     1000.0,     3500.0],    //  29. O
        [     200.0,     1000.0,     3500.0],    //  30. O2
        [     200.0,     1000.0,     6000.0]     //  31. OH
    ],
    "a_low": [
        //             a_0               a_1               a_2               a_3               a_4               a_5               a_6
        [             2.5,  -1.56525602e-16,   4.56943616e-19,  -5.17814989e-22,   1.99020834e-25,         -745.375,            4.366],    //   0. AR
        [             2.5,  -1.21434192e-16,   3.14642268e-19,    -3.308722e-22,   1.21191563e-25,         25473.66,      -0.44668285],    //   1. H
        [      2.63703014,    0.00551055679,  -1.21759447e-05,   1.12923549e-08,  -3.63620454e-12,      -944.182766,      -0.50188151],    //   2. H2
        [      4.07123144,   -0.00343561618,   1.85841969e-05,  -1.64437379e-08,   4.58216019e-12,        34999.323,       3.37616765],    //   3. H2NN
        [      2.53059296,    0.00859601653,  -5.47099406e-06,   2.27622271e-09,  -4.64801256e-13,       6868.02967,       11.2664973],    //   4. H2NO
        [      4.19662285,   -0.00201940753,   6.47006475e-06,  -5.42686127e-09,   1.74619732e-12,      -30293.5458,     -0.840864214],    //   5. H2O
        [      3.93197775,    0.00236118766,   8.14814882e-06,  -1.11544079e-08,   4.22741638e-12,       -17671.722,       4.82816319],    //   6. H2O2
        [             2.5,  -1.21434192e-16,   3.14642268e-19,    -3.308722e-22,   1.21191563e-25,         -745.375,      0.928723974],    //   7. HE
        [      2.78439387,     0.0066097161,   -9.3004095e-06,   9.43818504e-09,  -3.75322506e-12,       10918.7809,       9.03566675],    //   8. HNO
        [      1.93482897,     0.0101004186,  -4.96473863e-06,   8.70212516e-10,  -2.35191805e-15,      -5915.71493,       14.7282468],    //   9. HNO2
        [      3.37275545,    0.00189634132,   1.11346941e-05,  -1.38975267e-08,   4.95509312e-12,       10972.2885,       7.92090954],    //  10. HNOH
        [      3.92960049,   -0.00160830209,    1.1872767e-05,  -1.30037956e-08,   4.53655859e-12,       328.184607,       5.22337662],    //  11. HO2
        [      3.39246137,     0.0023234872,   1.27023231e-06,  -1.66747061e-09,   4.30367839e-13,       29591.7808,       5.72341849],    //  12. HON
        [      2.29037472,     0.0140995112,  -1.36794846e-05,   7.49960538e-09,  -1.87721549e-12,      -10431.9463,       13.2809286],    //  13. HONO
        [      1.03922026,     0.0245362027,  -2.45694284e-05,   1.37484493e-08,  -3.70491756e-12,      -17329.5877,       19.8317491],    //  14. HONO2
        [      2.51239393,  -9.42571483e-05,   2.50330048e-07,  -2.77058774e-10,   1.08591715e-13,       56098.0027,       4.12910938],    //  15. N
        [      3.29865872,    0.00140837971,  -3.96358857e-06,   5.64191194e-09,  -2.44500396e-12,      -1020.89812,       3.95044772],    //  16. N2
        [      4.14915912,   -0.00482013795,    2.1960659e-05,   -2.0366297e-08,   6.25367446e-12,       23287.4597,       3.19154082],    //  17. N2H2
        [      2.78061414,     0.0067551153,   6.36330365e-06,  -1.05699445e-08,   3.91221319e-12,        25363.063,       10.4251784],    //  18. N2H3
        [      2.78129807,    0.00824026776,   1.14042141e-05,  -1.81663167e-08,   6.87626313e-12,       10183.8576,       10.0171442],    //  19. N2H4
        [      2.54303878,    0.00949233877,  -9.79315613e-06,     6.264254e-09,   -1.9019786e-12,       8765.10188,       9.51130165],    //  20. N2O
        [      3.49138453,   0.000248104619,   -1.2235254e-06,   1.97740002e-09,   -7.8921015e-13,       41785.1517,       1.83667276],    //  21. NH
        [       4.0259004,  -0.000953250898,   4.13467075e-06,  -2.81816337e-09,   6.73046109e-13,        21244.739,      0.586220432],    //  22. NH2
        [      2.68374332,     0.0106389335,  -2.07348345e-06,  -3.72343389e-09,   2.09895275e-12,      -6534.27866,       10.0639571],    //  23. NH2OH
        [      2.20428351,     0.0101152784,  -1.46540008e-05,   1.44737927e-08,  -5.32904367e-12,      -6525.48128,       8.12742204],    //  24. NH3
        [      3.86231282,  -0.000441898521,   6.38522097e-06,  -5.84138799e-09,   1.69125807e-12,       29162.1298,       4.85334925],    //  25. NNH
        [      3.37653523,     0.0012531148,  -3.30288819e-06,   5.21795989e-09,  -2.44632032e-12,       9817.96166,       5.82961801],    //  26. NO
        [       2.6705857,    0.00783861016,   -8.0641529e-06,   6.16202774e-09,  -2.32026867e-12,       2896.29239,       11.6121292],    //  27. NO2
        [      1.16756871,      0.018979687,  -1.40508671e-05,   2.31286562e-09,   8.04083704e-13,       7903.12364,        18.674755],    //  28. NO3
        [      3.10939988,    -0.0027825631,   5.17445426e-06,  -4.34517881e-09,   1.36049345e-12,       29127.5381,       2.29023724],    //  29. O
        [      3.71213227,   -0.00240329876,   8.09286837e-06,  -7.55141837e-09,   2.34517397e-12,      -1057.63729,       3.94235871],    //  30. O2
        [      4.09064517,   -0.00293296453,   5.66294409e-06,  -4.74879004e-09,    1.6195058e-12,       3384.64627,     -0.550122048]     //  31. OH
    ],
    "a_high": [
        //             a_0               a_1               a_2               a_3               a_4               a_5               a_6
        [             2.5,              0.0,              0.0,              0.0,              0.0,         -745.375,            4.366],    //   0. AR
        [             2.5,              0.0,              0.0,              0.0,              0.0,         25473.66,      -0.44668285],    //   1. H
        [       3.3372792,  -4.94024731e-05,   4.99456778e-07,  -1.79566394e-10,   2.00255376e-14,      -952.851692,      -3.20685584],    //   2. H2
        [       3.0590367,    0.00618382347,  -2.22171165e-06,   3.58539206e-10,  -2.14532905e-14,       34857.2542,       6.70182016],    //   3. H2NN
        [        5.673346,      0.002298837,    -1.774446e-07,    -1.103482e-10,     1.859762e-14,       5569.32571,      -6.15353161],    //   4. H2NO
        [      3.03399249,    0.00217691804,  -1.64072518e-07,   -9.7041987e-11,   1.68200992e-14,      -30004.2785,       4.96678276],    //   5. H2O
        [      4.16500285,    0.00490831694,  -1.90139225e-06,   3.71185986e-10,  -2.87908305e-14,      -17858.6218,       2.91831124],    //   6. H2O2
        [             2.5,              0.0,              0.0,              0.0,              0.0,         -745.375,      0.928723974],    //   7. HE
        [        3.615144,      0.003212486,    -1.260337e-06,     2.267298e-10,    -1.536236e-14,       10661.9129,       4.81026141],    //   8. HNO
        [         6.47963,      0.001995274,    -1.740387e-07,    -9.695872e-11,      1.70148e-14,      -7809.50328,      -10.6771486],    //   9. HNO2
        [      3.98321933,    0.00488846374,  -1.65086637e-06,   2.55371446e-10,  -1.48308561e-14,       10583.3771,       3.62948054],    //  10. HNOH
        [       4.0172109,    0.00223982013,   -6.3365815e-07,    1.1424637e-10,  -1.07908535e-14,       115.280867,       3.78743242],    //  11. HO2
        [       3.7857743,    0.00286062728,  -1.02423922e-06,   1.64463139e-10,  -9.77943616e-15,       29329.3258,       3.11911856],    //  12. HON
        [        5.486893,      0.004218065,    -1.649143e-06,     2.971877e-10,    -2.021148e-14,      -11268.6517,      -2.99700713],    //  13. HONO
        [      8.03098942,    0.00446958589,  -1.72459491e-06,   2.91556153e-10,  -1.80102702e-14,      -19276.1511,      -16.2575769],    //  14. HONO2
        [        2.450268,     0.0001066146,    -7.465337e-08,     1.879652e-11,    -1.025984e-15,       56115.9802,       4.44866603],    //  15. N
        [         2.92664,     0.0014879768,     -5.68476e-07,    1.0097038e-10,    -6.753351e-15,      -922.796869,       5.98052646],    //  16. N2
        [       2.3838838,    0.00663619559,  -1.81669068e-06,  -1.19497031e-10,   9.31659255e-14,       23420.7531,       10.6091658],    //  17. N2H2
        [      4.04483566,    0.00731130186,  -2.47625799e-06,   3.83733021e-10,  -2.23107573e-14,       24815.7541,       2.88824492],    //  18. N2H3
        [      4.93957357,    0.00875017187,  -2.99399058e-06,   4.67278418e-10,  -2.73068599e-14,       9292.34679,      -2.68780235],    //  19. N2H4
        [        4.718977,      0.002873714,    -1.197496e-06,     2.250552e-10,    -1.575337e-14,       8165.81066,      -1.65724238],    //  20. N2O
        [      3.38393047,  -0.000304401048,   1.07871576e-06,  -5.39749068e-10,   8.56574985e-14,       41855.7586,       2.60065698],    //  21. NH
        [       3.8075146,   0.000174138848,   2.06281679e-06,  -1.18308148e-09,   2.00814234e-13,       21275.7238,       1.57634401],    //  22. NH2
        [      3.88112502,    0.00815708448,  -2.82615576e-06,   4.37930933e-10,  -2.52724604e-14,      -6855.34125,       3.79485718],    //  23. NH2OH
        [        2.461904,      0.006059166,    -2.004977e-06,     3.136003e-10,    -1.938317e-14,      -6493.27085,       7.47209222],    //  24. NH3
        [      2.78024159,    0.00451114118,  -1.98147075e-06,   3.61161241e-10,  -1.55679242e-14,       29347.3063,       9.91752872],    //  25. NNH
        [        3.245435,      0.001269138,     -5.01589e-07,     9.169283e-11,    -6.275419e-15,       9800.84168,       6.41729799],    //  26. NO
        [        4.682859,      0.002462429,    -1.042259e-06,     1.976902e-10,    -1.391717e-14,       2261.29246,       0.98859653],    //  27. NO2
        [      7.48347702,    0.00257772064,  -1.00945831e-06,   1.72314063e-10,  -1.07154008e-14,       6139.15999,       -14.155515],    //  28. NO3
        [      2.56942078,  -8.59741137e-05,   4.19484589e-08,  -1.00177799e-11,   1.22833691e-15,       29218.1207,       4.78470723],    //  29. O
        [      3.28253784,    0.00148308754,  -7.57966669e-07,   2.09470555e-10,  -2.16717794e-14,      -1087.81074,       5.45367161],    //  30. O2
        [      2.86472886,    0.00105650448,  -2.59082758e-07,   3.05218674e-11,  -1.33195876e-15,        3719.1766,       5.70185771]     //  31. OH
    ]
},
"arrhenius_parameters": {
    "num_reactions": 243,
    "num_max_species_per_reaction": 5,
    "arrhenius_params_with_orders": [
        //                 ln(A)                       b                     E/R               order (n)
        //[m^(3n-3)/mol^(n-1)/s]                     [-]                     [K]                     [-]
        [[    18.459901457105648,                    0.0,                7692.21],                      2],    //   0. H+O2<=>O+OH
        [[     15.15523728326783,                    0.0,     3999.5900000000001],                      2],    //   1. H2+O<=>H+OH (duplicate)
        [[    20.594522961053684,                    0.0,     9646.7200000000012],                      2],    //   2. H2+O<=>H+OH (duplicate)
        [[    5.3752784076841653,                   1.51,                1726.04],                      2],    //   3. H2+OH<=>H+H2O
        [[    2.9957322735539913,                  1.651,     317.53000000000003],                      2],    //   4. 2OH<=>H2O+O (duplicate)
        [[    12.468436909997665,  -0.057000000000000002,    -416.16000000000008],                      2],    //   5. 2OH<=>H2O+O (duplicate)
        [[    31.454649970594097,    -1.3999999999999999,     52526.060000000005],                      2],    //   6. H2+M<=>2H+M (duplicate)
        [[    29.395751912768684,    -1.1000000000000001,     52526.060000000005],                      2],    //   7. H2+AR<=>2H+AR
        [[    29.395751912768684,    -1.1000000000000001,     52526.060000000005],                      2],    //   8. H2+HE<=>2H+HE
        [[    8.7266434155984456,                   -0.5,                    0.0],                      3],    //   9. 2O+M<=>O2+M
        [[    2.9370432772053117,                    0.0,     -899.7600000000001],                      3],    //  10. 2O+AR<=>O2+AR
        [[    2.9370432772053117,                    0.0,     -899.7600000000001],                      3],    //  11. 2O+HE<=>O2+HE
        [[    15.366047362478213,                   -1.0,                    0.0],                      3],    //  12. H+O+M<=>OH+M (duplicate)
        [[    50.156656601215033,    -3.3220000000000001,     60783.890000000007],                      2],    //  13. H2O+M<=>H+OH+M (duplicate)
        [[    46.057683931558458,    -2.4399999999999999,               60476.93],                      2],    //  14. H2O+H2O<=>H+OH+H2O
        [[     15.35254980577659,                   0.44,                    0.0],                      2],    //  15. H+O2(+M)<=>HO2(+M)
        [[    1.0116009116784801,     2.0899999999999999,    -730.17000000000007],                      2],    //  16. H+HO2<=>H2+O2
        [[    18.075228305750372,                    0.0,     148.44999999999999],                      2],    //  17. H+HO2<=>2OH
        [[    10.257659366256743,                    1.0,    -364.30000000000001],                      2],    //  18. HO2+O<=>O2+OH
        [[    32.893711304833431,    -2.4900000000000002,     293.88000000000005],                      2],    //  19. HO2+OH<=>H2O+O2 (duplicate)
        [[    7.0983756385907872,                   1.24,    -659.22000000000003],                      2],    //  20. HO2+OH<=>H2O+O2 (duplicate)
        [[    25.200602651424617,                 -1.835,     402.57999999999998],                      3],    //  21. 2H+O2<=>H2+O2 (duplicate)
        [[    24.412145291060348,                 -1.835,     402.57999999999998],                      3],    //  22. 2H+O2<=>2OH
        [[    25.020551243165201,                 -1.835,     402.57999999999998],                      3],    //  23. H+O+O2<=>OH+O2 (duplicate)
        [[    23.965858188431927,                 -1.835,     402.57999999999998],                      3],    //  24. H+OH+O2<=>H2O+O2 (duplicate)
        [[    -17.76316074103557,     4.1200000000000001,    -2495.9700000000003],                      2],    //  25. 2HO2<=>H2O2+O2
        [[    27.186295293867083,                  -1.54,                 4297.5],                      2],    //  26. 2HO2<=>O2+2OH
        [[    28.324168296488494,    0.90000000000000002,     24531.450000000001],                      1],    //  27. H2O2(+M)<=>2OH(+M)
        [[    16.997722398460883,                    0.0,     1997.7800000000002],                      2],    //  28. H+H2O2<=>H2O+OH
        [[    17.690869579020831,                    0.0,     4000.5999999999999],                      2],    //  29. H+H2O2<=>H2+HO2
        [[     2.256541154492639,                    2.0,     1997.7800000000002],                      2],    //  30. H2O2+O<=>HO2+OH
        [[    14.369395671190713,                    0.0,     160.02000000000001],                      2],    //  31. H2O2+OH<=>H2O+HO2 (duplicate)
        [[     18.14492724236586,                    0.0,     3658.4099999999999],                      2],    //  32. H2O2+OH<=>H2O+HO2 (duplicate)
        [[    28.267597945000098,   -0.84999999999999998,     113224.40000000001],                      2],    //  33. N2+M<=>2N+M
        [[     6.633318433280377,   -0.10000000000000001,    -890.70000000000005],                      3],    //  34. N+O+M<=>NO+M
        [[    14.403297222866394,                    0.0,                    0.0],                      2],    //  35. N+NO2<=>N2O+O
        [[    8.6726572940403095,                   1.01,     3120.9699999999998],                      2],    //  36. N+O2<=>NO+O
        [[     18.50133864696982,   -0.20000000000000001,                    0.0],                      2],    //  37. N+OH<=>H+NO
        [[    17.281246460764002,                    0.0,                    0.0],                      2],    //  38. N+NO<=>N2+O
        [[    12.013700752882718,    0.70999999999999996,     468.50000000000006],                      2],    //  39. H+NH<=>H2+N
        [[    17.690869579020831,                  0.023,     47.810000000000009],                      2],    //  40. NH+O<=>H+NO
        [[    9.9378889792534615,                  0.622,    -180.15000000000003],                      2],    //  41. NH+O<=>N+OH
        [[    19.599335740294013,                 -0.376,    -23.150000000000002],                      2],    //  42. NH+OH<=>H+HNO
        [[    2.7663191092261861,     1.7330000000000001,    -289.85000000000002],                      2],    //  43. NH+OH<=>H2O+N
        [[    8.1077200619105341,                  1.034,     5746.7700000000004],                      2],    //  44. NH+O2<=>HNO+O
        [[    6.1092475827643655,    0.79000000000000004,     601.35000000000002],                      2],    //  45. NH+O2<=>NO+OH
        [[    15.649690743076281,  -0.035999999999999997,    -80.969999999999999],                      2],    //  46. 2NH=>H2+N2
        [[    17.846915320412499,  -0.035999999999999997,    -80.969999999999999],                      2],    //  47. 2NH=>2H+N2
        [[    17.216707939626431,                    0.0,                    0.0],                      2],    //  48. N+NH<=>H+N2
        [[    21.716517609956696,   -0.78000000000000003,                  10.06],                      2],    //  49. NH+NO<=>H+N2O
        [[    20.337603356134426,   -0.78000000000000003,                  10.06],                      2],    //  50. NH+NO<=>N2+OH
        [[    15.226497531674536,                    0.0,                    0.0],                      2],    //  51. NH+NO2<=>N2O+OH
        [[    15.590462908875947,                    0.0,                    0.0],                      2],    //  52. NH+NO2<=>HNO+NO
        [[     16.11809565095832,                    0.0,                    0.0],                      2],    //  53. HONO+NH<=>NH2+NO2
        [[    14.508657738524219,                    0.0,     3019.3200000000006],                      2],    //  54. N2O+NH<=>HNO+N2
        [[    20.905587393740365,                    0.0,               38246.07],                      2],    //  55. NH2+M<=>H+NH+M
        [[   -2.2164073967529934,     2.5899999999999999,     912.00000000000011],                      2],    //  56. H+NH2<=>H2+NH
        [[    15.793749594134948,                    0.0,                    0.0],                      2],    //  57. NH2+O<=>NH+OH
        [[    21.128730945054574,   -0.54700000000000004,     421.04000000000002],                      2],    //  58. NH2+O<=>H+HNO (duplicate)
        [[    18.163204513557652,   -0.27700000000000002,     325.28000000000003],                      2],    //  59. NH2+O<=>H+HNO (duplicate)
        [[   -3.2089254940150327,                   2.52,                 -310.0],                      2],    //  60. NH2+OH<=>H2O+NH
        [[     17.72753356339242,                    0.0,                    0.0],                      2],    //  61. HO2+NH2<=>H2NO+OH
        [[   0.77932487680099771,     2.0800000000000001,    -2395.3300000000004],                      2],    //  62. HO2+NH2<=>NH3+O2
        [[    12.468436909997665,    0.48720000000000002,     14643.690000000002],                      2],    //  63. NH2+O2<=>H2NO+O
        [[   -17.355970006959936,     3.7639999999999998,     9151.0499999999993],                      2],    //  64. NH2+O2<=>HNO+OH
        [[    18.049617062561534,                    0.0,                    0.0],                      2],    //  65. N+NH2<=>2H+N2
        [[    17.249497762449419,   -0.47999999999999998,     593.79999999999995],                      2],    //  66. NH2+NO<=>NNH+OH
        [[    32.331501481720963,    -2.5139999999999998,                 644.12],                      2],    //  67. NH2+NO<=>H2O+N2
        [[    13.664687668229691,                   0.11,    -596.82000000000005],                      2],    //  68. NH2+NO2<=>H2NO+NO
        [[    12.301382825334498,                   0.11,    -596.82000000000005],                      2],    //  69. NH2+NO2<=>H2O+N2O
        [[   -7.4353880210645089,     2.9500000000000002,    -1745.6700000000001],                      2],    //  70. HNO+NH2<=>NH3+NO
        [[   -12.238595837235733,     3.3599999999999999,    -2304.7500000000005],                      2],    //  71. HONO+NH2<=>NH3+NO2
        [[   -14.377629476117816,     3.8799999999999999,     172.09999999999999],                      2],    //  72. 2NH<=>N+NH2
        [[   -12.086335963927841,     3.5299999999999998,     278.07999999999998],                      2],    //  73. 2NH2<=>NH+NH3
        [[   -4.6487041880118198,                   2.46,                   54.0],                      2],    //  74. NH+NH2<=>N+NH3
        [[    48.996140839047357,    -3.0499999999999998,     33262.810000000005],                      2],    //  75. N2H2+M<=>H+NNH+M
        [[    6.1779441140506002,                   1.76,                  372.0],                      2],    //  76. H+N2H2<=>H2+NNH
        [[     16.11809565095832,                    0.0,                    0.0],                      2],    //  77. N2H2+O<=>NH2+NO
        [[    4.7095302013123339,     1.6200000000000001,     405.00000000000006],                      2],    //  78. N2H2+O<=>NNH+OH
        [[   -4.9996953540579216,     2.7999999999999998,    -255.12999999999997],                      2],    //  79. N2H2+OH<=>H2O+NNH
        [[    15.201804919084164,                    0.0,     5998.3800000000001],                      2],    //  80. N2H2+NO<=>N2O+NH2
        [[   -13.592367006650065,     3.7999999999999998,     5233.4799999999996],                      2],    //  81. N2H2+NO2<=>HONO+NNH
        [[   0.87546873735390007,                    2.0,    -599.84000000000015],                      2],    //  82. N2H2+NH<=>NH2+NNH
        [[    -1.305636458102436,                  2.226,    -518.32000000000005],                      2],    //  83. N2H2+NH2<=>NH3+NNH
        [[    18.683045008419857,   -0.27200000000000002,                 -38.75],                      2],    //  84. NH+NH2<=>H+N2H2
        [[    5.1357984370502621,     1.6200000000000001,     5929.4399999999996],                      2],    //  85. 2NH2<=>H2+N2H2
        [[     16.11809565095832,                    0.0,     999.90000000000009],                      2],    //  86. HO2+N2H2<=>H2O2+NNH
        [[     20.14344734169347,   -0.41399999999999998,     33.210000000000008],                      2],    //  87. 2NH2(+M)<=>N2H4(+M)
        [[    89.144967230951536,    -7.8399999999999999,     33766.029999999999],                      1],    //  88. N2H4<=>H2+N2H2
        [[    -1.287354413264987,     2.5600000000000001,     613.92999999999995],                      2],    //  89. H+N2H4<=>H2+N2H3
        [[     16.38045991542581,                    0.0,    -160.02000000000001],                      2],    //  90. N2H4+OH<=>H2O+N2H3
        [[   -14.089947403666034,                    4.0,                2037.03],                      2],    //  91. N2H4+NH2<=>N2H3+NH3
        [[    10.126631103850338,                    0.5,     14995.940000000001],                      2],    //  92. N2H2+N2H4<=>2N2H3
        [[    13.815510557964274,                    0.0,     1001.4100000000001],                      2],    //  93. N2H4+NH<=>N2H3+NH2
        [[    12.994530005894443,                    0.0,    -639.09000000000003],                      2],    //  94. N2H4+O<=>H2O+N2H2
        [[    6.5072777123850116,                    1.5,     1434.6800000000003],                      2],    //  95. N2H4+O<=>N2H3+OH
        [[   -9.7211659957421723,     3.1600000000000001,     15521.810000000001],                      2],    //  96. N2H4+NO<=>HNO+N2H3
        [[   -9.4087913107000212,     3.1299999999999999,     4458.5300000000007],                      2],    //  97. N2H4+NO2<=>HONO+N2H3
        [[   -17.545212006598465,     4.1399999999999997,     3998.5800000000004],                      2],    //  98. N2H4+NO2<=>HNO2+N2H3
        [[     25.57529610086603,    0.81899999999999995,     24204.860000000001],                      1],    //  99. N2H3(+M)<=>H+N2H2(+M)
        [[   -4.8960573893888206,     2.7959999999999998,     2355.0700000000006],                      2],    // 100. H+N2H3<=>H2+N2H2
        [[    1.8314608360796072,     1.8899999999999999,                  124.3],                      2],    // 101. H+N2H3<=>H2+H2NN
        [[    11.512925464970229,                    0.0,                    0.0],                      2],    // 102. H+N2H3<=>NH+NH3
        [[    5.1357984370502621,                    1.5,    -325.08000000000004],                      2],    // 103. N2H3+O<=>N2H2+OH
        [[    17.216707939626431,                    0.0,                    0.0],                      2],    // 104. N2H3+O<=>HNO+NH2
        [[    17.216707939626431,                    0.0,                    0.0],                      2],    // 105. N2H3+O=>H+NH2+NO
        [[   0.18232155679395479,                    2.0,    -599.84000000000015],                      2],    // 106. N2H3+OH<=>H2O+N2H2
        [[    17.216707939626431,                    0.0,                    0.0],                      2],    // 107. N2H3+OH<=>H2NN+H2O
        [[    13.815510557964274,                    0.0,     7548.2900000000009],                      2],    // 108. N2H3+OH<=>HNO+NH3
        [[    -4.268697949366878,     2.6899999999999999,    -805.15000000000009],                      2],    // 109. HO2+N2H3<=>H2O2+N2H2
        [[ -0.083381608939050889,     1.9399999999999999,     1069.8399999999999],                      2],    // 110. HO2+N2H3<=>N2H4+O2
        [[   -14.313090954980243,     3.5739999999999998,     598.83000000000004],                      2],    // 111. N2H3+NH2<=>N2H2+NH3
        [[   -11.408565449645986,     3.0800000000000001,     106.18000000000002],                      2],    // 112. N2H3+NH2<=>H2NN+NH3
        [[    16.811242831518264,                    0.0,                    0.0],                      2],    // 113. N2H3+NH<=>N2H2+NH2
        [[     16.11809565095832,                    0.0,     5002.0000000000009],                      2],    // 114. N2H2+N2H3<=>N2H4+NNH
        [[    14.914122846632385,                    0.0,                    0.0],                      2],    // 115. 2N2H3<=>N2+2NH3
        [[     16.11809565095832,                    0.0,     4999.4899999999998],                      2],    // 116. 2N2H2<=>N2H3+NNH
        [[   -2.6310891599660815,     1.8799999999999999,     4429.3400000000001],                      2],    // 117. 2NH2<=>H2+H2NN
        [[    61.090987849467304,    -4.8300000000000001,     23258.810000000001],                      1],    // 118. H2NN<=>H+NNH
        [[    6.1737861039019366,                    1.5,    -449.88000000000005],                      2],    // 119. H+H2NN<=>H2+NNH
        [[    18.064005800013632,                    0.0,                    0.0],                      2],    // 120. H+H2NN<=>H+N2H2
        [[    5.7990926544605257,                    1.5,    -449.88000000000005],                      2],    // 121. H2NN+O<=>NNH+OH
        [[    18.064005800013632,                    0.0,                    0.0],                      2],    // 122. H2NN+O<=>NH2+NO
        [[   0.87546873735390007,                    2.0,    -599.84000000000015],                      2],    // 123. H2NN+OH<=>H2O+NNH
        [[    14.508657738524219,                    0.0,                    0.0],                      2],    // 124. H2NN+OH=>H+NH2+NO
        [[    16.012735135300495,                    0.0,                    0.0],                      2],    // 125. H2NN+HO2=>NH2+NO+OH
        [[   -3.5404594489956627,     2.6899999999999999,    -805.15000000000009],                      2],    // 126. H2NN+HO2<=>H2O2+NNH
        [[    14.220975666072439,                    0.0,     2999.6900000000005],                      2],    // 127. H2NN+O2<=>NH2+NO2
        [[   0.58778666490211917,     1.9399999999999999,    -579.71000000000004],                      2],    // 128. H2NN+NH2<=>NH3+NNH
        [[    53.054767318667373,                   -4.0,     22141.660000000003],                      2],    // 129. H2NO+M<=>HNOH+M
        [[    42.139678854452768,    -2.7999999999999998,               29654.73],                      2],    // 130. HNOH+M<=>H+HNO+M
        [[    17.504390012078211,                    0.0,                    0.0],                      2],    // 131. H+HNOH<=>NH2+OH
        [[    6.1737861039019366,                    1.5,                 190.22],                      2],    // 132. H+HNOH<=>H2+HNO
        [[    18.064005800013632,                    0.0,                    0.0],                      2],    // 133. HNOH+O<=>HNO+OH (duplicate)
        [[    5.7990926544605257,                    1.5,    -180.15000000000003],                      2],    // 134. HNOH+O<=>HNO+OH (duplicate)
        [[   0.87546873735390007,                    2.0,    -599.84000000000015],                      2],    // 135. HNOH+OH<=>H2O+HNO
        [[   -3.5404594489956627,     2.7000000000000002,    -805.15000000000009],                      2],    // 136. HNOH+HO2<=>H2O2+HNO
        [[    14.914122846632385,                    0.0,               12580.49],                      2],    // 137. HNOH+O2<=>HNO+HO2
        [[   -11.512925464970229,                    3.5,    -235.00000000000003],                      2],    // 138. HNOH+NH2<=>N2H3+OH
        [[    25.200602651424617,    -1.1000000000000001,     560.08000000000015],                      2],    // 139. HNOH+NH2<=>H2NN+H2O
        [[   0.58778666490211917,     1.8999999999999999,    -579.71000000000004],                      2],    // 140. HNOH+NH2<=>HNO+NH3
        [[    13.304684934198283,                    0.0,     1006.4400000000002],                      2],    // 141. HNOH+NO2<=>HNO+HONO
        [[    46.388174096502127,    -1.3100000000000001,     32246.310000000005],                      1],    // 142. NH2OH(+M)<=>NH2+OH(+M)
        [[    6.1737861039019366,                    1.5,     3144.6200000000003],                      2],    // 143. H+NH2OH<=>H2+HNOH
        [[    5.4806389233419912,                    1.5,     2549.8100000000004],                      2],    // 144. H+NH2OH<=>H2+H2NO
        [[    5.7990926544605257,                    1.5,     1944.9400000000003],                      2],    // 145. NH2OH+O<=>HNOH+OH
        [[    5.1357984370502621,                    1.5,     1514.6900000000003],                      2],    // 146. NH2OH+O<=>H2NO+OH
        [[   -4.1997050778799263,     2.6099999999999999,    -1779.8900000000003],                      2],    // 147. NH2OH+OH<=>H2O+HNOH
        [[   -1.8971199848858811,     2.2799999999999998,    -652.16999999999996],                      2],    // 148. NH2OH+OH<=>H2NO+H2O
        [[   -16.022785471153995,                    4.0,    -48.810000000000009],                      2],    // 149. NH2+NH2OH<=>HNOH+NH3
        [[   -11.564218759357779,     3.4199999999999999,    -509.76000000000005],                      2],    // 150. NH2+NH2OH<=>H2NO+NH3
        [[   -19.658555099953983,     4.4000000000000004,     787.04000000000008],                      2],    // 151. NH+NH2OH<=>HNOH+NH2
        [[   -20.317800728838247,     4.5999999999999996,     1219.8000000000002],                      2],    // 152. NH+NH2OH<=>H2NO+NH2
        [[   -3.5404594489956627,     2.6899999999999999,     4809.2700000000013],                      2],    // 153. HO2+NH2OH<=>H2O2+HNOH
        [[    -4.268697949366878,     2.6899999999999999,     3229.6600000000003],                      2],    // 154. HO2+NH2OH<=>H2NO+H2O2
        [[    13.815510557964274,                    0.0,     1509.6600000000003],                      2],    // 155. HNO+HNOH<=>NH2OH+NO
        [[    23.814308290304727,                    0.0,     47035.930000000008],                      2],    // 156. NH3+M<=>H+NH2+M
        [[     1.061256502124341,                   2.23,     5233.4799999999996],                      2],    // 157. H+NH3<=>H2+NH2
        [[   -1.8585405029184059,     2.3719999999999999,     59.830000000000005],                      2],    // 158. NH3+OH<=>H2O+NH2
        [[   -13.655945988292935,                  3.839,     8685.5699999999997],                      2],    // 159. HO2+NH3<=>H2O2+NH2
        [[    -7.721940787919138,     3.1800000000000002,     3391.6500000000001],                      2],    // 160. NH3+O<=>NH2+OH
        [[    11.512925464970229,                    0.5,     10869.540000000003],                      2],    // 161. NH2+NH3<=>H2+N2H3
        [[      19.6146032124248,                    0.0,                    0.0],                      1],    // 162. NNH<=>H+N2
        [[    18.420680743952367,                    0.0,                    0.0],                      2],    // 163. H+NNH<=>H2+N2
        [[     17.72753356339242,                    0.0,                    0.0],                      2],    // 164. NNH+OH<=>H2O+N2
        [[    15.424948470398375,                    0.0,                    0.0],                      2],    // 165. NNH+NO<=>HNO+N2
        [[     17.72753356339242,                    0.0,                    0.0],                      2],    // 166. NH+NNH<=>N2+NH2
        [[     17.72753356339242,                    0.0,                    0.0],                      2],    // 167. NH2+NNH<=>N2+NH3
        [[    19.046619174818861,   -0.27400000000000002,                 -11.07],                      2],    // 168. NNH+O<=>H+N2O
        [[     13.15773052124162,    0.38800000000000001,    -205.81999999999999],                      2],    // 169. NNH+O<=>NH+NO
        [[    16.300417207752275,    0.14499999999999999,                 -109.2],                      2],    // 170. NNH+O<=>N2+OH
        [[     20.14344734169347,   -0.38500000000000001,    -6.5400000000000009],                      2],    // 171. NNH+O2<=>HO2+N2
        [[     16.11809565095832,                    0.0,     4999.4899999999998],                      2],    // 172. 2NNH<=>N2+N2H2
        [[                   0.0,                    1.0, 0.00012027235504272603],                      1],    // 173. HNO<=>H+NO
        [[    16.951004773893423,                    0.0,                    0.0],                      2],    // 174. HNO+O<=>NO+OH
        [[    12.994530005894443,    0.71999999999999997,     327.08999999999997],                      2],    // 175. H+HNO<=>H2+NO
        [[    17.399029496420383,                    0.0,                    0.0],                      2],    // 176. HNO+OH<=>H2O+NO
        [[    16.811242831518264,                    0.0,     8051.5100000000002],                      2],    // 177. HNO+O2<=>HO2+NO
        [[     16.11809565095832,                    0.0,     1001.4100000000001],                      2],    // 178. HNO+N<=>NH+NO
        [[    10.819778284410283,                    0.5,     1509.6600000000003],                      2],    // 179. HNO+N<=>H+N2O
        [[    13.122363377404328,                    0.5,                    0.0],                      2],    // 180. HNO+NH<=>NH2+NO
        [[    15.956752500549557,                    0.0,               14900.33],                      2],    // 181. HNO+NO<=>N2O+OH
        [[   -3.1235656450638758,     2.6000000000000001,                2033.01],                      2],    // 182. HNO+NO2<=>HONO+NO
        [[    6.8023947633243109,                    0.0,     1559.9800000000002],                      2],    // 183. 2HNO<=>H2O+N2O
        [[    31.562846748652873,                  -1.73,     8071.6400000000012],                      2],    // 184. HON+M<=>H+NO+M
        [[    16.993564388312219,                    0.0,                    0.0],                      2],    // 185. H+HON<=>H+HNO
        [[     16.11809565095832,                    0.0,                    0.0],                      2],    // 186. H+HON<=>NH+OH
        [[    18.064005800013632,                    0.0,                    0.0],                      2],    // 187. HON+O<=>NO+OH
        [[    17.504390012078211,                    0.0,                    0.0],                      2],    // 188. HON+OH<=>H+HONO
        [[    13.815510557964274,                    0.0,     2499.9899999999998],                      2],    // 189. HON+O2<=>NO2+OH
        [[   -6.9077552789821368,                    1.0, 0.00012027235504272603],                      2],    // 190. NO+OH<=>HONO
        [[    14.557447902693651,                    0.0,    -241.55000000000004],                      2],    // 191. HO2+NO<=>NO2+OH
        [[   -6.2659013928097425,     2.7999999999999998,      704.5100000000001],                      2],    // 192. H+HONO<=>H2+NO2
        [[   -3.7722610630529871,     2.7999999999999998,    -1006.4400000000002],                      2],    // 193. H+HNO2<=>H2+NO2
        [[    16.440179150127435,    0.28999999999999998,     12.630000000000001],                      2],    // 194. H+NO2<=>NO+OH
        [[    18.515990923756689,                   -0.5,                    0.0],                      2],    // 195. NO2+O<=>NO+O2
        [[    19.502485914304096,   -0.40000000000000002,                    0.0],                      2],    // 196. NO+O(+M)<=>NO2(+M)
        [[    17.216707939626431,                    0.0,                    0.0],                      2],    // 197. NO2+OH(+M)<=>HONO2(+M)
        [[    15.319587954740548,                    0.0,     13888.860000000002],                      2],    // 198. 2NO2<=>2NO+O2
        [[   -13.168407315905736,     3.3199999999999998,                 1531.8],                      2],    // 199. HO2+NO2<=>HONO+O2
        [[   -10.897739825879995,     3.2599999999999998,                2507.54],                      2],    // 200. HO2+NO2<=>HNO2+O2
        [[     27.89338538039604,                    0.0,     31486.450000000004],                      1],    // 201. N2O(+M)<=>N2+O(+M)
        [[    10.138559674715612,                    0.0,     2289.6500000000001],                      2],    // 202. H+N2O<=>N2+OH (duplicate)
        [[    20.030118656386467,                    0.0,     9108.2700000000004],                      2],    // 203. H+N2O<=>N2+OH (duplicate)
        [[    18.337299135013314,                    0.0,               13924.09],                      2],    // 204. N2O+O<=>2NO
        [[    15.123843377614453,                    0.0,     8016.2900000000009],                      2],    // 205. N2O+O<=>N2+O2
        [[   -18.158316479484874,     4.7000000000000002,     18397.709999999999],                      2],    // 206. N2O+OH<=>HO2+N2
        [[  -0.63487827243596928,     2.2000000000000002,     23289.000000000004],                      2],    // 207. N2O+NO<=>N2+NO2
        [[     16.11809565095832,                    0.0,     9998.9699999999993],                      2],    // 208. N+N2O<=>N2+NO
        [[     42.47615109107398,    -2.7999999999999998,     32663.980000000003],                      2],    // 209. H2NO+M<=>H+HNO+M
        [[    6.1737861039019366,                    1.5,     784.92000000000007],                      2],    // 210. H+H2NO<=>H2+HNO
        [[    17.504390012078211,                    0.0,                    0.0],                      2],    // 211. H+H2NO<=>NH2+OH
        [[    5.7990926544605257,                    1.5,                 244.97],                      2],    // 212. H2NO+O<=>HNO+OH
        [[   0.87546873735390007,                    2.0,     599.94000000000017],                      2],    // 213. H2NO+OH<=>H2O+HNO
        [[   0.58778666490211917,     1.9399999999999999,                -291.87],                      2],    // 214. H2NO+NH2<=>HNO+NH3
        [[   -3.5404594489956627,     2.6899999999999999,    -805.15000000000009],                      2],    // 215. H2NO+HO2<=>H2O2+HNO
        [[   -8.3774312490410789,     2.9940000000000002,     8303.1200000000026],                      2],    // 216. H2NO+O2<=>HNO+HO2
        [[    -3.912023005428146,                    2.0,     6541.8500000000004],                      2],    // 217. H2NO+NO<=>2HNO
        [[    13.304684934198283,                    0.0,     1006.4400000000002],                      2],    // 218. H2NO+NO2<=>HNO+HONO
        [[    16.300417207752275,                    0.0,     3019.3200000000006],                      2],    // 219. HONO+O<=>NO2+OH
        [[   -6.5022901708739722,     2.7000000000000002,     2314.8100000000004],                      2],    // 220. H+HONO<=>HNO+OH
        [[    8.3663703016816537,                    1.0,     2063.1999999999998],                      2],    // 221. H+HONO<=>H2O+NO
        [[    14.346138809026444,                    0.0,    -261.67000000000007],                      2],    // 222. HONO+OH<=>H2O+NO2
        [[    12.206072645530174,                    0.0,     16455.279999999999],                      2],    // 223. HONO+NO2<=>HONO2+NO
        [[   -14.865332682462952,     3.6400000000000001,     6109.0900000000001],                      2],    // 224. 2HONO<=>H2O+NO+NO2
        [[                   0.0,                    1.0, 0.00012027235504272603],                      1],    // 225. HNO2<=>HONO
        [[   -6.9077552789821368,                    1.0, 0.00012027235504272603],                      2],    // 226. NO+OH<=>HNO2
        [[    8.1315307106042525,     1.1000000000000001,     2818.0300000000002],                      2],    // 227. H+HNO2<=>H2O+NO
        [[    3.6109179126442248,                    1.8,     2818.0300000000002],                      2],    // 228. H+HNO2<=>HNO+OH
        [[    5.1357984370502621,                    1.5,     1006.4400000000002],                      2],    // 229. HNO2+O<=>NO2+OH
        [[    17.504390012078211,                    0.0,                    0.0],                      2],    // 230. HNO2+OH<=>H2O+NO2
        [[    6.3279367837291955,                    1.5,     8252.7999999999993],                      2],    // 231. H+HONO2<=>H2+NO3
        [[   -9.7046366937909632,     3.2999999999999998,     3162.7400000000002],                      2],    // 232. H+HONO2<=>H2O+NO2
        [[  -0.96758402626170548,     2.2999999999999998,     3510.4600000000005],                      2],    // 233. H+HONO2<=>HONO+OH
        [[    9.2103403719761836,                    0.0,    -623.99000000000001],                      2],    // 234. HONO2+OH<=>H2O+NO3
        [[    15.068273526459642,    0.20000000000000001,                    0.0],                      2],    // 235. NO2+O(+M)<=>NO3(+M)
        [[    9.1695183774559279,    0.69999999999999996,     10517.290000000001],                      2],    // 236. 2NO2<=>NO+NO3
        [[    17.909855120186375,                    0.0,                    0.0],                      2],    // 237. H+NO3<=>NO2+OH
        [[     16.11809565095832,                    0.0,                    0.0],                      2],    // 238. NO3+O<=>NO2+O2
        [[    16.454567887579532,                    0.0,                    0.0],                      2],    // 239. NO3+OH<=>HO2+NO2
        [[    14.220975666072439,                    0.0,                    0.0],                      2],    // 240. HO2+NO3<=>NO2+O2+OH
        [[    10.819778284410283,                    0.0,     1479.4700000000003],                      2],    // 241. NO3+NO2<=>NO+O2+NO2
        [[    13.146079904021645,                    0.0,     2450.6800000000003],                      2]     // 242. 2NO3<=>2NO2+O2
    ],
    "stochiometric_coeffs": [
        //                          indexes                           nu forward                          nu backward                                   nu
        [[    1,    29,    30,    31, 65535], [    1,     0,     1,     0,     0], [    0,     1,     0,     1,     0], [   -1,     1,    -1,     1,     0]],    //   0. H+O2<=>O+OH
        [[    1,     2,    29,    31, 65535], [    0,     1,     1,     0,     0], [    1,     0,     0,     1,     0], [    1,    -1,    -1,     1,     0]],    //   1. H2+O<=>H+OH (duplicate)
        [[    1,     2,    29,    31, 65535], [    0,     1,     1,     0,     0], [    1,     0,     0,     1,     0], [    1,    -1,    -1,     1,     0]],    //   2. H2+O<=>H+OH (duplicate)
        [[    1,     2,     5,    31, 65535], [    0,     1,     0,     1,     0], [    1,     0,     1,     0,     0], [    1,    -1,     1,    -1,     0]],    //   3. H2+OH<=>H+H2O
        [[    5,    29,    31, 65535, 65535], [    0,     0,     2,     0,     0], [    1,     1,     0,     0,     0], [    1,     1,    -2,     0,     0]],    //   4. 2OH<=>H2O+O (duplicate)
        [[    5,    29,    31, 65535, 65535], [    0,     0,     2,     0,     0], [    1,     1,     0,     0,     0], [    1,     1,    -2,     0,     0]],    //   5. 2OH<=>H2O+O (duplicate)
        [[    1,     2, 65535, 65535, 65535], [    0,     1,     0,     0,     0], [    2,     0,     0,     0,     0], [    2,    -1,     0,     0,     0]],    //   6. H2+M<=>2H+M (duplicate)
        [[    1,     2, 65535, 65535, 65535], [    0,     1,     0,     0,     0], [    2,     0,     0,     0,     0], [    2,    -1,     0,     0,     0]],    //   7. H2+AR<=>2H+AR
        [[    1,     2, 65535, 65535, 65535], [    0,     1,     0,     0,     0], [    2,     0,     0,     0,     0], [    2,    -1,     0,     0,     0]],    //   8. H2+HE<=>2H+HE
        [[   29,    30, 65535, 65535, 65535], [    2,     0,     0,     0,     0], [    0,     1,     0,     0,     0], [   -2,     1,     0,     0,     0]],    //   9. 2O+M<=>O2+M
        [[   29,    30, 65535, 65535, 65535], [    2,     0,     0,     0,     0], [    0,     1,     0,     0,     0], [   -2,     1,     0,     0,     0]],    //  10. 2O+AR<=>O2+AR
        [[   29,    30, 65535, 65535, 65535], [    2,     0,     0,     0,     0], [    0,     1,     0,     0,     0], [   -2,     1,     0,     0,     0]],    //  11. 2O+HE<=>O2+HE
        [[    1,    29,    31, 65535, 65535], [    1,     1,     0,     0,     0], [    0,     0,     1,     0,     0], [   -1,    -1,     1,     0,     0]],    //  12. H+O+M<=>OH+M (duplicate)
        [[    1,     5,    31, 65535, 65535], [    0,     1,     0,     0,     0], [    1,     0,     1,     0,     0], [    1,    -1,     1,     0,     0]],    //  13. H2O+M<=>H+OH+M (duplicate)
        [[    1,     5,    31, 65535, 65535], [    0,     1,     0,     0,     0], [    1,     0,     1,     0,     0], [    1,    -1,     1,     0,     0]],    //  14. H2O+H2O<=>H+OH+H2O
        [[    1,    11,    30, 65535, 65535], [    1,     0,     1,     0,     0], [    0,     1,     0,     0,     0], [   -1,     1,    -1,     0,     0]],    //  15. H+O2(+M)<=>HO2(+M)
        [[    1,     2,    11,    30, 65535], [    1,     0,     1,     0,     0], [    0,     1,     0,     1,     0], [   -1,     1,    -1,     1,     0]],    //  16. H+HO2<=>H2+O2
        [[    1,    11,    31, 65535, 65535], [    1,     1,     0,     0,     0], [    0,     0,     2,     0,     0], [   -1,    -1,     2,     0,     0]],    //  17. H+HO2<=>2OH
        [[   11,    29,    30,    31, 65535], [    1,     1,     0,     0,     0], [    0,     0,     1,     1,     0], [   -1,    -1,     1,     1,     0]],    //  18. HO2+O<=>O2+OH
        [[    5,    11,    30,    31, 65535], [    0,     1,     0,     1,     0], [    1,     0,     1,     0,     0], [    1,    -1,     1,    -1,     0]],    //  19. HO2+OH<=>H2O+O2 (duplicate)
        [[    5,    11,    30,    31, 65535], [    0,     1,     0,     1,     0], [    1,     0,     1,     0,     0], [    1,    -1,     1,    -1,     0]],    //  20. HO2+OH<=>H2O+O2 (duplicate)
        [[    1,     2, 65535, 65535, 65535], [    2,     0,     0,     0,     0], [    0,     1,     0,     0,     0], [   -2,     1,     0,     0,     0]],    //  21. 2H+O2<=>H2+O2 (duplicate)
        [[    1,    30,    31, 65535, 65535], [    2,     1,     0,     0,     0], [    0,     0,     2,     0,     0], [   -2,    -1,     2,     0,     0]],    //  22. 2H+O2<=>2OH
        [[    1,    29,    31, 65535, 65535], [    1,     1,     0,     0,     0], [    0,     0,     1,     0,     0], [   -1,    -1,     1,     0,     0]],    //  23. H+O+O2<=>OH+O2 (duplicate)
        [[    1,     5,    31, 65535, 65535], [    1,     0,     1,     0,     0], [    0,     1,     0,     0,     0], [   -1,     1,    -1,     0,     0]],    //  24. H+OH+O2<=>H2O+O2 (duplicate)
        [[    6,    11,    30, 65535, 65535], [    0,     2,     0,     0,     0], [    1,     0,     1,     0,     0], [    1,    -2,     1,     0,     0]],    //  25. 2HO2<=>H2O2+O2
        [[   11,    30,    31, 65535, 65535], [    2,     0,     0,     0,     0], [    0,     1,     2,     0,     0], [   -2,     1,     2,     0,     0]],    //  26. 2HO2<=>O2+2OH
        [[    6,    31, 65535, 65535, 65535], [    1,     0,     0,     0,     0], [    0,     2,     0,     0,     0], [   -1,     2,     0,     0,     0]],    //  27. H2O2(+M)<=>2OH(+M)
        [[    1,     5,     6,    31, 65535], [    1,     0,     1,     0,     0], [    0,     1,     0,     1,     0], [   -1,     1,    -1,     1,     0]],    //  28. H+H2O2<=>H2O+OH
        [[    1,     2,     6,    11, 65535], [    1,     0,     1,     0,     0], [    0,     1,     0,     1,     0], [   -1,     1,    -1,     1,     0]],    //  29. H+H2O2<=>H2+HO2
        [[    6,    11,    29,    31, 65535], [    1,     0,     1,     0,     0], [    0,     1,     0,     1,     0], [   -1,     1,    -1,     1,     0]],    //  30. H2O2+O<=>HO2+OH
        [[    5,     6,    11,    31, 65535], [    0,     1,     0,     1,     0], [    1,     0,     1,     0,     0], [    1,    -1,     1,    -1,     0]],    //  31. H2O2+OH<=>H2O+HO2 (duplicate)
        [[    5,     6,    11,    31, 65535], [    0,     1,     0,     1,     0], [    1,     0,     1,     0,     0], [    1,    -1,     1,    -1,     0]],    //  32. H2O2+OH<=>H2O+HO2 (duplicate)
        [[   15,    16, 65535, 65535, 65535], [    0,     1,     0,     0,     0], [    2,     0,     0,     0,     0], [    2,    -1,     0,     0,     0]],    //  33. N2+M<=>2N+M
        [[   15,    26,    29, 65535, 65535], [    1,     0,     1,     0,     0], [    0,     1,     0,     0,     0], [   -1,     1,    -1,     0,     0]],    //  34. N+O+M<=>NO+M
        [[   15,    20,    27,    29, 65535], [    1,     0,     1,     0,     0], [    0,     1,     0,     1,     0], [   -1,     1,    -1,     1,     0]],    //  35. N+NO2<=>N2O+O
        [[   15,    26,    29,    30, 65535], [    1,     0,     0,     1,     0], [    0,     1,     1,     0,     0], [   -1,     1,     1,    -1,     0]],    //  36. N+O2<=>NO+O
        [[    1,    15,    26,    31, 65535], [    0,     1,     0,     1,     0], [    1,     0,     1,     0,     0], [    1,    -1,     1,    -1,     0]],    //  37. N+OH<=>H+NO
        [[   15,    16,    26,    29, 65535], [    1,     0,     1,     0,     0], [    0,     1,     0,     1,     0], [   -1,     1,    -1,     1,     0]],    //  38. N+NO<=>N2+O
        [[    1,     2,    15,    21, 65535], [    1,     0,     0,     1,     0], [    0,     1,     1,     0,     0], [   -1,     1,     1,    -1,     0]],    //  39. H+NH<=>H2+N
        [[    1,    21,    26,    29, 65535], [    0,     1,     0,     1,     0], [    1,     0,     1,     0,     0], [    1,    -1,     1,    -1,     0]],    //  40. NH+O<=>H+NO
        [[   15,    21,    29,    31, 65535], [    0,     1,     1,     0,     0], [    1,     0,     0,     1,     0], [    1,    -1,    -1,     1,     0]],    //  41. NH+O<=>N+OH
        [[    1,     8,    21,    31, 65535], [    0,     0,     1,     1,     0], [    1,     1,     0,     0,     0], [    1,     1,    -1,    -1,     0]],    //  42. NH+OH<=>H+HNO
        [[    5,    15,    21,    31, 65535], [    0,     0,     1,     1,     0], [    1,     1,     0,     0,     0], [    1,     1,    -1,    -1,     0]],    //  43. NH+OH<=>H2O+N
        [[    8,    21,    29,    30, 65535], [    0,     1,     0,     1,     0], [    1,     0,     1,     0,     0], [    1,    -1,     1,    -1,     0]],    //  44. NH+O2<=>HNO+O
        [[   21,    26,    30,    31, 65535], [    1,     0,     1,     0,     0], [    0,     1,     0,     1,     0], [   -1,     1,    -1,     1,     0]],    //  45. NH+O2<=>NO+OH
        [[    2,    16,    21, 65535, 65535], [    0,     0,     2,     0,     0], [    1,     1,     0,     0,     0], [    1,     1,    -2,     0,     0]],    //  46. 2NH=>H2+N2
        [[    1,    16,    21, 65535, 65535], [    0,     0,     2,     0,     0], [    2,     1,     0,     0,     0], [    2,     1,    -2,     0,     0]],    //  47. 2NH=>2H+N2
        [[    1,    15,    16,    21, 65535], [    0,     1,     0,     1,     0], [    1,     0,     1,     0,     0], [    1,    -1,     1,    -1,     0]],    //  48. N+NH<=>H+N2
        [[    1,    20,    21,    26, 65535], [    0,     0,     1,     1,     0], [    1,     1,     0,     0,     0], [    1,     1,    -1,    -1,     0]],    //  49. NH+NO<=>H+N2O
        [[   16,    21,    26,    31, 65535], [    0,     1,     1,     0,     0], [    1,     0,     0,     1,     0], [    1,    -1,    -1,     1,     0]],    //  50. NH+NO<=>N2+OH
        [[   20,    21,    27,    31, 65535], [    0,     1,     1,     0,     0], [    1,     0,     0,     1,     0], [    1,    -1,    -1,     1,     0]],    //  51. NH+NO2<=>N2O+OH
        [[    8,    21,    26,    27, 65535], [    0,     1,     0,     1,     0], [    1,     0,     1,     0,     0], [    1,    -1,     1,    -1,     0]],    //  52. NH+NO2<=>HNO+NO
        [[   13,    21,    22,    27, 65535], [    1,     1,     0,     0,     0], [    0,     0,     1,     1,     0], [   -1,    -1,     1,     1,     0]],    //  53. HONO+NH<=>NH2+NO2
        [[    8,    16,    20,    21, 65535], [    0,     0,     1,     1,     0], [    1,     1,     0,     0,     0], [    1,     1,    -1,    -1,     0]],    //  54. N2O+NH<=>HNO+N2
        [[    1,    21,    22, 65535, 65535], [    0,     0,     1,     0,     0], [    1,     1,     0,     0,     0], [    1,     1,    -1,     0,     0]],    //  55. NH2+M<=>H+NH+M
        [[    1,     2,    21,    22, 65535], [    1,     0,     0,     1,     0], [    0,     1,     1,     0,     0], [   -1,     1,     1,    -1,     0]],    //  56. H+NH2<=>H2+NH
        [[   21,    22,    29,    31, 65535], [    0,     1,     1,     0,     0], [    1,     0,     0,     1,     0], [    1,    -1,    -1,     1,     0]],    //  57. NH2+O<=>NH+OH
        [[    1,     8,    22,    29, 65535], [    0,     0,     1,     1,     0], [    1,     1,     0,     0,     0], [    1,     1,    -1,    -1,     0]],    //  58. NH2+O<=>H+HNO (duplicate)
        [[    1,     8,    22,    29, 65535], [    0,     0,     1,     1,     0], [    1,     1,     0,     0,     0], [    1,     1,    -1,    -1,     0]],    //  59. NH2+O<=>H+HNO (duplicate)
        [[    5,    21,    22,    31, 65535], [    0,     0,     1,     1,     0], [    1,     1,     0,     0,     0], [    1,     1,    -1,    -1,     0]],    //  60. NH2+OH<=>H2O+NH
        [[    4,    11,    22,    31, 65535], [    0,     1,     1,     0,     0], [    1,     0,     0,     1,     0], [    1,    -1,    -1,     1,     0]],    //  61. HO2+NH2<=>H2NO+OH
        [[   11,    22,    24,    30, 65535], [    1,     1,     0,     0,     0], [    0,     0,     1,     1,     0], [   -1,    -1,     1,     1,     0]],    //  62. HO2+NH2<=>NH3+O2
        [[    4,    22,    29,    30, 65535], [    0,     1,     0,     1,     0], [    1,     0,     1,     0,     0], [    1,    -1,     1,    -1,     0]],    //  63. NH2+O2<=>H2NO+O
        [[    8,    22,    30,    31, 65535], [    0,     1,     1,     0,     0], [    1,     0,     0,     1,     0], [    1,    -1,    -1,     1,     0]],    //  64. NH2+O2<=>HNO+OH
        [[    1,    15,    16,    22, 65535], [    0,     1,     0,     1,     0], [    2,     0,     1,     0,     0], [    2,    -1,     1,    -1,     0]],    //  65. N+NH2<=>2H+N2
        [[   22,    25,    26,    31, 65535], [    1,     0,     1,     0,     0], [    0,     1,     0,     1,     0], [   -1,     1,    -1,     1,     0]],    //  66. NH2+NO<=>NNH+OH
        [[    5,    16,    22,    26, 65535], [    0,     0,     1,     1,     0], [    1,     1,     0,     0,     0], [    1,     1,    -1,    -1,     0]],    //  67. NH2+NO<=>H2O+N2
        [[    4,    22,    26,    27, 65535], [    0,     1,     0,     1,     0], [    1,     0,     1,     0,     0], [    1,    -1,     1,    -1,     0]],    //  68. NH2+NO2<=>H2NO+NO
        [[    5,    20,    22,    27, 65535], [    0,     0,     1,     1,     0], [    1,     1,     0,     0,     0], [    1,     1,    -1,    -1,     0]],    //  69. NH2+NO2<=>H2O+N2O
        [[    8,    22,    24,    26, 65535], [    1,     1,     0,     0,     0], [    0,     0,     1,     1,     0], [   -1,    -1,     1,     1,     0]],    //  70. HNO+NH2<=>NH3+NO
        [[   13,    22,    24,    27, 65535], [    1,     1,     0,     0,     0], [    0,     0,     1,     1,     0], [   -1,    -1,     1,     1,     0]],    //  71. HONO+NH2<=>NH3+NO2
        [[   15,    21,    22, 65535, 65535], [    0,     2,     0,     0,     0], [    1,     0,     1,     0,     0], [    1,    -2,     1,     0,     0]],    //  72. 2NH<=>N+NH2
        [[   21,    22,    24, 65535, 65535], [    0,     2,     0,     0,     0], [    1,     0,     1,     0,     0], [    1,    -2,     1,     0,     0]],    //  73. 2NH2<=>NH+NH3
        [[   15,    21,    22,    24, 65535], [    0,     1,     1,     0,     0], [    1,     0,     0,     1,     0], [    1,    -1,    -1,     1,     0]],    //  74. NH+NH2<=>N+NH3
        [[    1,    17,    25, 65535, 65535], [    0,     1,     0,     0,     0], [    1,     0,     1,     0,     0], [    1,    -1,     1,     0,     0]],    //  75. N2H2+M<=>H+NNH+M
        [[    1,     2,    17,    25, 65535], [    1,     0,     1,     0,     0], [    0,     1,     0,     1,     0], [   -1,     1,    -1,     1,     0]],    //  76. H+N2H2<=>H2+NNH
        [[   17,    22,    26,    29, 65535], [    1,     0,     0,     1,     0], [    0,     1,     1,     0,     0], [   -1,     1,     1,    -1,     0]],    //  77. N2H2+O<=>NH2+NO
        [[   17,    25,    29,    31, 65535], [    1,     0,     1,     0,     0], [    0,     1,     0,     1,     0], [   -1,     1,    -1,     1,     0]],    //  78. N2H2+O<=>NNH+OH
        [[    5,    17,    25,    31, 65535], [    0,     1,     0,     1,     0], [    1,     0,     1,     0,     0], [    1,    -1,     1,    -1,     0]],    //  79. N2H2+OH<=>H2O+NNH
        [[   17,    20,    22,    26, 65535], [    1,     0,     0,     1,     0], [    0,     1,     1,     0,     0], [   -1,     1,     1,    -1,     0]],    //  80. N2H2+NO<=>N2O+NH2
        [[   13,    17,    25,    27, 65535], [    0,     1,     0,     1,     0], [    1,     0,     1,     0,     0], [    1,    -1,     1,    -1,     0]],    //  81. N2H2+NO2<=>HONO+NNH
        [[   17,    21,    22,    25, 65535], [    1,     1,     0,     0,     0], [    0,     0,     1,     1,     0], [   -1,    -1,     1,     1,     0]],    //  82. N2H2+NH<=>NH2+NNH
        [[   17,    22,    24,    25, 65535], [    1,     1,     0,     0,     0], [    0,     0,     1,     1,     0], [   -1,    -1,     1,     1,     0]],    //  83. N2H2+NH2<=>NH3+NNH
        [[    1,    17,    21,    22, 65535], [    0,     0,     1,     1,     0], [    1,     1,     0,     0,     0], [    1,     1,    -1,    -1,     0]],    //  84. NH+NH2<=>H+N2H2
        [[    2,    17,    22, 65535, 65535], [    0,     0,     2,     0,     0], [    1,     1,     0,     0,     0], [    1,     1,    -2,     0,     0]],    //  85. 2NH2<=>H2+N2H2
        [[    6,    11,    17,    25, 65535], [    0,     1,     1,     0,     0], [    1,     0,     0,     1,     0], [    1,    -1,    -1,     1,     0]],    //  86. HO2+N2H2<=>H2O2+NNH
        [[   19,    22, 65535, 65535, 65535], [    0,     2,     0,     0,     0], [    1,     0,     0,     0,     0], [    1,    -2,     0,     0,     0]],    //  87. 2NH2(+M)<=>N2H4(+M)
        [[    2,    17,    19, 65535, 65535], [    0,     0,     1,     0,     0], [    1,     1,     0,     0,     0], [    1,     1,    -1,     0,     0]],    //  88. N2H4<=>H2+N2H2
        [[    1,     2,    18,    19, 65535], [    1,     0,     0,     1,     0], [    0,     1,     1,     0,     0], [   -1,     1,     1,    -1,     0]],    //  89. H+N2H4<=>H2+N2H3
        [[    5,    18,    19,    31, 65535], [    0,     0,     1,     1,     0], [    1,     1,     0,     0,     0], [    1,     1,    -1,    -1,     0]],    //  90. N2H4+OH<=>H2O+N2H3
        [[   18,    19,    22,    24, 65535], [    0,     1,     1,     0,     0], [    1,     0,     0,     1,     0], [    1,    -1,    -1,     1,     0]],    //  91. N2H4+NH2<=>N2H3+NH3
        [[   17,    18,    19, 65535, 65535], [    1,     0,     1,     0,     0], [    0,     2,     0,     0,     0], [   -1,     2,    -1,     0,     0]],    //  92. N2H2+N2H4<=>2N2H3
        [[   18,    19,    21,    22, 65535], [    0,     1,     1,     0,     0], [    1,     0,     0,     1,     0], [    1,    -1,    -1,     1,     0]],    //  93. N2H4+NH<=>N2H3+NH2
        [[    5,    17,    19,    29, 65535], [    0,     0,     1,     1,     0], [    1,     1,     0,     0,     0], [    1,     1,    -1,    -1,     0]],    //  94. N2H4+O<=>H2O+N2H2
        [[   18,    19,    29,    31, 65535], [    0,     1,     1,     0,     0], [    1,     0,     0,     1,     0], [    1,    -1,    -1,     1,     0]],    //  95. N2H4+O<=>N2H3+OH
        [[    8,    18,    19,    26, 65535], [    0,     0,     1,     1,     0], [    1,     1,     0,     0,     0], [    1,     1,    -1,    -1,     0]],    //  96. N2H4+NO<=>HNO+N2H3
        [[   13,    18,    19,    27, 65535], [    0,     0,     1,     1,     0], [    1,     1,     0,     0,     0], [    1,     1,    -1,    -1,     0]],    //  97. N2H4+NO2<=>HONO+N2H3
        [[    9,    18,    19,    27, 65535], [    0,     0,     1,     1,     0], [    1,     1,     0,     0,     0], [    1,     1,    -1,    -1,     0]],    //  98. N2H4+NO2<=>HNO2+N2H3
        [[    1,    17,    18, 65535, 65535], [    0,     0,     1,     0,     0], [    1,     1,     0,     0,     0], [    1,     1,    -1,     0,     0]],    //  99. N2H3(+M)<=>H+N2H2(+M)
        [[    1,     2,    17,    18, 65535], [    1,     0,     0,     1,     0], [    0,     1,     1,     0,     0], [   -1,     1,     1,    -1,     0]],    // 100. H+N2H3<=>H2+N2H2
        [[    1,     2,     3,    18, 65535], [    1,     0,     0,     1,     0], [    0,     1,     1,     0,     0], [   -1,     1,     1,    -1,     0]],    // 101. H+N2H3<=>H2+H2NN
        [[    1,    18,    21,    24, 65535], [    1,     1,     0,     0,     0], [    0,     0,     1,     1,     0], [   -1,    -1,     1,     1,     0]],    // 102. H+N2H3<=>NH+NH3
        [[   17,    18,    29,    31, 65535], [    0,     1,     1,     0,     0], [    1,     0,     0,     1,     0], [    1,    -1,    -1,     1,     0]],    // 103. N2H3+O<=>N2H2+OH
        [[    8,    18,    22,    29, 65535], [    0,     1,     0,     1,     0], [    1,     0,     1,     0,     0], [    1,    -1,     1,    -1,     0]],    // 104. N2H3+O<=>HNO+NH2
        [[    1,    18,    22,    26,    29], [    0,     1,     0,     0,     1], [    1,     0,     1,     1,     0], [    1,    -1,     1,     1,    -1]],    // 105. N2H3+O=>H+NH2+NO
        [[    5,    17,    18,    31, 65535], [    0,     0,     1,     1,     0], [    1,     1,     0,     0,     0], [    1,     1,    -1,    -1,     0]],    // 106. N2H3+OH<=>H2O+N2H2
        [[    3,     5,    18,    31, 65535], [    0,     0,     1,     1,     0], [    1,     1,     0,     0,     0], [    1,     1,    -1,    -1,     0]],    // 107. N2H3+OH<=>H2NN+H2O
        [[    8,    18,    24,    31, 65535], [    0,     1,     0,     1,     0], [    1,     0,     1,     0,     0], [    1,    -1,     1,    -1,     0]],    // 108. N2H3+OH<=>HNO+NH3
        [[    6,    11,    17,    18, 65535], [    0,     1,     0,     1,     0], [    1,     0,     1,     0,     0], [    1,    -1,     1,    -1,     0]],    // 109. HO2+N2H3<=>H2O2+N2H2
        [[   11,    18,    19,    30, 65535], [    1,     1,     0,     0,     0], [    0,     0,     1,     1,     0], [   -1,    -1,     1,     1,     0]],    // 110. HO2+N2H3<=>N2H4+O2
        [[   17,    18,    22,    24, 65535], [    0,     1,     1,     0,     0], [    1,     0,     0,     1,     0], [    1,    -1,    -1,     1,     0]],    // 111. N2H3+NH2<=>N2H2+NH3
        [[    3,    18,    22,    24, 65535], [    0,     1,     1,     0,     0], [    1,     0,     0,     1,     0], [    1,    -1,    -1,     1,     0]],    // 112. N2H3+NH2<=>H2NN+NH3
        [[   17,    18,    21,    22, 65535], [    0,     1,     1,     0,     0], [    1,     0,     0,     1,     0], [    1,    -1,    -1,     1,     0]],    // 113. N2H3+NH<=>N2H2+NH2
        [[   17,    18,    19,    25, 65535], [    1,     1,     0,     0,     0], [    0,     0,     1,     1,     0], [   -1,    -1,     1,     1,     0]],    // 114. N2H2+N2H3<=>N2H4+NNH
        [[   16,    18,    24, 65535, 65535], [    0,     2,     0,     0,     0], [    1,     0,     2,     0,     0], [    1,    -2,     2,     0,     0]],    // 115. 2N2H3<=>N2+2NH3
        [[   17,    18,    25, 65535, 65535], [    2,     0,     0,     0,     0], [    0,     1,     1,     0,     0], [   -2,     1,     1,     0,     0]],    // 116. 2N2H2<=>N2H3+NNH
        [[    2,     3,    22, 65535, 65535], [    0,     0,     2,     0,     0], [    1,     1,     0,     0,     0], [    1,     1,    -2,     0,     0]],    // 117. 2NH2<=>H2+H2NN
        [[    1,     3,    25, 65535, 65535], [    0,     1,     0,     0,     0], [    1,     0,     1,     0,     0], [    1,    -1,     1,     0,     0]],    // 118. H2NN<=>H+NNH
        [[    1,     2,     3,    25, 65535], [    1,     0,     1,     0,     0], [    0,     1,     0,     1,     0], [   -1,     1,    -1,     1,     0]],    // 119. H+H2NN<=>H2+NNH
        [[    1,     3,    17, 65535, 65535], [    1,     1,     0,     0,     0], [    1,     0,     1,     0,     0], [    0,    -1,     1,     0,     0]],    // 120. H+H2NN<=>H+N2H2
        [[    3,    25,    29,    31, 65535], [    1,     0,     1,     0,     0], [    0,     1,     0,     1,     0], [   -1,     1,    -1,     1,     0]],    // 121. H2NN+O<=>NNH+OH
        [[    3,    22,    26,    29, 65535], [    1,     0,     0,     1,     0], [    0,     1,     1,     0,     0], [   -1,     1,     1,    -1,     0]],    // 122. H2NN+O<=>NH2+NO
        [[    3,     5,    25,    31, 65535], [    1,     0,     0,     1,     0], [    0,     1,     1,     0,     0], [   -1,     1,     1,    -1,     0]],    // 123. H2NN+OH<=>H2O+NNH
        [[    1,     3,    22,    26,    31], [    0,     1,     0,     0,     1], [    1,     0,     1,     1,     0], [    1,    -1,     1,     1,    -1]],    // 124. H2NN+OH=>H+NH2+NO
        [[    3,    11,    22,    26,    31], [    1,     1,     0,     0,     0], [    0,     0,     1,     1,     1], [   -1,    -1,     1,     1,     1]],    // 125. H2NN+HO2=>NH2+NO+OH
        [[    3,     6,    11,    25, 65535], [    1,     0,     1,     0,     0], [    0,     1,     0,     1,     0], [   -1,     1,    -1,     1,     0]],    // 126. H2NN+HO2<=>H2O2+NNH
        [[    3,    22,    27,    30, 65535], [    1,     0,     0,     1,     0], [    0,     1,     1,     0,     0], [   -1,     1,     1,    -1,     0]],    // 127. H2NN+O2<=>NH2+NO2
        [[    3,    22,    24,    25, 65535], [    1,     1,     0,     0,     0], [    0,     0,     1,     1,     0], [   -1,    -1,     1,     1,     0]],    // 128. H2NN+NH2<=>NH3+NNH
        [[    4,    10, 65535, 65535, 65535], [    1,     0,     0,     0,     0], [    0,     1,     0,     0,     0], [   -1,     1,     0,     0,     0]],    // 129. H2NO+M<=>HNOH+M
        [[    1,     8,    10, 65535, 65535], [    0,     0,     1,     0,     0], [    1,     1,     0,     0,     0], [    1,     1,    -1,     0,     0]],    // 130. HNOH+M<=>H+HNO+M
        [[    1,    10,    22,    31, 65535], [    1,     1,     0,     0,     0], [    0,     0,     1,     1,     0], [   -1,    -1,     1,     1,     0]],    // 131. H+HNOH<=>NH2+OH
        [[    1,     2,     8,    10, 65535], [    1,     0,     0,     1,     0], [    0,     1,     1,     0,     0], [   -1,     1,     1,    -1,     0]],    // 132. H+HNOH<=>H2+HNO
        [[    8,    10,    29,    31, 65535], [    0,     1,     1,     0,     0], [    1,     0,     0,     1,     0], [    1,    -1,    -1,     1,     0]],    // 133. HNOH+O<=>HNO+OH (duplicate)
        [[    8,    10,    29,    31, 65535], [    0,     1,     1,     0,     0], [    1,     0,     0,     1,     0], [    1,    -1,    -1,     1,     0]],    // 134. HNOH+O<=>HNO+OH (duplicate)
        [[    5,     8,    10,    31, 65535], [    0,     0,     1,     1,     0], [    1,     1,     0,     0,     0], [    1,     1,    -1,    -1,     0]],    // 135. HNOH+OH<=>H2O+HNO
        [[    6,     8,    10,    11, 65535], [    0,     0,     1,     1,     0], [    1,     1,     0,     0,     0], [    1,     1,    -1,    -1,     0]],    // 136. HNOH+HO2<=>H2O2+HNO
        [[    8,    10,    11,    30, 65535], [    0,     1,     0,     1,     0], [    1,     0,     1,     0,     0], [    1,    -1,     1,    -1,     0]],    // 137. HNOH+O2<=>HNO+HO2
        [[   10,    18,    22,    31, 65535], [    1,     0,     1,     0,     0], [    0,     1,     0,     1,     0], [   -1,     1,    -1,     1,     0]],    // 138. HNOH+NH2<=>N2H3+OH
        [[    3,     5,    10,    22, 65535], [    0,     0,     1,     1,     0], [    1,     1,     0,     0,     0], [    1,     1,    -1,    -1,     0]],    // 139. HNOH+NH2<=>H2NN+H2O
        [[    8,    10,    22,    24, 65535], [    0,     1,     1,     0,     0], [    1,     0,     0,     1,     0], [    1,    -1,    -1,     1,     0]],    // 140. HNOH+NH2<=>HNO+NH3
        [[    8,    10,    13,    27, 65535], [    0,     1,     0,     1,     0], [    1,     0,     1,     0,     0], [    1,    -1,     1,    -1,     0]],    // 141. HNOH+NO2<=>HNO+HONO
        [[   22,    23,    31, 65535, 65535], [    0,     1,     0,     0,     0], [    1,     0,     1,     0,     0], [    1,    -1,     1,     0,     0]],    // 142. NH2OH(+M)<=>NH2+OH(+M)
        [[    1,     2,    10,    23, 65535], [    1,     0,     0,     1,     0], [    0,     1,     1,     0,     0], [   -1,     1,     1,    -1,     0]],    // 143. H+NH2OH<=>H2+HNOH
        [[    1,     2,     4,    23, 65535], [    1,     0,     0,     1,     0], [    0,     1,     1,     0,     0], [   -1,     1,     1,    -1,     0]],    // 144. H+NH2OH<=>H2+H2NO
        [[   10,    23,    29,    31, 65535], [    0,     1,     1,     0,     0], [    1,     0,     0,     1,     0], [    1,    -1,    -1,     1,     0]],    // 145. NH2OH+O<=>HNOH+OH
        [[    4,    23,    29,    31, 65535], [    0,     1,     1,     0,     0], [    1,     0,     0,     1,     0], [    1,    -1,    -1,     1,     0]],    // 146. NH2OH+O<=>H2NO+OH
        [[    5,    10,    23,    31, 65535], [    0,     0,     1,     1,     0], [    1,     1,     0,     0,     0], [    1,     1,    -1,    -1,     0]],    // 147. NH2OH+OH<=>H2O+HNOH
        [[    4,     5,    23,    31, 65535], [    0,     0,     1,     1,     0], [    1,     1,     0,     0,     0], [    1,     1,    -1,    -1,     0]],    // 148. NH2OH+OH<=>H2NO+H2O
        [[   10,    22,    23,    24, 65535], [    0,     1,     1,     0,     0], [    1,     0,     0,     1,     0], [    1,    -1,    -1,     1,     0]],    // 149. NH2+NH2OH<=>HNOH+NH3
        [[    4,    22,    23,    24, 65535], [    0,     1,     1,     0,     0], [    1,     0,     0,     1,     0], [    1,    -1,    -1,     1,     0]],    // 150. NH2+NH2OH<=>H2NO+NH3
        [[   10,    21,    22,    23, 65535], [    0,     1,     0,     1,     0], [    1,     0,     1,     0,     0], [    1,    -1,     1,    -1,     0]],    // 151. NH+NH2OH<=>HNOH+NH2
        [[    4,    21,    22,    23, 65535], [    0,     1,     0,     1,     0], [    1,     0,     1,     0,     0], [    1,    -1,     1,    -1,     0]],    // 152. NH+NH2OH<=>H2NO+NH2
        [[    6,    10,    11,    23, 65535], [    0,     0,     1,     1,     0], [    1,     1,     0,     0,     0], [    1,     1,    -1,    -1,     0]],    // 153. HO2+NH2OH<=>H2O2+HNOH
        [[    4,     6,    11,    23, 65535], [    0,     0,     1,     1,     0], [    1,     1,     0,     0,     0], [    1,     1,    -1,    -1,     0]],    // 154. HO2+NH2OH<=>H2NO+H2O2
        [[    8,    10,    23,    26, 65535], [    1,     1,     0,     0,     0], [    0,     0,     1,     1,     0], [   -1,    -1,     1,     1,     0]],    // 155. HNO+HNOH<=>NH2OH+NO
        [[    1,    22,    24, 65535, 65535], [    0,     0,     1,     0,     0], [    1,     1,     0,     0,     0], [    1,     1,    -1,     0,     0]],    // 156. NH3+M<=>H+NH2+M
        [[    1,     2,    22,    24, 65535], [    1,     0,     0,     1,     0], [    0,     1,     1,     0,     0], [   -1,     1,     1,    -1,     0]],    // 157. H+NH3<=>H2+NH2
        [[    5,    22,    24,    31, 65535], [    0,     0,     1,     1,     0], [    1,     1,     0,     0,     0], [    1,     1,    -1,    -1,     0]],    // 158. NH3+OH<=>H2O+NH2
        [[    6,    11,    22,    24, 65535], [    0,     1,     0,     1,     0], [    1,     0,     1,     0,     0], [    1,    -1,     1,    -1,     0]],    // 159. HO2+NH3<=>H2O2+NH2
        [[   22,    24,    29,    31, 65535], [    0,     1,     1,     0,     0], [    1,     0,     0,     1,     0], [    1,    -1,    -1,     1,     0]],    // 160. NH3+O<=>NH2+OH
        [[    2,    18,    22,    24, 65535], [    0,     0,     1,     1,     0], [    1,     1,     0,     0,     0], [    1,     1,    -1,    -1,     0]],    // 161. NH2+NH3<=>H2+N2H3
        [[    1,    16,    25, 65535, 65535], [    0,     0,     1,     0,     0], [    1,     1,     0,     0,     0], [    1,     1,    -1,     0,     0]],    // 162. NNH<=>H+N2
        [[    1,     2,    16,    25, 65535], [    1,     0,     0,     1,     0], [    0,     1,     1,     0,     0], [   -1,     1,     1,    -1,     0]],    // 163. H+NNH<=>H2+N2
        [[    5,    16,    25,    31, 65535], [    0,     0,     1,     1,     0], [    1,     1,     0,     0,     0], [    1,     1,    -1,    -1,     0]],    // 164. NNH+OH<=>H2O+N2
        [[    8,    16,    25,    26, 65535], [    0,     0,     1,     1,     0], [    1,     1,     0,     0,     0], [    1,     1,    -1,    -1,     0]],    // 165. NNH+NO<=>HNO+N2
        [[   16,    21,    22,    25, 65535], [    0,     1,     0,     1,     0], [    1,     0,     1,     0,     0], [    1,    -1,     1,    -1,     0]],    // 166. NH+NNH<=>N2+NH2
        [[   16,    22,    24,    25, 65535], [    0,     1,     0,     1,     0], [    1,     0,     1,     0,     0], [    1,    -1,     1,    -1,     0]],    // 167. NH2+NNH<=>N2+NH3
        [[    1,    20,    25,    29, 65535], [    0,     0,     1,     1,     0], [    1,     1,     0,     0,     0], [    1,     1,    -1,    -1,     0]],    // 168. NNH+O<=>H+N2O
        [[   21,    25,    26,    29, 65535], [    0,     1,     0,     1,     0], [    1,     0,     1,     0,     0], [    1,    -1,     1,    -1,     0]],    // 169. NNH+O<=>NH+NO
        [[   16,    25,    29,    31, 65535], [    0,     1,     1,     0,     0], [    1,     0,     0,     1,     0], [    1,    -1,    -1,     1,     0]],    // 170. NNH+O<=>N2+OH
        [[   11,    16,    25,    30, 65535], [    0,     0,     1,     1,     0], [    1,     1,     0,     0,     0], [    1,     1,    -1,    -1,     0]],    // 171. NNH+O2<=>HO2+N2
        [[   16,    17,    25, 65535, 65535], [    0,     0,     2,     0,     0], [    1,     1,     0,     0,     0], [    1,     1,    -2,     0,     0]],    // 172. 2NNH<=>N2+N2H2
        [[    1,     8,    26, 65535, 65535], [    0,     1,     0,     0,     0], [    1,     0,     1,     0,     0], [    1,    -1,     1,     0,     0]],    // 173. HNO<=>H+NO
        [[    8,    26,    29,    31, 65535], [    1,     0,     1,     0,     0], [    0,     1,     0,     1,     0], [   -1,     1,    -1,     1,     0]],    // 174. HNO+O<=>NO+OH
        [[    1,     2,     8,    26, 65535], [    1,     0,     1,     0,     0], [    0,     1,     0,     1,     0], [   -1,     1,    -1,     1,     0]],    // 175. H+HNO<=>H2+NO
        [[    5,     8,    26,    31, 65535], [    0,     1,     0,     1,     0], [    1,     0,     1,     0,     0], [    1,    -1,     1,    -1,     0]],    // 176. HNO+OH<=>H2O+NO
        [[    8,    11,    26,    30, 65535], [    1,     0,     0,     1,     0], [    0,     1,     1,     0,     0], [   -1,     1,     1,    -1,     0]],    // 177. HNO+O2<=>HO2+NO
        [[    8,    15,    21,    26, 65535], [    1,     1,     0,     0,     0], [    0,     0,     1,     1,     0], [   -1,    -1,     1,     1,     0]],    // 178. HNO+N<=>NH+NO
        [[    1,     8,    15,    20, 65535], [    0,     1,     1,     0,     0], [    1,     0,     0,     1,     0], [    1,    -1,    -1,     1,     0]],    // 179. HNO+N<=>H+N2O
        [[    8,    21,    22,    26, 65535], [    1,     1,     0,     0,     0], [    0,     0,     1,     1,     0], [   -1,    -1,     1,     1,     0]],    // 180. HNO+NH<=>NH2+NO
        [[    8,    20,    26,    31, 65535], [    1,     0,     1,     0,     0], [    0,     1,     0,     1,     0], [   -1,     1,    -1,     1,     0]],    // 181. HNO+NO<=>N2O+OH
        [[    8,    13,    26,    27, 65535], [    1,     0,     0,     1,     0], [    0,     1,     1,     0,     0], [   -1,     1,     1,    -1,     0]],    // 182. HNO+NO2<=>HONO+NO
        [[    5,     8,    20, 65535, 65535], [    0,     2,     0,     0,     0], [    1,     0,     1,     0,     0], [    1,    -2,     1,     0,     0]],    // 183. 2HNO<=>H2O+N2O
        [[    1,    12,    26, 65535, 65535], [    0,     1,     0,     0,     0], [    1,     0,     1,     0,     0], [    1,    -1,     1,     0,     0]],    // 184. HON+M<=>H+NO+M
        [[    1,     8,    12, 65535, 65535], [    1,     0,     1,     0,     0], [    1,     1,     0,     0,     0], [    0,     1,    -1,     0,     0]],    // 185. H+HON<=>H+HNO
        [[    1,    12,    21,    31, 65535], [    1,     1,     0,     0,     0], [    0,     0,     1,     1,     0], [   -1,    -1,     1,     1,     0]],    // 186. H+HON<=>NH+OH
        [[   12,    26,    29,    31, 65535], [    1,     0,     1,     0,     0], [    0,     1,     0,     1,     0], [   -1,     1,    -1,     1,     0]],    // 187. HON+O<=>NO+OH
        [[    1,    12,    13,    31, 65535], [    0,     1,     0,     1,     0], [    1,     0,     1,     0,     0], [    1,    -1,     1,    -1,     0]],    // 188. HON+OH<=>H+HONO
        [[   12,    27,    30,    31, 65535], [    1,     0,     1,     0,     0], [    0,     1,     0,     1,     0], [   -1,     1,    -1,     1,     0]],    // 189. HON+O2<=>NO2+OH
        [[   13,    26,    31, 65535, 65535], [    0,     1,     1,     0,     0], [    1,     0,     0,     0,     0], [    1,    -1,    -1,     0,     0]],    // 190. NO+OH<=>HONO
        [[   11,    26,    27,    31, 65535], [    1,     1,     0,     0,     0], [    0,     0,     1,     1,     0], [   -1,    -1,     1,     1,     0]],    // 191. HO2+NO<=>NO2+OH
        [[    1,     2,    13,    27, 65535], [    1,     0,     1,     0,     0], [    0,     1,     0,     1,     0], [   -1,     1,    -1,     1,     0]],    // 192. H+HONO<=>H2+NO2
        [[    1,     2,     9,    27, 65535], [    1,     0,     1,     0,     0], [    0,     1,     0,     1,     0], [   -1,     1,    -1,     1,     0]],    // 193. H+HNO2<=>H2+NO2
        [[    1,    26,    27,    31, 65535], [    1,     0,     1,     0,     0], [    0,     1,     0,     1,     0], [   -1,     1,    -1,     1,     0]],    // 194. H+NO2<=>NO+OH
        [[   26,    27,    29,    30, 65535], [    0,     1,     1,     0,     0], [    1,     0,     0,     1,     0], [    1,    -1,    -1,     1,     0]],    // 195. NO2+O<=>NO+O2
        [[   26,    27,    29, 65535, 65535], [    1,     0,     1,     0,     0], [    0,     1,     0,     0,     0], [   -1,     1,    -1,     0,     0]],    // 196. NO+O(+M)<=>NO2(+M)
        [[   14,    27,    31, 65535, 65535], [    0,     1,     1,     0,     0], [    1,     0,     0,     0,     0], [    1,    -1,    -1,     0,     0]],    // 197. NO2+OH(+M)<=>HONO2(+M)
        [[   26,    27,    30, 65535, 65535], [    0,     2,     0,     0,     0], [    2,     0,     1,     0,     0], [    2,    -2,     1,     0,     0]],    // 198. 2NO2<=>2NO+O2
        [[   11,    13,    27,    30, 65535], [    1,     0,     1,     0,     0], [    0,     1,     0,     1,     0], [   -1,     1,    -1,     1,     0]],    // 199. HO2+NO2<=>HONO+O2
        [[    9,    11,    27,    30, 65535], [    0,     1,     1,     0,     0], [    1,     0,     0,     1,     0], [    1,    -1,    -1,     1,     0]],    // 200. HO2+NO2<=>HNO2+O2
        [[   16,    20,    29, 65535, 65535], [    0,     1,     0,     0,     0], [    1,     0,     1,     0,     0], [    1,    -1,     1,     0,     0]],    // 201. N2O(+M)<=>N2+O(+M)
        [[    1,    16,    20,    31, 65535], [    1,     0,     1,     0,     0], [    0,     1,     0,     1,     0], [   -1,     1,    -1,     1,     0]],    // 202. H+N2O<=>N2+OH (duplicate)
        [[    1,    16,    20,    31, 65535], [    1,     0,     1,     0,     0], [    0,     1,     0,     1,     0], [   -1,     1,    -1,     1,     0]],    // 203. H+N2O<=>N2+OH (duplicate)
        [[   20,    26,    29, 65535, 65535], [    1,     0,     1,     0,     0], [    0,     2,     0,     0,     0], [   -1,     2,    -1,     0,     0]],    // 204. N2O+O<=>2NO
        [[   16,    20,    29,    30, 65535], [    0,     1,     1,     0,     0], [    1,     0,     0,     1,     0], [    1,    -1,    -1,     1,     0]],    // 205. N2O+O<=>N2+O2
        [[   11,    16,    20,    31, 65535], [    0,     0,     1,     1,     0], [    1,     1,     0,     0,     0], [    1,     1,    -1,    -1,     0]],    // 206. N2O+OH<=>HO2+N2
        [[   16,    20,    26,    27, 65535], [    0,     1,     1,     0,     0], [    1,     0,     0,     1,     0], [    1,    -1,    -1,     1,     0]],    // 207. N2O+NO<=>N2+NO2
        [[   15,    16,    20,    26, 65535], [    1,     0,     1,     0,     0], [    0,     1,     0,     1,     0], [   -1,     1,    -1,     1,     0]],    // 208. N+N2O<=>N2+NO
        [[    1,     4,     8, 65535, 65535], [    0,     1,     0,     0,     0], [    1,     0,     1,     0,     0], [    1,    -1,     1,     0,     0]],    // 209. H2NO+M<=>H+HNO+M
        [[    1,     2,     4,     8, 65535], [    1,     0,     1,     0,     0], [    0,     1,     0,     1,     0], [   -1,     1,    -1,     1,     0]],    // 210. H+H2NO<=>H2+HNO
        [[    1,     4,    22,    31, 65535], [    1,     1,     0,     0,     0], [    0,     0,     1,     1,     0], [   -1,    -1,     1,     1,     0]],    // 211. H+H2NO<=>NH2+OH
        [[    4,     8,    29,    31, 65535], [    1,     0,     1,     0,     0], [    0,     1,     0,     1,     0], [   -1,     1,    -1,     1,     0]],    // 212. H2NO+O<=>HNO+OH
        [[    4,     5,     8,    31, 65535], [    1,     0,     0,     1,     0], [    0,     1,     1,     0,     0], [   -1,     1,     1,    -1,     0]],    // 213. H2NO+OH<=>H2O+HNO
        [[    4,     8,    22,    24, 65535], [    1,     0,     1,     0,     0], [    0,     1,     0,     1,     0], [   -1,     1,    -1,     1,     0]],    // 214. H2NO+NH2<=>HNO+NH3
        [[    4,     6,     8,    11, 65535], [    1,     0,     0,     1,     0], [    0,     1,     1,     0,     0], [   -1,     1,     1,    -1,     0]],    // 215. H2NO+HO2<=>H2O2+HNO
        [[    4,     8,    11,    30, 65535], [    1,     0,     0,     1,     0], [    0,     1,     1,     0,     0], [   -1,     1,     1,    -1,     0]],    // 216. H2NO+O2<=>HNO+HO2
        [[    4,     8,    26, 65535, 65535], [    1,     0,     1,     0,     0], [    0,     2,     0,     0,     0], [   -1,     2,    -1,     0,     0]],    // 217. H2NO+NO<=>2HNO
        [[    4,     8,    13,    27, 65535], [    1,     0,     0,     1,     0], [    0,     1,     1,     0,     0], [   -1,     1,     1,    -1,     0]],    // 218. H2NO+NO2<=>HNO+HONO
        [[   13,    27,    29,    31, 65535], [    1,     0,     1,     0,     0], [    0,     1,     0,     1,     0], [   -1,     1,    -1,     1,     0]],    // 219. HONO+O<=>NO2+OH
        [[    1,     8,    13,    31, 65535], [    1,     0,     1,     0,     0], [    0,     1,     0,     1,     0], [   -1,     1,    -1,     1,     0]],    // 220. H+HONO<=>HNO+OH
        [[    1,     5,    13,    26, 65535], [    1,     0,     1,     0,     0], [    0,     1,     0,     1,     0], [   -1,     1,    -1,     1,     0]],    // 221. H+HONO<=>H2O+NO
        [[    5,    13,    27,    31, 65535], [    0,     1,     0,     1,     0], [    1,     0,     1,     0,     0], [    1,    -1,     1,    -1,     0]],    // 222. HONO+OH<=>H2O+NO2
        [[   13,    14,    26,    27, 65535], [    1,     0,     0,     1,     0], [    0,     1,     1,     0,     0], [   -1,     1,     1,    -1,     0]],    // 223. HONO+NO2<=>HONO2+NO
        [[    5,    13,    26,    27, 65535], [    0,     2,     0,     0,     0], [    1,     0,     1,     1,     0], [    1,    -2,     1,     1,     0]],    // 224. 2HONO<=>H2O+NO+NO2
        [[    9,    13, 65535, 65535, 65535], [    1,     0,     0,     0,     0], [    0,     1,     0,     0,     0], [   -1,     1,     0,     0,     0]],    // 225. HNO2<=>HONO
        [[    9,    26,    31, 65535, 65535], [    0,     1,     1,     0,     0], [    1,     0,     0,     0,     0], [    1,    -1,    -1,     0,     0]],    // 226. NO+OH<=>HNO2
        [[    1,     5,     9,    26, 65535], [    1,     0,     1,     0,     0], [    0,     1,     0,     1,     0], [   -1,     1,    -1,     1,     0]],    // 227. H+HNO2<=>H2O+NO
        [[    1,     8,     9,    31, 65535], [    1,     0,     1,     0,     0], [    0,     1,     0,     1,     0], [   -1,     1,    -1,     1,     0]],    // 228. H+HNO2<=>HNO+OH
        [[    9,    27,    29,    31, 65535], [    1,     0,     1,     0,     0], [    0,     1,     0,     1,     0], [   -1,     1,    -1,     1,     0]],    // 229. HNO2+O<=>NO2+OH
        [[    5,     9,    27,    31, 65535], [    0,     1,     0,     1,     0], [    1,     0,     1,     0,     0], [    1,    -1,     1,    -1,     0]],    // 230. HNO2+OH<=>H2O+NO2
        [[    1,     2,    14,    28, 65535], [    1,     0,     1,     0,     0], [    0,     1,     0,     1,     0], [   -1,     1,    -1,     1,     0]],    // 231. H+HONO2<=>H2+NO3
        [[    1,     5,    14,    27, 65535], [    1,     0,     1,     0,     0], [    0,     1,     0,     1,     0], [   -1,     1,    -1,     1,     0]],    // 232. H+HONO2<=>H2O+NO2
        [[    1,    13,    14,    31, 65535], [    1,     0,     1,     0,     0], [    0,     1,     0,     1,     0], [   -1,     1,    -1,     1,     0]],    // 233. H+HONO2<=>HONO+OH
        [[    5,    14,    28,    31, 65535], [    0,     1,     0,     1,     0], [    1,     0,     1,     0,     0], [    1,    -1,     1,    -1,     0]],    // 234. HONO2+OH<=>H2O+NO3
        [[   27,    28,    29, 65535, 65535], [    1,     0,     1,     0,     0], [    0,     1,     0,     0,     0], [   -1,     1,    -1,     0,     0]],    // 235. NO2+O(+M)<=>NO3(+M)
        [[   26,    27,    28, 65535, 65535], [    0,     2,     0,     0,     0], [    1,     0,     1,     0,     0], [    1,    -2,     1,     0,     0]],    // 236. 2NO2<=>NO+NO3
        [[    1,    27,    28,    31, 65535], [    1,     0,     1,     0,     0], [    0,     1,     0,     1,     0], [   -1,     1,    -1,     1,     0]],    // 237. H+NO3<=>NO2+OH
        [[   27,    28,    29,    30, 65535], [    0,     1,     1,     0,     0], [    1,     0,     0,     1,     0], [    1,    -1,    -1,     1,     0]],    // 238. NO3+O<=>NO2+O2
        [[   11,    27,    28,    31, 65535], [    0,     0,     1,     1,     0], [    1,     1,     0,     0,     0], [    1,     1,    -1,    -1,     0]],    // 239. NO3+OH<=>HO2+NO2
        [[   11,    27,    28,    30,    31], [    1,     0,     1,     0,     0], [    0,     1,     0,     1,     1], [   -1,     1,    -1,     1,     1]],    // 240. HO2+NO3<=>NO2+O2+OH
        [[   26,    28,    30, 65535, 65535], [    0,     1,     0,     0,     0], [    1,     0,     1,     0,     0], [    1,    -1,     1,     0,     0]],    // 241. NO3+NO2<=>NO+O2+NO2
        [[   27,    28,    30, 65535, 65535], [    0,     2,     0,     0,     0], [    2,     0,     1,     0,     0], [    2,    -2,     1,     0,     0]]     // 242. 2NO3<=>2NO2+O2
    ]
},
"third_body_reactions": {
    "num_third_body_reactions": 31,
    "third_body_reaction_indexes": [    6,     7,     8,     9,    10,    11,    12,    13,    14,    15,    21,    23,    24,    27,    33,    34,    55,    75,    87,    99,   129,   130,   142,   156,   184,   196,   197,   201,   209,   235,   241],
    "is_falloff_reaction":         [false, false, false, false, false, false, false, false, false,  true, false, false, false,  true, false, false, false, false,  true,  true, false, false,  true, false, false,  true,  true,  true, false,  true, false],
    "third_body_efficiencies": [
        //      AR         H        H2      H2NN      H2NO       H2O      H2O2        HE       HNO      HNO2      HNOH       HO2       HON      HONO     HONO2         N        N2      N2H2      N2H3      N2H4       N2O        NH       NH2     NH2OH       NH3       NNH        NO       NO2       NO3         O        O2        OH
        [     0.0,      1.0,      2.5,      1.0,      1.0,     12.0,      1.0,      0.0,      1.0,      1.0,      1.0,      1.0,      1.0,      1.0,      1.0,      1.0,      1.0,      1.0,      1.0,      1.0,      1.0,      1.0,      1.0,      1.0,      1.0,      1.0,      1.0,      1.0,      1.0,      1.0,      1.0,      1.0],    //   6. H2+M<=>2H+M (duplicate)
        [     1.0,      0.0,      0.0,      0.0,      0.0,      0.0,      0.0,      0.0,      0.0,      0.0,      0.0,      0.0,      0.0,      0.0,      0.0,      0.0,      0.0,      0.0,      0.0,      0.0,      0.0,      0.0,      0.0,      0.0,      0.0,      0.0,      0.0,      0.0,      0.0,      0.0,      0.0,      0.0],    //   7. H2+AR<=>2H+AR
        [     0.0,      0.0,      0.0,      0.0,      0.0,      0.0,      0.0,      1.0,      0.0,      0.0,      0.0,      0.0,      0.0,      0.0,      0.0,      0.0,      0.0,      0.0,      0.0,      0.0,      0.0,      0.0,      0.0,      0.0,      0.0,      0.0,      0.0,      0.0,      0.0,      0.0,      0.0,      0.0],    //   8. H2+HE<=>2H+HE
        [     0.0,      1.0,      2.5,      1.0,      1.0,     12.0,      1.0,      0.0,      1.0,      1.0,      1.0,      1.0,      1.0,      1.0,      1.0,      1.0,      1.0,      1.0,      1.0,      1.0,      1.0,      1.0,      1.0,      1.0,      1.0,      1.0,      1.0,      1.0,      1.0,      1.0,      1.0,      1.0],    //   9. 2O+M<=>O2+M
        [     1.0,      0.0,      0.0,      0.0,      0.0,      0.0,      0.0,      0.0,      0.0,      0.0,      0.0,      0.0,      0.0,      0.0,      0.0,      0.0,      0.0,      0.0,      0.0,      0.0,      0.0,      0.0,      0.0,      0.0,      0.0,      0.0,      0.0,      0.0,      0.0,      0.0,      0.0,      0.0],    //  10. 2O+AR<=>O2+AR
